<?xml version="1.0" encoding="UTF-8" standalone="yes"?>
<PMML xmlns="http://www.dmg.org/PMML-4_4" xmlns:data="http://jpmml.org/jpmml-model/InlineTable" version="4.4">
	<Header>
		<Application name="SkLearn2PMML package" version="0.99.1"/>
		<Timestamp>2023-11-02T18:41:17Z</Timestamp>
	</Header>
	<MiningBuildTask>
		<Extension name="repr">PMMLPipeline(steps=[('lgb', LGBMRegressor(n_estimators=500, objective='regression_l1', verbose=-1))])</Extension>
	</MiningBuildTask>
	<DataDictionary>
		<DataField name="target" optype="continuous" dataType="double"/>
		<DataField name="ODI" optype="continuous" dataType="double"/>
		<DataField name="PT" optype="continuous" dataType="double"/>
		<DataField name="PI-LL" optype="continuous" dataType="double"/>
	</DataDictionary>
	<MiningModel functionName="regression" algorithmName="LightGBM">
		<MiningSchema>
			<Extension name="X-FeatureImportances">
				<InlineTable>
					<Extension name="numberOfImportances" value="3"/>
					<Extension name="numberOfNonZeroImportances" value="3"/>
					<Extension name="sumOfImportances" value="1409.0"/>
					<Extension name="minImportance" value="362.0"/>
					<Extension name="maxImportance" value="610.0"/>
					<row>
						<data:name>PI-LL</data:name>
						<data:importance>437.0</data:importance>
					</row>
					<row>
						<data:name>ODI</data:name>
						<data:importance>610.0</data:importance>
					</row>
					<row>
						<data:name>PT</data:name>
						<data:importance>362.0</data:importance>
					</row>
				</InlineTable>
			</Extension>
			<MiningField name="target" usageType="target"/>
			<MiningField name="ODI" importance="610.0"/>
			<MiningField name="PT" importance="362.0"/>
			<MiningField name="PI-LL" importance="437.0"/>
		</MiningSchema>
		<Segmentation multipleModelMethod="sum" missingPredictionTreatment="returnMissing">
			<Segment id="1">
				<True/>
				<TreeModel functionName="regression" noTrueChildStrategy="returnLastPrediction">
					<MiningSchema>
						<MiningField name="ODI"/>
						<MiningField name="PI-LL"/>
					</MiningSchema>
					<Node score="9.870000004768372">
						<True/>
						<Node score="11.35">
							<SimplePredicate field="PI-LL" operator="greaterThan" value="13.100000000000003"/>
							<Node score="12.25">
								<SimplePredicate field="PI-LL" operator="greaterThan" value="33.00000000000001"/>
							</Node>
							<Node score="10.45">
								<SimplePredicate field="ODI" operator="greaterThan" value="57.89000000000001"/>
							</Node>
						</Node>
					</Node>
				</TreeModel>
			</Segment>
			<Segment id="2">
				<True/>
				<TreeModel functionName="regression" noTrueChildStrategy="returnLastPrediction">
					<MiningSchema>
						<MiningField name="ODI"/>
						<MiningField name="PI-LL"/>
					</MiningSchema>
					<Node score="-0.5669999957084656">
						<True/>
						<Node score="0.7650000000000001">
							<SimplePredicate field="PI-LL" operator="greaterThan" value="13.100000000000003"/>
							<Node score="1.5750000000000002">
								<SimplePredicate field="PI-LL" operator="greaterThan" value="33.00000000000001"/>
							</Node>
							<Node score="-0.04499999999999993">
								<SimplePredicate field="ODI" operator="greaterThan" value="57.89000000000001"/>
							</Node>
						</Node>
					</Node>
				</TreeModel>
			</Segment>
			<Segment id="3">
				<True/>
				<TreeModel functionName="regression" noTrueChildStrategy="returnLastPrediction">
					<MiningSchema>
						<MiningField name="ODI"/>
						<MiningField name="PI-LL"/>
					</MiningSchema>
					<Node score="-0.510299996137619">
						<True/>
						<Node score="1.4175000000000002">
							<SimplePredicate field="PI-LL" operator="greaterThan" value="33.00000000000001"/>
						</Node>
						<Node score="0.6885">
							<SimplePredicate field="PI-LL" operator="greaterThan" value="13.100000000000003"/>
							<Node score="-0.04049999999999994">
								<SimplePredicate field="ODI" operator="greaterThan" value="57.89000000000001"/>
							</Node>
						</Node>
					</Node>
				</TreeModel>
			</Segment>
			<Segment id="4">
				<True/>
				<TreeModel functionName="regression" noTrueChildStrategy="returnLastPrediction">
					<MiningSchema>
						<MiningField name="ODI"/>
						<MiningField name="PI-LL"/>
					</MiningSchema>
					<Node score="-0.5792700012922287">
						<True/>
						<Node score="1.2757500000000002">
							<SimplePredicate field="PI-LL" operator="greaterThan" value="33.00000000000001"/>
						</Node>
						<Node score="0.5296500381469728">
							<SimplePredicate field="PI-LL" operator="greaterThan" value="9.550000000000002"/>
							<Node score="-0.03644999999999996">
								<SimplePredicate field="ODI" operator="greaterThan" value="57.89000000000001"/>
							</Node>
						</Node>
					</Node>
				</TreeModel>
			</Segment>
			<Segment id="5">
				<True/>
				<TreeModel functionName="regression" noTrueChildStrategy="returnLastPrediction">
					<MiningSchema>
						<MiningField name="ODI"/>
						<MiningField name="PI-LL"/>
					</MiningSchema>
					<Node score="-0.5213430011630059">
						<True/>
						<Node score="1.1481750000000002">
							<SimplePredicate field="PI-LL" operator="greaterThan" value="33.00000000000001"/>
						</Node>
						<Node score="0.5216850152587892">
							<SimplePredicate field="PI-LL" operator="greaterThan" value="9.550000000000002"/>
							<Node score="-0.03280499999999993">
								<SimplePredicate field="ODI" operator="greaterThan" value="55.78000000000001"/>
							</Node>
						</Node>
					</Node>
				</TreeModel>
			</Segment>
			<Segment id="6">
				<True/>
				<TreeModel functionName="regression" noTrueChildStrategy="returnLastPrediction">
					<MiningSchema>
						<MiningField name="ODI"/>
						<MiningField name="PI-LL"/>
					</MiningSchema>
					<Node score="-0.4692087010467054">
						<True/>
						<Node score="1.0333575000000004">
							<SimplePredicate field="PI-LL" operator="greaterThan" value="33.00000000000001"/>
						</Node>
						<Node score="0.46951651373291026">
							<SimplePredicate field="PI-LL" operator="greaterThan" value="9.550000000000002"/>
							<Node score="-0.029524499999999954">
								<SimplePredicate field="ODI" operator="greaterThan" value="55.78000000000001"/>
							</Node>
						</Node>
					</Node>
				</TreeModel>
			</Segment>
			<Segment id="7">
				<True/>
				<TreeModel functionName="regression" noTrueChildStrategy="returnLastPrediction">
					<MiningSchema>
						<MiningField name="ODI"/>
						<MiningField name="PI-LL"/>
					</MiningSchema>
					<Node score="-0.42228783094203487">
						<True/>
						<Node score="0.9300217500000003">
							<SimplePredicate field="PI-LL" operator="greaterThan" value="33.00000000000001"/>
						</Node>
						<Node score="0.42256486235961915">
							<SimplePredicate field="PI-LL" operator="greaterThan" value="9.550000000000002"/>
							<Node score="-0.02657205000000005">
								<SimplePredicate field="ODI" operator="greaterThan" value="55.78000000000001"/>
							</Node>
						</Node>
					</Node>
				</TreeModel>
			</Segment>
			<Segment id="8">
				<True/>
				<TreeModel functionName="regression" noTrueChildStrategy="returnLastPrediction">
					<MiningSchema>
						<MiningField name="ODI"/>
						<MiningField name="PT"/>
						<MiningField name="PI-LL"/>
					</MiningSchema>
					<Node score="-0.12151973642391566">
						<True/>
						<Node score="0.019940952152168647">
							<SimplePredicate field="PT" operator="greaterThan" value="22.200000000000003"/>
							<Node score="0.9253083570501709">
								<SimplePredicate field="PI-LL" operator="greaterThan" value="24.500000000000004"/>
							</Node>
						</Node>
						<Node score="-0.323914845">
							<SimplePredicate field="ODI" operator="greaterThan" value="61.00000000000001"/>
						</Node>
					</Node>
				</TreeModel>
			</Segment>
			<Segment id="9">
				<True/>
				<TreeModel functionName="regression" noTrueChildStrategy="returnLastPrediction">
					<MiningSchema>
						<MiningField name="ODI"/>
						<MiningField name="PT"/>
						<MiningField name="PI-LL"/>
					</MiningSchema>
					<Node score="-0.10936776278152403">
						<True/>
						<Node score="0.017946856936951774">
							<SimplePredicate field="PT" operator="greaterThan" value="22.200000000000003"/>
							<Node score="0.8327775213451538">
								<SimplePredicate field="PI-LL" operator="greaterThan" value="24.500000000000004"/>
							</Node>
						</Node>
						<Node score="-0.2915233605000001">
							<SimplePredicate field="ODI" operator="greaterThan" value="61.00000000000001"/>
						</Node>
					</Node>
				</TreeModel>
			</Segment>
			<Segment id="10">
				<True/>
				<TreeModel functionName="regression" noTrueChildStrategy="returnLastPrediction">
					<MiningSchema>
						<MiningField name="ODI"/>
						<MiningField name="PT"/>
						<MiningField name="PI-LL"/>
					</MiningSchema>
					<Node score="-0.09843098650337163">
						<True/>
						<Node score="0.016152171243256585">
							<SimplePredicate field="PT" operator="greaterThan" value="22.200000000000003"/>
							<Node score="0.7494997692106384">
								<SimplePredicate field="PI-LL" operator="greaterThan" value="24.500000000000004"/>
							</Node>
						</Node>
						<Node score="-0.26237102445000016">
							<SimplePredicate field="ODI" operator="greaterThan" value="61.00000000000001"/>
						</Node>
					</Node>
				</TreeModel>
			</Segment>
			<Segment id="11">
				<True/>
				<TreeModel functionName="regression" noTrueChildStrategy="returnLastPrediction">
					<MiningSchema>
						<MiningField name="ODI"/>
						<MiningField name="PI-LL"/>
					</MiningSchema>
					<Node score="-0.3671272040453218">
						<True/>
						<Node score="0.47454979228957445">
							<SimplePredicate field="PI-LL" operator="greaterThan" value="8.350000000000003"/>
							<Node score="-0.17519950200499965">
								<SimplePredicate field="ODI" operator="greaterThan" value="55.78000000000001"/>
								<Node score="0.36727361748088105">
									<SimplePredicate field="ODI" operator="greaterThan" value="83.00000000000001"/>
								</Node>
							</Node>
						</Node>
					</Node>
				</TreeModel>
			</Segment>
			<Segment id="12">
				<True/>
				<TreeModel functionName="regression" noTrueChildStrategy="returnLastPrediction">
					<MiningSchema>
						<MiningField name="ODI"/>
						<MiningField name="PT"/>
						<MiningField name="PI-LL"/>
					</MiningSchema>
					<Node score="-0.06147155255051842">
						<True/>
						<Node score="0.0512496745234631">
							<SimplePredicate field="PT" operator="greaterThan" value="22.200000000000003"/>
							<Node score="0.6270948130606169">
								<SimplePredicate field="PI-LL" operator="greaterThan" value="24.500000000000004"/>
							</Node>
						</Node>
						<Node score="-0.2186139718045002">
							<SimplePredicate field="ODI" operator="greaterThan" value="61.00000000000001"/>
						</Node>
					</Node>
				</TreeModel>
			</Segment>
			<Segment id="13">
				<True/>
				<TreeModel functionName="regression" noTrueChildStrategy="returnLastPrediction">
					<MiningSchema>
						<MiningField name="ODI"/>
						<MiningField name="PI-LL"/>
					</MiningSchema>
					<Node score="-0.3242673283857378">
						<True/>
						<Node score="0.41693238164714636">
							<SimplePredicate field="PI-LL" operator="greaterThan" value="8.350000000000003"/>
							<Node score="-0.13581815462404948">
								<SimplePredicate field="ODI" operator="greaterThan" value="55.78000000000001"/>
								<Node score="0.33891447059684476">
									<SimplePredicate field="ODI" operator="greaterThan" value="83.00000000000001"/>
								</Node>
							</Node>
						</Node>
					</Node>
				</TreeModel>
			</Segment>
			<Segment id="14">
				<True/>
				<TreeModel functionName="regression" noTrueChildStrategy="returnLastPrediction">
					<MiningSchema>
						<MiningField name="ODI"/>
						<MiningField name="PT"/>
						<MiningField name="PI-LL"/>
					</MiningSchema>
					<Node score="-0.29184059554716396">
						<True/>
						<Node score="0.4741616338803777">
							<SimplePredicate field="PI-LL" operator="greaterThan" value="13.100000000000003"/>
							<Node score="-0.18317075916164535">
								<SimplePredicate field="ODI" operator="greaterThan" value="55.78000000000001"/>
								<Node score="0.45293272012556973">
									<SimplePredicate field="PT" operator="greaterThan" value="24.150000000000002"/>
								</Node>
							</Node>
						</Node>
					</Node>
				</TreeModel>
			</Segment>
			<Segment id="15">
				<True/>
				<TreeModel functionName="regression" noTrueChildStrategy="returnLastPrediction">
					<MiningSchema>
						<MiningField name="ODI"/>
						<MiningField name="PI-LL"/>
					</MiningSchema>
					<Node score="-0.26265653599244754">
						<True/>
						<Node score="0.4267454704923399">
							<SimplePredicate field="PI-LL" operator="greaterThan" value="13.100000000000003"/>
							<Node score="-0.16485368324548075">
								<SimplePredicate field="ODI" operator="greaterThan" value="57.89000000000001"/>
								<Node score="0.1834257422838418">
									<SimplePredicate field="ODI" operator="greaterThan" value="77.00000000000001"/>
								</Node>
							</Node>
						</Node>
					</Node>
				</TreeModel>
			</Segment>
			<Segment id="16">
				<True/>
				<TreeModel functionName="regression" noTrueChildStrategy="returnLastPrediction">
					<MiningSchema>
						<MiningField name="ODI"/>
						<MiningField name="PI-LL"/>
					</MiningSchema>
					<Node score="-0.2363908823932028">
						<True/>
						<Node score="0.2851484330451598">
							<SimplePredicate field="PI-LL" operator="greaterThan" value="8.350000000000003"/>
							<Node score="-0.10898255164469398">
								<SimplePredicate field="ODI" operator="greaterThan" value="55.78000000000001"/>
								<Node score="0.27319235126058">
									<SimplePredicate field="ODI" operator="greaterThan" value="83.00000000000001"/>
								</Node>
							</Node>
						</Node>
					</Node>
				</TreeModel>
			</Segment>
			<Segment id="17">
				<True/>
				<TreeModel functionName="regression" noTrueChildStrategy="returnLastPrediction">
					<MiningSchema>
						<MiningField name="ODI"/>
						<MiningField name="PT"/>
						<MiningField name="PI-LL"/>
					</MiningSchema>
					<Node score="-0.29958085689664804">
						<True/>
						<Node score="0.25555608013859016">
							<SimplePredicate field="PT" operator="greaterThan" value="21.200000000000003"/>
							<Node score="0.017794889644021962">
								<SimplePredicate field="ODI" operator="greaterThan" value="55.78000000000001"/>
							</Node>
						</Node>
						<Node score="-0.07653563975646237">
							<SimplePredicate field="PI-LL" operator="greaterThan" value="14.550000000000002"/>
						</Node>
					</Node>
				</TreeModel>
			</Segment>
			<Segment id="18">
				<True/>
				<TreeModel functionName="regression" noTrueChildStrategy="returnLastPrediction">
					<MiningSchema>
						<MiningField name="ODI"/>
						<MiningField name="PI-LL"/>
					</MiningSchema>
					<Node score="-0.18279370846421764">
						<True/>
						<Node score="0.26428715371629">
							<SimplePredicate field="PI-LL" operator="greaterThan" value="8.350000000000003"/>
							<Node score="-0.09986378544462689">
								<SimplePredicate field="ODI" operator="greaterThan" value="55.78000000000001"/>
								<Node score="0.24881015364014403">
									<SimplePredicate field="ODI" operator="greaterThan" value="83.00000000000001"/>
								</Node>
							</Node>
						</Node>
					</Node>
				</TreeModel>
			</Segment>
			<Segment id="19">
				<True/>
				<TreeModel functionName="regression" noTrueChildStrategy="returnLastPrediction">
					<MiningSchema>
						<MiningField name="ODI"/>
						<MiningField name="PI-LL"/>
					</MiningSchema>
					<Node score="-0.1645143376177959">
						<True/>
						<Node score="0.23785843834466114">
							<SimplePredicate field="PI-LL" operator="greaterThan" value="8.350000000000003"/>
							<Node score="-0.08987740690016431">
								<SimplePredicate field="ODI" operator="greaterThan" value="55.78000000000001"/>
								<Node score="0.22392913827612954">
									<SimplePredicate field="ODI" operator="greaterThan" value="83.00000000000001"/>
								</Node>
							</Node>
						</Node>
					</Node>
				</TreeModel>
			</Segment>
			<Segment id="20">
				<True/>
				<TreeModel functionName="regression" noTrueChildStrategy="returnLastPrediction">
					<MiningSchema>
						<MiningField name="ODI"/>
						<MiningField name="PT"/>
						<MiningField name="PI-LL"/>
					</MiningSchema>
					<Node score="-0.3168967003986106">
						<True/>
						<Node score="0.1990354455532437">
							<SimplePredicate field="PT" operator="greaterThan" value="21.200000000000003"/>
							<Node score="0.03498951991409882">
								<SimplePredicate field="ODI" operator="greaterThan" value="55.78000000000001"/>
							</Node>
						</Node>
						<Node score="-0.04990795654633722">
							<SimplePredicate field="PI-LL" operator="greaterThan" value="14.550000000000002"/>
						</Node>
					</Node>
				</TreeModel>
			</Segment>
			<Segment id="21">
				<True/>
				<TreeModel functionName="regression" noTrueChildStrategy="returnLastPrediction">
					<MiningSchema>
						<MiningField name="ODI"/>
						<MiningField name="PI-LL"/>
					</MiningSchema>
					<Node score="-0.1163732338161553">
						<True/>
						<Node score="0.2146872085630788">
							<SimplePredicate field="PI-LL" operator="greaterThan" value="8.350000000000003"/>
							<Node score="-0.08438861820155773">
								<SimplePredicate field="ODI" operator="greaterThan" value="55.78000000000001"/>
								<Node score="0.20228214628012842">
									<SimplePredicate field="ODI" operator="greaterThan" value="83.00000000000001"/>
								</Node>
							</Node>
						</Node>
					</Node>
				</TreeModel>
			</Segment>
			<Segment id="22">
				<True/>
				<TreeModel functionName="regression" noTrueChildStrategy="returnLastPrediction">
					<MiningSchema>
						<MiningField name="PT"/>
						<MiningField name="PI-LL"/>
					</MiningSchema>
					<Node score="-0.3054352449867624">
						<True/>
						<Node score="0.15854921672360547">
							<SimplePredicate field="PT" operator="greaterThan" value="21.200000000000003"/>
							<Node score="0.0869441072164669">
								<SimplePredicate field="PT" operator="greaterThan" value="25.150000000000002"/>
							</Node>
						</Node>
						<Node score="-0.036478299071547586">
							<SimplePredicate field="PI-LL" operator="greaterThan" value="14.550000000000002"/>
						</Node>
					</Node>
				</TreeModel>
			</Segment>
			<Segment id="23">
				<True/>
				<TreeModel functionName="regression" noTrueChildStrategy="returnLastPrediction">
					<MiningSchema>
						<MiningField name="ODI"/>
						<MiningField name="PT"/>
						<MiningField name="PI-LL"/>
					</MiningSchema>
					<Node score="-0.1323915165464353">
						<True/>
						<Node score="-0.032830469164392896">
							<SimplePredicate field="PI-LL" operator="greaterThan" value="24.500000000000004"/>
							<Node score="0.35003543326147124">
								<SimplePredicate field="PT" operator="greaterThan" value="23.450000000000003"/>
							</Node>
						</Node>
						<Node score="-0.008811184777133009">
							<SimplePredicate field="ODI" operator="greaterThan" value="41.00000000000001"/>
						</Node>
					</Node>
				</TreeModel>
			</Segment>
			<Segment id="24">
				<True/>
				<TreeModel functionName="regression" noTrueChildStrategy="returnLastPrediction">
					<MiningSchema>
						<MiningField name="ODI"/>
						<MiningField name="PT"/>
						<MiningField name="PI-LL"/>
					</MiningSchema>
					<Node score="-0.11915236489179187">
						<True/>
						<Node score="-0.029547422247953748">
							<SimplePredicate field="PI-LL" operator="greaterThan" value="24.500000000000004"/>
							<Node score="0.31503188993532416">
								<SimplePredicate field="PT" operator="greaterThan" value="23.450000000000003"/>
							</Node>
						</Node>
						<Node score="-0.007930066299419636">
							<SimplePredicate field="ODI" operator="greaterThan" value="41.00000000000001"/>
						</Node>
					</Node>
				</TreeModel>
			</Segment>
			<Segment id="25">
				<True/>
				<TreeModel functionName="regression" noTrueChildStrategy="returnLastPrediction">
					<MiningSchema>
						<MiningField name="ODI"/>
						<MiningField name="PT"/>
						<MiningField name="PI-LL"/>
					</MiningSchema>
					<Node score="-0.10723712840261257">
						<True/>
						<Node score="-0.026592680023158267">
							<SimplePredicate field="PI-LL" operator="greaterThan" value="24.500000000000004"/>
							<Node score="0.28352870094179183">
								<SimplePredicate field="PT" operator="greaterThan" value="23.450000000000003"/>
							</Node>
						</Node>
						<Node score="-0.007137059669477708">
							<SimplePredicate field="ODI" operator="greaterThan" value="41.00000000000001"/>
						</Node>
					</Node>
				</TreeModel>
			</Segment>
			<Segment id="26">
				<True/>
				<TreeModel functionName="regression" noTrueChildStrategy="returnLastPrediction">
					<MiningSchema>
						<MiningField name="ODI"/>
					</MiningSchema>
					<Node score="-0.01831428018340797">
						<True/>
						<Node score="0.1856430408476129">
							<SimplePredicate field="ODI" operator="greaterThan" value="83.00000000000001"/>
						</Node>
						<Node score="-0.17950376951690716">
							<SimplePredicate field="ODI" operator="greaterThan" value="61.00000000000001"/>
						</Node>
						<Node score="0.22614984328005028">
							<SimplePredicate field="ODI" operator="greaterThan" value="49.00000000000001"/>
						</Node>
					</Node>
				</TreeModel>
			</Segment>
			<Segment id="27">
				<True/>
				<TreeModel functionName="regression" noTrueChildStrategy="returnLastPrediction">
					<MiningSchema>
						<MiningField name="ODI"/>
						<MiningField name="PI-LL"/>
					</MiningSchema>
					<Node score="-0.05648286170181036">
						<True/>
						<Node score="0.16707873676285168">
							<SimplePredicate field="ODI" operator="greaterThan" value="83.00000000000001"/>
						</Node>
						<Node score="-0.16155339256521659">
							<SimplePredicate field="ODI" operator="greaterThan" value="61.00000000000001"/>
						</Node>
						<Node score="0.18522152209930243">
							<SimplePredicate field="PI-LL" operator="greaterThan" value="14.550000000000002"/>
						</Node>
					</Node>
				</TreeModel>
			</Segment>
			<Segment id="28">
				<True/>
				<TreeModel functionName="regression" noTrueChildStrategy="returnLastPrediction">
					<MiningSchema>
						<MiningField name="ODI"/>
						<MiningField name="PI-LL"/>
					</MiningSchema>
					<Node score="-0.11320413975394068">
						<True/>
						<Node score="0.1503708630865667">
							<SimplePredicate field="PI-LL" operator="greaterThan" value="33.00000000000001"/>
						</Node>
						<Node score="0.07764879091541138">
							<SimplePredicate field="ODI" operator="greaterThan" value="41.00000000000001"/>
							<Node score="-0.03330063011062769">
								<SimplePredicate field="PI-LL" operator="greaterThan" value="22.050000000000004"/>
							</Node>
						</Node>
					</Node>
				</TreeModel>
			</Segment>
			<Segment id="29">
				<True/>
				<TreeModel functionName="regression" noTrueChildStrategy="returnLastPrediction">
					<MiningSchema>
						<MiningField name="ODI"/>
						<MiningField name="PI-LL"/>
					</MiningSchema>
					<Node score="-0.039514161556235286">
						<True/>
						<Node score="0.1353337767779099">
							<SimplePredicate field="ODI" operator="greaterThan" value="83.00000000000001"/>
						</Node>
						<Node score="-0.14743205280156788">
							<SimplePredicate field="ODI" operator="greaterThan" value="61.00000000000001"/>
						</Node>
						<Node score="0.17002943290043504">
							<SimplePredicate field="PI-LL" operator="greaterThan" value="20.500000000000004"/>
						</Node>
					</Node>
				</TreeModel>
			</Segment>
			<Segment id="30">
				<True/>
				<TreeModel functionName="regression" noTrueChildStrategy="returnLastPrediction">
					<MiningSchema>
						<MiningField name="PI-LL"/>
					</MiningSchema>
					<Node score="-0.03556274540061177">
						<True/>
						<Node score="0.121800399100119">
							<SimplePredicate field="PI-LL" operator="greaterThan" value="33.00000000000001"/>
						</Node>
						<Node score="-0.03919807359035872">
							<SimplePredicate field="PI-LL" operator="greaterThan" value="22.050000000000004"/>
						</Node>
						<Node score="0.16832470038676972">
							<SimplePredicate field="PI-LL" operator="greaterThan" value="9.550000000000002"/>
						</Node>
					</Node>
				</TreeModel>
			</Segment>
			<Segment id="31">
				<True/>
				<TreeModel functionName="regression" noTrueChildStrategy="returnLastPrediction">
					<MiningSchema>
						<MiningField name="ODI"/>
						<MiningField name="PT"/>
					</MiningSchema>
					<Node score="0.007993538676192546">
						<True/>
						<Node score="0.10962035919010696">
							<SimplePredicate field="ODI" operator="greaterThan" value="83.00000000000001"/>
						</Node>
						<Node score="0.0477956447358086">
							<SimplePredicate field="PT" operator="greaterThan" value="18.500000000000004"/>
							<Node score="-0.08619395717920764">
								<SimplePredicate field="ODI" operator="greaterThan" value="55.78000000000001"/>
							</Node>
						</Node>
					</Node>
				</TreeModel>
			</Segment>
			<Segment id="32">
				<True/>
				<TreeModel functionName="regression" noTrueChildStrategy="returnLastPrediction">
					<MiningSchema>
						<MiningField name="PI-LL"/>
					</MiningSchema>
					<Node score="-0.06506383467859278">
						<True/>
						<Node score="0.0986583232710963">
							<SimplePredicate field="PI-LL" operator="greaterThan" value="33.00000000000001"/>
						</Node>
						<Node score="-0.0376467152876451">
							<SimplePredicate field="PI-LL" operator="greaterThan" value="22.050000000000004"/>
						</Node>
						<Node score="0.12693785527171686">
							<SimplePredicate field="PI-LL" operator="greaterThan" value="8.350000000000003"/>
						</Node>
					</Node>
				</TreeModel>
			</Segment>
			<Segment id="33">
				<True/>
				<TreeModel functionName="regression" noTrueChildStrategy="returnLastPrediction">
					<MiningSchema>
						<MiningField name="ODI"/>
						<MiningField name="PT"/>
					</MiningSchema>
					<Node score="0.01370056827643258">
						<True/>
						<Node score="0.08879249094398674">
							<SimplePredicate field="PT" operator="greaterThan" value="23.450000000000003"/>
						</Node>
						<Node score="-0.11638497291569001">
							<SimplePredicate field="ODI" operator="greaterThan" value="61.00000000000001"/>
						</Node>
					</Node>
				</TreeModel>
			</Segment>
			<Segment id="34">
				<True/>
				<TreeModel functionName="regression" noTrueChildStrategy="returnLastPrediction">
					<MiningSchema>
						<MiningField name="ODI"/>
						<MiningField name="PI-LL"/>
					</MiningSchema>
					<Node score="-0.06368210417175449">
						<True/>
						<Node score="0.079913241849588">
							<SimplePredicate field="ODI" operator="greaterThan" value="83.00000000000001"/>
						</Node>
						<Node score="0.18834354275513454">
							<SimplePredicate field="PI-LL" operator="greaterThan" value="9.550000000000002"/>
							<Node score="-0.01989598001944728">
								<SimplePredicate field="PI-LL" operator="greaterThan" value="22.050000000000004"/>
							</Node>
						</Node>
					</Node>
				</TreeModel>
			</Segment>
			<Segment id="35">
				<True/>
				<TreeModel functionName="regression" noTrueChildStrategy="returnLastPrediction">
					<MiningSchema>
						<MiningField name="ODI"/>
						<MiningField name="PI-LL"/>
					</MiningSchema>
					<Node score="-0.05731389375457903">
						<True/>
						<Node score="0.07192191766462912">
							<SimplePredicate field="ODI" operator="greaterThan" value="83.00000000000001"/>
						</Node>
						<Node score="0.16950918847962113">
							<SimplePredicate field="PI-LL" operator="greaterThan" value="9.550000000000002"/>
							<Node score="-0.01790638201750241">
								<SimplePredicate field="PI-LL" operator="greaterThan" value="22.050000000000004"/>
							</Node>
						</Node>
					</Node>
				</TreeModel>
			</Segment>
			<Segment id="36">
				<True/>
				<TreeModel functionName="regression" noTrueChildStrategy="returnLastPrediction">
					<MiningSchema>
						<MiningField name="PI-LL"/>
					</MiningSchema>
					<Node score="-0.01955010890128213">
						<True/>
						<Node score="0.06472972589816628">
							<SimplePredicate field="PI-LL" operator="greaterThan" value="33.00000000000001"/>
						</Node>
						<Node score="-0.038981056649583935">
							<SimplePredicate field="PI-LL" operator="greaterThan" value="22.050000000000004"/>
						</Node>
						<Node score="0.10377364385609003">
							<SimplePredicate field="PI-LL" operator="greaterThan" value="9.550000000000002"/>
						</Node>
					</Node>
				</TreeModel>
			</Segment>
			<Segment id="37">
				<True/>
				<TreeModel functionName="regression" noTrueChildStrategy="returnLastPrediction">
					<MiningSchema>
						<MiningField name="ODI"/>
						<MiningField name="PI-LL"/>
					</MiningSchema>
					<Node score="-0.08443597387643287">
						<True/>
						<Node score="0.05825675330834983">
							<SimplePredicate field="PI-LL" operator="greaterThan" value="33.00000000000001"/>
						</Node>
						<Node score="0.06522162233032276">
							<SimplePredicate field="ODI" operator="greaterThan" value="49.00000000000001"/>
							<Node score="-0.09706813375546766">
								<SimplePredicate field="ODI" operator="greaterThan" value="67.33500000000002"/>
							</Node>
						</Node>
					</Node>
				</TreeModel>
			</Segment>
			<Segment id="38">
				<True/>
				<TreeModel functionName="regression" noTrueChildStrategy="returnLastPrediction">
					<MiningSchema>
						<MiningField name="ODI"/>
						<MiningField name="PI-LL"/>
					</MiningSchema>
					<Node score="-0.014644580499950877">
						<True/>
						<Node score="0.05243107797751492">
							<SimplePredicate field="ODI" operator="greaterThan" value="83.00000000000001"/>
						</Node>
						<Node score="-0.08736132037992093">
							<SimplePredicate field="ODI" operator="greaterThan" value="61.00000000000001"/>
						</Node>
						<Node score="0.16317409418650897">
							<SimplePredicate field="PI-LL" operator="greaterThan" value="14.550000000000002"/>
						</Node>
					</Node>
				</TreeModel>
			</Segment>
			<Segment id="39">
				<True/>
				<TreeModel functionName="regression" noTrueChildStrategy="returnLastPrediction">
					<MiningSchema>
						<MiningField name="ODI"/>
						<MiningField name="PT"/>
						<MiningField name="PI-LL"/>
					</MiningSchema>
					<Node score="-0.049948857799912406">
						<True/>
						<Node score="0.003330307482076345">
							<SimplePredicate field="PI-LL" operator="greaterThan" value="25.500000000000004"/>
							<Node score="0.14685668476785807">
								<SimplePredicate field="PT" operator="greaterThan" value="22.200000000000003"/>
							</Node>
						</Node>
						<Node score="0.07166660344692569">
							<SimplePredicate field="ODI" operator="greaterThan" value="57.89000000000001"/>
						</Node>
						<Node score="-0.053143315232141934">
							<SimplePredicate field="PI-LL" operator="greaterThan" value="9.550000000000002"/>
						</Node>
					</Node>
				</TreeModel>
			</Segment>
			<Segment id="40">
				<True/>
				<TreeModel functionName="regression" noTrueChildStrategy="returnLastPrediction">
					<MiningSchema>
						<MiningField name="ODI"/>
						<MiningField name="PT"/>
						<MiningField name="PI-LL"/>
					</MiningSchema>
					<Node score="-0.12616192505952525">
						<True/>
						<Node score="0.0029972767338686704">
							<SimplePredicate field="PI-LL" operator="greaterThan" value="25.500000000000004"/>
							<Node score="0.13217101629107228">
								<SimplePredicate field="PT" operator="greaterThan" value="22.200000000000003"/>
							</Node>
						</Node>
						<Node score="0.019956855339380433">
							<SimplePredicate field="ODI" operator="greaterThan" value="49.00000000000001"/>
						</Node>
					</Node>
				</TreeModel>
			</Segment>
			<Segment id="41">
				<True/>
				<TreeModel functionName="regression" noTrueChildStrategy="returnLastPrediction">
					<MiningSchema>
						<MiningField name="ODI"/>
						<MiningField name="PT"/>
						<MiningField name="PI-LL"/>
					</MiningSchema>
					<Node score="-0.13842003094143962">
						<True/>
						<Node score="0.00269754906048183">
							<SimplePredicate field="PI-LL" operator="greaterThan" value="25.500000000000004"/>
							<Node score="0.11895391466196514">
								<SimplePredicate field="PT" operator="greaterThan" value="22.200000000000003"/>
							</Node>
						</Node>
						<Node score="0.06250425756829517">
							<SimplePredicate field="ODI" operator="greaterThan" value="57.89000000000001"/>
						</Node>
						<Node score="-0.025026238986466966">
							<SimplePredicate field="ODI" operator="greaterThan" value="41.00000000000001"/>
						</Node>
					</Node>
				</TreeModel>
			</Segment>
			<Segment id="42">
				<True/>
				<TreeModel functionName="regression" noTrueChildStrategy="returnLastPrediction">
					<MiningSchema>
						<MiningField name="ODI"/>
						<MiningField name="PT"/>
						<MiningField name="PI-LL"/>
					</MiningSchema>
					<Node score="-0.09970372945942892">
						<True/>
						<Node score="0.0024277941544336382">
							<SimplePredicate field="PI-LL" operator="greaterThan" value="25.500000000000004"/>
							<Node score="0.10705852319576864">
								<SimplePredicate field="PT" operator="greaterThan" value="22.200000000000003"/>
							</Node>
						</Node>
						<Node score="0.016087268876351014">
							<SimplePredicate field="ODI" operator="greaterThan" value="49.00000000000001"/>
						</Node>
					</Node>
				</TreeModel>
			</Segment>
			<Segment id="43">
				<True/>
				<TreeModel functionName="regression" noTrueChildStrategy="returnLastPrediction">
					<MiningSchema>
						<MiningField name="ODI"/>
						<MiningField name="PT"/>
					</MiningSchema>
					<Node score="0.07564874509319992">
						<True/>
						<Node score="-0.013027919035144464">
							<SimplePredicate field="PT" operator="greaterThan" value="26.850000000000005"/>
						</Node>
						<Node score="-0.013835956867720834">
							<SimplePredicate field="ODI" operator="greaterThan" value="54.50000000000001"/>
							<Node score="3.694861715743514E-4">
								<SimplePredicate field="ODI" operator="greaterThan" value="65.00000000000001"/>
							</Node>
						</Node>
					</Node>
				</TreeModel>
			</Segment>
			<Segment id="44">
				<True/>
				<TreeModel functionName="regression" noTrueChildStrategy="returnLastPrediction">
					<MiningSchema>
						<MiningField name="PT"/>
						<MiningField name="PI-LL"/>
					</MiningSchema>
					<Node score="-0.3846340409013598">
						<True/>
						<Node score="-0.011725127131629876">
							<SimplePredicate field="PT" operator="greaterThan" value="26.850000000000005"/>
						</Node>
						<Node score="0.17005279596199763">
							<SimplePredicate field="PT" operator="greaterThan" value="17.500000000000004"/>
							<Node score="-0.017001292855778605">
								<SimplePredicate field="PI-LL" operator="greaterThan" value="22.050000000000004"/>
							</Node>
						</Node>
					</Node>
				</TreeModel>
			</Segment>
			<Segment id="45">
				<True/>
				<TreeModel functionName="regression" noTrueChildStrategy="returnLastPrediction">
					<MiningSchema>
						<MiningField name="ODI"/>
						<MiningField name="PT"/>
					</MiningSchema>
					<Node score="0.051078590987680174">
						<True/>
						<Node score="-0.010552614418466888">
							<SimplePredicate field="PT" operator="greaterThan" value="26.850000000000005"/>
						</Node>
						<Node score="-0.02010493633625976">
							<SimplePredicate field="ODI" operator="greaterThan" value="54.50000000000001"/>
							<Node score="0.002032666839994768">
								<SimplePredicate field="ODI" operator="greaterThan" value="65.00000000000001"/>
							</Node>
						</Node>
					</Node>
				</TreeModel>
			</Segment>
			<Segment id="46">
				<True/>
				<TreeModel functionName="regression" noTrueChildStrategy="returnLastPrediction">
					<MiningSchema>
						<MiningField name="ODI"/>
						<MiningField name="PT"/>
						<MiningField name="PI-LL"/>
					</MiningSchema>
					<Node score="-0.08620279045496204">
						<True/>
						<Node score="0.005462081034188682">
							<SimplePredicate field="PI-LL" operator="greaterThan" value="25.500000000000004"/>
							<Node score="0.09988323693471629">
								<SimplePredicate field="PT" operator="greaterThan" value="22.200000000000003"/>
							</Node>
						</Node>
						<Node score="0.028103834221950355">
							<SimplePredicate field="ODI" operator="greaterThan" value="49.00000000000001"/>
						</Node>
					</Node>
				</TreeModel>
			</Segment>
			<Segment id="47">
				<True/>
				<TreeModel functionName="regression" noTrueChildStrategy="returnLastPrediction">
					<MiningSchema>
						<MiningField name="ODI"/>
						<MiningField name="PT"/>
					</MiningSchema>
					<Node score="0.054591010934408504">
						<True/>
						<Node score="-0.010181375300607698">
							<SimplePredicate field="PT" operator="greaterThan" value="26.850000000000005"/>
						</Node>
						<Node score="-0.02090482612482876">
							<SimplePredicate field="ODI" operator="greaterThan" value="54.50000000000001"/>
							<Node score="0.0012831920525764318">
								<SimplePredicate field="ODI" operator="greaterThan" value="65.00000000000001"/>
							</Node>
						</Node>
					</Node>
				</TreeModel>
			</Segment>
			<Segment id="48">
				<True/>
				<TreeModel functionName="regression" noTrueChildStrategy="returnLastPrediction">
					<MiningSchema>
						<MiningField name="ODI"/>
						<MiningField name="PT"/>
					</MiningSchema>
					<Node score="0.04913190984096758">
						<True/>
						<Node score="-0.009163237770546928">
							<SimplePredicate field="PT" operator="greaterThan" value="26.850000000000005"/>
						</Node>
						<Node score="-0.018814343512345878">
							<SimplePredicate field="ODI" operator="greaterThan" value="54.50000000000001"/>
							<Node score="0.0011548728473186997">
								<SimplePredicate field="ODI" operator="greaterThan" value="65.00000000000001"/>
							</Node>
						</Node>
					</Node>
				</TreeModel>
			</Segment>
			<Segment id="49">
				<True/>
				<TreeModel functionName="regression" noTrueChildStrategy="returnLastPrediction">
					<MiningSchema>
						<MiningField name="ODI"/>
						<MiningField name="PT"/>
					</MiningSchema>
					<Node score="0.04421871885687097">
						<True/>
						<Node score="-0.0082469139934922">
							<SimplePredicate field="PT" operator="greaterThan" value="26.850000000000005"/>
						</Node>
						<Node score="-0.01693290916111132">
							<SimplePredicate field="ODI" operator="greaterThan" value="54.50000000000001"/>
							<Node score="0.0010393855625867587">
								<SimplePredicate field="ODI" operator="greaterThan" value="65.00000000000001"/>
							</Node>
						</Node>
					</Node>
				</TreeModel>
			</Segment>
			<Segment id="50">
				<True/>
				<TreeModel functionName="regression" noTrueChildStrategy="returnLastPrediction">
					<MiningSchema>
						<MiningField name="ODI"/>
						<MiningField name="PI-LL"/>
					</MiningSchema>
					<Node score="-0.056812126361015784">
						<True/>
						<Node score="-0.007829796547900614">
							<SimplePredicate field="PI-LL" operator="greaterThan" value="8.350000000000003"/>
							<Node score="-0.04310958444532314">
								<SimplePredicate field="ODI" operator="greaterThan" value="67.33500000000002"/>
							</Node>
							<Node score="0.13485234032999163">
								<SimplePredicate field="ODI" operator="greaterThan" value="49.00000000000001"/>
							</Node>
						</Node>
					</Node>
				</TreeModel>
			</Segment>
			<Segment id="51">
				<True/>
				<TreeModel functionName="regression" noTrueChildStrategy="returnLastPrediction">
					<MiningSchema>
						<MiningField name="PT"/>
						<MiningField name="PI-LL"/>
					</MiningSchema>
					<Node score="-0.34522107351913434">
						<True/>
						<Node score="-0.00487525354448195">
							<SimplePredicate field="PT" operator="greaterThan" value="26.850000000000005"/>
						</Node>
						<Node score="0.1492123400409729">
							<SimplePredicate field="PT" operator="greaterThan" value="17.500000000000004"/>
							<Node score="-0.023921079511940314">
								<SimplePredicate field="PI-LL" operator="greaterThan" value="22.050000000000004"/>
							</Node>
						</Node>
					</Node>
				</TreeModel>
			</Segment>
			<Segment id="52">
				<True/>
				<TreeModel functionName="regression" noTrueChildStrategy="returnLastPrediction">
					<MiningSchema>
						<MiningField name="ODI"/>
						<MiningField name="PI-LL"/>
					</MiningSchema>
					<Node score="-0.06605214772901147">
						<True/>
						<Node score="-0.006559291538662393">
							<SimplePredicate field="PI-LL" operator="greaterThan" value="8.350000000000003"/>
							<Node score="-0.03735880934796967">
								<SimplePredicate field="ODI" operator="greaterThan" value="67.33500000000002"/>
							</Node>
							<Node score="0.1413242320326856">
								<SimplePredicate field="ODI" operator="greaterThan" value="49.00000000000001"/>
							</Node>
						</Node>
					</Node>
				</TreeModel>
			</Segment>
			<Segment id="53">
				<True/>
				<TreeModel functionName="regression" noTrueChildStrategy="returnLastPrediction">
					<MiningSchema>
						<MiningField name="ODI"/>
						<MiningField name="PT"/>
					</MiningSchema>
					<Node score="0.1417567904456373">
						<True/>
						<Node score="0.011374394336851347">
							<SimplePredicate field="ODI" operator="greaterThan" value="83.00000000000001"/>
						</Node>
						<Node score="0.01078211440557344">
							<SimplePredicate field="PT" operator="greaterThan" value="18.500000000000004"/>
							<Node score="-0.08109037650360405">
								<SimplePredicate field="ODI" operator="greaterThan" value="55.78000000000001"/>
							</Node>
						</Node>
					</Node>
				</TreeModel>
			</Segment>
			<Segment id="54">
				<True/>
				<TreeModel functionName="regression" noTrueChildStrategy="returnLastPrediction">
					<MiningSchema>
						<MiningField name="ODI"/>
						<MiningField name="PT"/>
					</MiningSchema>
					<Node score="0.12758111140107362">
						<True/>
						<Node score="0.010236954903166229">
							<SimplePredicate field="ODI" operator="greaterThan" value="83.00000000000001"/>
						</Node>
						<Node score="0.009703902965016177">
							<SimplePredicate field="PT" operator="greaterThan" value="18.500000000000004"/>
							<Node score="-0.07298133885324365">
								<SimplePredicate field="ODI" operator="greaterThan" value="55.78000000000001"/>
							</Node>
						</Node>
					</Node>
				</TreeModel>
			</Segment>
			<Segment id="55">
				<True/>
				<TreeModel functionName="regression" noTrueChildStrategy="returnLastPrediction">
					<MiningSchema>
						<MiningField name="ODI"/>
						<MiningField name="PI-LL"/>
					</MiningSchema>
					<Node score="-0.052767648056797484">
						<True/>
						<Node score="0.02426592003868393">
							<SimplePredicate field="PI-LL" operator="greaterThan" value="13.100000000000003"/>
							<Node score="-6.414188306095525E-4">
								<SimplePredicate field="ODI" operator="greaterThan" value="67.33500000000002"/>
							</Node>
						</Node>
					</Node>
				</TreeModel>
			</Segment>
			<Segment id="56">
				<True/>
				<TreeModel functionName="regression" noTrueChildStrategy="returnLastPrediction">
					<MiningSchema>
						<MiningField name="ODI"/>
						<MiningField name="PI-LL"/>
					</MiningSchema>
					<Node score="-0.0474908832511177">
						<True/>
						<Node score="0.02183932803481561">
							<SimplePredicate field="PI-LL" operator="greaterThan" value="13.100000000000003"/>
							<Node score="-5.772769475484552E-4">
								<SimplePredicate field="ODI" operator="greaterThan" value="67.33500000000002"/>
							</Node>
						</Node>
					</Node>
				</TreeModel>
			</Segment>
			<Segment id="57">
				<True/>
				<TreeModel functionName="regression" noTrueChildStrategy="returnLastPrediction">
					<MiningSchema>
						<MiningField name="ODI"/>
						<MiningField name="PT"/>
						<MiningField name="PI-LL"/>
					</MiningSchema>
					<Node score="0.1190339836321675">
						<True/>
						<Node score="-0.006541019090999179">
							<SimplePredicate field="PT" operator="greaterThan" value="26.850000000000005"/>
						</Node>
						<Node score="0.019655395231334083">
							<SimplePredicate field="ODI" operator="greaterThan" value="44.220000000000006"/>
							<Node score="-0.05323653180623707">
								<SimplePredicate field="PI-LL" operator="greaterThan" value="26.500000000000004"/>
							</Node>
						</Node>
					</Node>
				</TreeModel>
			</Segment>
			<Segment id="58">
				<True/>
				<TreeModel functionName="regression" noTrueChildStrategy="returnLastPrediction">
					<MiningSchema>
						<MiningField name="ODI"/>
						<MiningField name="PT"/>
						<MiningField name="PI-LL"/>
					</MiningSchema>
					<Node score="-0.04470733444913937">
						<True/>
						<Node score="0.0066896764140670145">
							<SimplePredicate field="PI-LL" operator="greaterThan" value="25.500000000000004"/>
							<Node score="0.08857547547550518">
								<SimplePredicate field="PT" operator="greaterThan" value="22.200000000000003"/>
							</Node>
						</Node>
						<Node score="0.07111149046200742">
							<SimplePredicate field="ODI" operator="greaterThan" value="57.89000000000001"/>
						</Node>
						<Node score="-0.03449338068980836">
							<SimplePredicate field="PI-LL" operator="greaterThan" value="9.550000000000002"/>
						</Node>
					</Node>
				</TreeModel>
			</Segment>
			<Segment id="59">
				<True/>
				<TreeModel functionName="regression" noTrueChildStrategy="returnLastPrediction">
					<MiningSchema>
						<MiningField name="ODI"/>
						<MiningField name="PI-LL"/>
					</MiningSchema>
					<Node score="-0.040236601004225436">
						<True/>
						<Node score="-0.008459048951123904">
							<SimplePredicate field="PI-LL" operator="greaterThan" value="8.350000000000003"/>
							<Node score="-0.028652420579132046">
								<SimplePredicate field="ODI" operator="greaterThan" value="67.33500000000002"/>
							</Node>
							<Node score="0.1263326519376051">
								<SimplePredicate field="ODI" operator="greaterThan" value="49.00000000000001"/>
							</Node>
						</Node>
					</Node>
				</TreeModel>
			</Segment>
			<Segment id="60">
				<True/>
				<TreeModel functionName="regression" noTrueChildStrategy="returnLastPrediction">
					<MiningSchema>
						<MiningField name="ODI"/>
						<MiningField name="PI-LL"/>
					</MiningSchema>
					<Node score="-0.037846932038010685">
						<True/>
						<Node score="0.09189481476085143">
							<SimplePredicate field="PI-LL" operator="greaterThan" value="13.100000000000003"/>
							<Node score="0.04651005077106074">
								<SimplePredicate field="ODI" operator="greaterThan" value="55.78000000000001"/>
								<Node score="-0.05807135772703767">
									<SimplePredicate field="PI-LL" operator="greaterThan" value="27.500000000000004"/>
								</Node>
							</Node>
						</Node>
					</Node>
				</TreeModel>
			</Segment>
			<Segment id="61">
				<True/>
				<TreeModel functionName="regression" noTrueChildStrategy="returnLastPrediction">
					<MiningSchema>
						<MiningField name="ODI"/>
						<MiningField name="PT"/>
						<MiningField name="PI-LL"/>
					</MiningSchema>
					<Node score="0.1108230093875236">
						<True/>
						<Node score="-0.008426621296361958">
							<SimplePredicate field="PT" operator="greaterThan" value="26.850000000000005"/>
						</Node>
						<Node score="0.012795617196208654">
							<SimplePredicate field="ODI" operator="greaterThan" value="44.220000000000006"/>
							<Node score="-0.05226422195433394">
								<SimplePredicate field="PI-LL" operator="greaterThan" value="26.500000000000004"/>
							</Node>
						</Node>
					</Node>
				</TreeModel>
			</Segment>
			<Segment id="62">
				<True/>
				<TreeModel functionName="regression" noTrueChildStrategy="returnLastPrediction">
					<MiningSchema>
						<MiningField name="ODI"/>
						<MiningField name="PT"/>
						<MiningField name="PI-LL"/>
					</MiningSchema>
					<Node score="-0.035341800553830495">
						<True/>
						<Node score="0.004421001547037041">
							<SimplePredicate field="PI-LL" operator="greaterThan" value="25.500000000000004"/>
							<Node score="0.07221701347661806">
								<SimplePredicate field="PT" operator="greaterThan" value="22.200000000000003"/>
							</Node>
						</Node>
						<Node score="0.06199612860162143">
							<SimplePredicate field="ODI" operator="greaterThan" value="57.89000000000001"/>
						</Node>
						<Node score="-0.040667180921420965">
							<SimplePredicate field="PI-LL" operator="greaterThan" value="9.550000000000002"/>
						</Node>
					</Node>
				</TreeModel>
			</Segment>
			<Segment id="63">
				<True/>
				<TreeModel functionName="regression" noTrueChildStrategy="returnLastPrediction">
					<MiningSchema>
						<MiningField name="ODI"/>
						<MiningField name="PI-LL"/>
					</MiningSchema>
					<Node score="-0.03180762049844748">
						<True/>
						<Node score="0.015582773568729991">
							<SimplePredicate field="PI-LL" operator="greaterThan" value="13.100000000000003"/>
							<Node score="-0.006429656278652729">
								<SimplePredicate field="ODI" operator="greaterThan" value="67.33500000000002"/>
							</Node>
						</Node>
					</Node>
				</TreeModel>
			</Segment>
			<Segment id="64">
				<True/>
				<TreeModel functionName="regression" noTrueChildStrategy="returnLastPrediction">
					<MiningSchema>
						<MiningField name="PT"/>
						<MiningField name="PI-LL"/>
					</MiningSchema>
					<Node score="-0.3209319993937263">
						<True/>
						<Node score="-0.009619106658989553">
							<SimplePredicate field="PT" operator="greaterThan" value="26.850000000000005"/>
						</Node>
						<Node score="0.10714334828399288">
							<SimplePredicate field="PT" operator="greaterThan" value="17.500000000000004"/>
							<Node score="-0.03815874018615198">
								<SimplePredicate field="PI-LL" operator="greaterThan" value="22.050000000000004"/>
							</Node>
						</Node>
					</Node>
				</TreeModel>
			</Segment>
			<Segment id="65">
				<True/>
				<TreeModel functionName="regression" noTrueChildStrategy="returnLastPrediction">
					<MiningSchema>
						<MiningField name="ODI"/>
						<MiningField name="PI-LL"/>
					</MiningSchema>
					<Node score="-0.03861354885162256">
						<True/>
						<Node score="-0.012489612001292727">
							<SimplePredicate field="PI-LL" operator="greaterThan" value="8.350000000000003"/>
							<Node score="-0.022974613791945764">
								<SimplePredicate field="ODI" operator="greaterThan" value="67.33500000000002"/>
							</Node>
							<Node score="0.1196868255782623">
								<SimplePredicate field="ODI" operator="greaterThan" value="49.00000000000001"/>
							</Node>
						</Node>
					</Node>
				</TreeModel>
			</Segment>
			<Segment id="66">
				<True/>
				<TreeModel functionName="regression" noTrueChildStrategy="returnLastPrediction">
					<MiningSchema>
						<MiningField name="ODI"/>
						<MiningField name="PT"/>
						<MiningField name="PI-LL"/>
					</MiningSchema>
					<Node score="0.02082459554470746">
						<True/>
						<Node score="-0.11531850968371589">
							<SimplePredicate field="PT" operator="greaterThan" value="18.500000000000004"/>
							<Node score="0.04113617213984675">
								<SimplePredicate field="ODI" operator="greaterThan" value="65.00000000000001"/>
							</Node>
							<Node score="-0.007313348605141101">
								<SimplePredicate field="PI-LL" operator="greaterThan" value="20.500000000000004"/>
							</Node>
						</Node>
					</Node>
				</TreeModel>
			</Segment>
			<Segment id="67">
				<True/>
				<TreeModel functionName="regression" noTrueChildStrategy="returnLastPrediction">
					<MiningSchema>
						<MiningField name="ODI"/>
						<MiningField name="PI-LL"/>
					</MiningSchema>
					<Node score="-0.07750287809574985">
						<True/>
						<Node score="0.07700188082772108">
							<SimplePredicate field="ODI" operator="greaterThan" value="55.78000000000001"/>
							<Node score="-0.049700127191483603">
								<SimplePredicate field="PI-LL" operator="greaterThan" value="26.500000000000004"/>
							</Node>
						</Node>
						<Node score="0.04110064922823771">
							<SimplePredicate field="ODI" operator="greaterThan" value="41.00000000000001"/>
						</Node>
					</Node>
				</TreeModel>
			</Segment>
			<Segment id="68">
				<True/>
				<TreeModel functionName="regression" noTrueChildStrategy="returnLastPrediction">
					<MiningSchema>
						<MiningField name="ODI"/>
						<MiningField name="PI-LL"/>
					</MiningSchema>
					<Node score="-0.06975259028617486">
						<True/>
						<Node score="0.06930169274494898">
							<SimplePredicate field="ODI" operator="greaterThan" value="55.78000000000001"/>
							<Node score="-0.044730114472335325">
								<SimplePredicate field="PI-LL" operator="greaterThan" value="26.500000000000004"/>
							</Node>
						</Node>
						<Node score="0.03699058430541396">
							<SimplePredicate field="ODI" operator="greaterThan" value="41.00000000000001"/>
						</Node>
					</Node>
				</TreeModel>
			</Segment>
			<Segment id="69">
				<True/>
				<TreeModel functionName="regression" noTrueChildStrategy="returnLastPrediction">
					<MiningSchema>
						<MiningField name="ODI"/>
						<MiningField name="PT"/>
						<MiningField name="PI-LL"/>
					</MiningSchema>
					<Node score="-0.06277733125755738">
						<True/>
						<Node score="0.004442174523145148">
							<SimplePredicate field="PI-LL" operator="greaterThan" value="25.500000000000004"/>
							<Node score="0.05857011814526025">
								<SimplePredicate field="PT" operator="greaterThan" value="22.200000000000003"/>
							</Node>
						</Node>
						<Node score="0.015202565586539941">
							<SimplePredicate field="ODI" operator="greaterThan" value="49.00000000000001"/>
						</Node>
					</Node>
				</TreeModel>
			</Segment>
			<Segment id="70">
				<True/>
				<TreeModel functionName="regression" noTrueChildStrategy="returnLastPrediction">
					<MiningSchema>
						<MiningField name="ODI"/>
						<MiningField name="PT"/>
					</MiningSchema>
					<Node score="0.024917438970615848">
						<True/>
						<Node score="-0.007547814818041055">
							<SimplePredicate field="PT" operator="greaterThan" value="26.850000000000005"/>
						</Node>
						<Node score="-0.025531685861400845">
							<SimplePredicate field="ODI" operator="greaterThan" value="54.50000000000001"/>
							<Node score="0.020871941009941077">
								<SimplePredicate field="ODI" operator="greaterThan" value="65.00000000000001"/>
							</Node>
						</Node>
					</Node>
				</TreeModel>
			</Segment>
			<Segment id="71">
				<True/>
				<TreeModel functionName="regression" noTrueChildStrategy="returnLastPrediction">
					<MiningSchema>
						<MiningField name="ODI"/>
						<MiningField name="PT"/>
					</MiningSchema>
					<Node score="0.022425695073554276">
						<True/>
						<Node score="-0.006793033336237109">
							<SimplePredicate field="PT" operator="greaterThan" value="26.850000000000005"/>
						</Node>
						<Node score="-0.022978517275260704">
							<SimplePredicate field="ODI" operator="greaterThan" value="54.50000000000001"/>
							<Node score="0.018784746908946916">
								<SimplePredicate field="ODI" operator="greaterThan" value="65.00000000000001"/>
							</Node>
						</Node>
					</Node>
				</TreeModel>
			</Segment>
			<Segment id="72">
				<True/>
				<TreeModel functionName="regression" noTrueChildStrategy="returnLastPrediction">
					<MiningSchema>
						<MiningField name="PT"/>
						<MiningField name="PI-LL"/>
					</MiningSchema>
					<Node score="0.020183125566198834">
						<True/>
						<Node score="-0.006113730002613416">
							<SimplePredicate field="PT" operator="greaterThan" value="26.850000000000005"/>
						</Node>
						<Node score="-0.05880624991620414">
							<SimplePredicate field="PI-LL" operator="greaterThan" value="12.499999999999998"/>
							<Node score="0.010430141485887036">
								<SimplePredicate field="PI-LL" operator="greaterThan" value="24.500000000000004"/>
							</Node>
						</Node>
					</Node>
				</TreeModel>
			</Segment>
			<Segment id="73">
				<True/>
				<TreeModel functionName="regression" noTrueChildStrategy="returnLastPrediction">
					<MiningSchema>
						<MiningField name="PT"/>
						<MiningField name="PI-LL"/>
					</MiningSchema>
					<Node score="-0.29534392031230844">
						<True/>
						<Node score="-0.005502357002352021">
							<SimplePredicate field="PT" operator="greaterThan" value="26.850000000000005"/>
						</Node>
						<Node score="0.09906115327850902">
							<SimplePredicate field="PT" operator="greaterThan" value="17.500000000000004"/>
							<Node score="-0.032747648747299254">
								<SimplePredicate field="PI-LL" operator="greaterThan" value="22.050000000000004"/>
							</Node>
						</Node>
					</Node>
				</TreeModel>
			</Segment>
			<Segment id="74">
				<True/>
				<TreeModel functionName="regression" noTrueChildStrategy="returnLastPrediction">
					<MiningSchema>
						<MiningField name="ODI"/>
						<MiningField name="PT"/>
					</MiningSchema>
					<Node score="0.14352879204140284">
						<True/>
						<Node score="-0.00495212130211673">
							<SimplePredicate field="PT" operator="greaterThan" value="26.850000000000005"/>
						</Node>
						<Node score="-0.029472883872569258">
							<SimplePredicate field="ODI" operator="greaterThan" value="44.220000000000006"/>
							<Node score="0.012661892212028292">
								<SimplePredicate field="ODI" operator="greaterThan" value="63.11000000000001"/>
							</Node>
						</Node>
					</Node>
				</TreeModel>
			</Segment>
			<Segment id="75">
				<True/>
				<TreeModel functionName="regression" noTrueChildStrategy="returnLastPrediction">
					<MiningSchema>
						<MiningField name="ODI"/>
						<MiningField name="PT"/>
						<MiningField name="PI-LL"/>
					</MiningSchema>
					<Node score="-0.05340869248566556">
						<True/>
						<Node score="0.009814538889435244">
							<SimplePredicate field="PI-LL" operator="greaterThan" value="25.500000000000004"/>
							<Node score="0.05580401197687053">
								<SimplePredicate field="PT" operator="greaterThan" value="22.200000000000003"/>
							</Node>
						</Node>
						<Node score="0.02850860218324072">
							<SimplePredicate field="ODI" operator="greaterThan" value="49.00000000000001"/>
						</Node>
					</Node>
				</TreeModel>
			</Segment>
			<Segment id="76">
				<True/>
				<TreeModel functionName="regression" noTrueChildStrategy="returnLastPrediction">
					<MiningSchema>
						<MiningField name="ODI"/>
						<MiningField name="PI-LL"/>
					</MiningSchema>
					<Node score="-0.042030972605102114">
						<True/>
						<Node score="-0.0036089312735562377">
							<SimplePredicate field="PI-LL" operator="greaterThan" value="8.350000000000003"/>
							<Node score="-0.021733888457496908">
								<SimplePredicate field="ODI" operator="greaterThan" value="67.33500000000002"/>
							</Node>
							<Node score="0.09612240067101503">
								<SimplePredicate field="ODI" operator="greaterThan" value="49.00000000000001"/>
							</Node>
						</Node>
					</Node>
				</TreeModel>
			</Segment>
			<Segment id="77">
				<True/>
				<TreeModel functionName="regression" noTrueChildStrategy="returnLastPrediction">
					<MiningSchema>
						<MiningField name="ODI"/>
						<MiningField name="PT"/>
					</MiningSchema>
					<Node score="0.01975863121785615">
						<True/>
						<Node score="-0.0033710301736245897">
							<SimplePredicate field="PT" operator="greaterThan" value="26.850000000000005"/>
						</Node>
						<Node score="-0.02720044419657204">
							<SimplePredicate field="ODI" operator="greaterThan" value="54.50000000000001"/>
							<Node score="0.024118001490625398">
								<SimplePredicate field="ODI" operator="greaterThan" value="65.00000000000001"/>
							</Node>
						</Node>
					</Node>
				</TreeModel>
			</Segment>
			<Segment id="78">
				<True/>
				<TreeModel functionName="regression" noTrueChildStrategy="returnLastPrediction">
					<MiningSchema>
						<MiningField name="ODI"/>
						<MiningField name="PT"/>
					</MiningSchema>
					<Node score="0.017782768096070534">
						<True/>
						<Node score="-0.0030339271562620953">
							<SimplePredicate field="PT" operator="greaterThan" value="26.850000000000005"/>
						</Node>
						<Node score="-0.024480399776914786">
							<SimplePredicate field="ODI" operator="greaterThan" value="54.50000000000001"/>
							<Node score="0.021706201341562804">
								<SimplePredicate field="ODI" operator="greaterThan" value="65.00000000000001"/>
							</Node>
						</Node>
					</Node>
				</TreeModel>
			</Segment>
			<Segment id="79">
				<True/>
				<TreeModel functionName="regression" noTrueChildStrategy="returnLastPrediction">
					<MiningSchema>
						<MiningField name="ODI"/>
						<MiningField name="PI-LL"/>
					</MiningSchema>
					<Node score="-0.047066434376754535">
						<True/>
						<Node score="0.07556628007786284">
							<SimplePredicate field="PI-LL" operator="greaterThan" value="24.500000000000004"/>
							<Node score="-0.0027305344406357793">
								<SimplePredicate field="ODI" operator="greaterThan" value="67.33500000000002"/>
							</Node>
						</Node>
						<Node score="0.007398083027377923">
							<SimplePredicate field="ODI" operator="greaterThan" value="46.33500000000001"/>
						</Node>
					</Node>
				</TreeModel>
			</Segment>
			<Segment id="80">
				<True/>
				<TreeModel functionName="regression" noTrueChildStrategy="returnLastPrediction">
					<MiningSchema>
						<MiningField name="ODI"/>
						<MiningField name="PI-LL"/>
					</MiningSchema>
					<Node score="-0.0019481335344454288">
						<True/>
						<Node score="0.06316538861561281">
							<SimplePredicate field="ODI" operator="greaterThan" value="55.78000000000001"/>
							<Node score="-0.04523617913177502">
								<SimplePredicate field="PI-LL" operator="greaterThan" value="26.500000000000004"/>
							</Node>
						</Node>
						<Node score="0.061063928184717224">
							<SimplePredicate field="PI-LL" operator="greaterThan" value="13.100000000000003"/>
						</Node>
					</Node>
				</TreeModel>
			</Segment>
			<Segment id="81">
				<True/>
				<TreeModel functionName="regression" noTrueChildStrategy="returnLastPrediction">
					<MiningSchema>
						<MiningField name="ODI"/>
						<MiningField name="PT"/>
					</MiningSchema>
					<Node score="0.07235309191922105">
						<True/>
						<Node score="0.0290671004805688">
							<SimplePredicate field="ODI" operator="greaterThan" value="83.00000000000001"/>
						</Node>
						<Node score="0.0015457633866133415">
							<SimplePredicate field="PT" operator="greaterThan" value="18.500000000000004"/>
							<Node score="-0.07620025735966762">
								<SimplePredicate field="ODI" operator="greaterThan" value="55.78000000000001"/>
							</Node>
						</Node>
					</Node>
				</TreeModel>
			</Segment>
			<Segment id="82">
				<True/>
				<TreeModel functionName="regression" noTrueChildStrategy="returnLastPrediction">
					<MiningSchema>
						<MiningField name="ODI"/>
						<MiningField name="PT"/>
					</MiningSchema>
					<Node score="0.1275601818616095">
						<True/>
						<Node score="-0.008632856354791052">
							<SimplePredicate field="PT" operator="greaterThan" value="26.850000000000005"/>
						</Node>
						<Node score="-0.026132298760239793">
							<SimplePredicate field="ODI" operator="greaterThan" value="44.220000000000006"/>
							<Node score="0.010557109073487326">
								<SimplePredicate field="ODI" operator="greaterThan" value="63.11000000000001"/>
							</Node>
						</Node>
					</Node>
				</TreeModel>
			</Segment>
			<Segment id="83">
				<True/>
				<TreeModel functionName="regression" noTrueChildStrategy="returnLastPrediction">
					<MiningSchema>
						<MiningField name="ODI"/>
						<MiningField name="PT"/>
						<MiningField name="PI-LL"/>
					</MiningSchema>
					<Node score="-0.04775747446073275">
						<True/>
						<Node score="0.007920234064748177">
							<SimplePredicate field="PI-LL" operator="greaterThan" value="25.500000000000004"/>
							<Node score="0.038270688110088005">
								<SimplePredicate field="PT" operator="greaterThan" value="22.200000000000003"/>
							</Node>
						</Node>
						<Node score="0.014940482946498924">
							<SimplePredicate field="ODI" operator="greaterThan" value="49.00000000000001"/>
						</Node>
					</Node>
				</TreeModel>
			</Segment>
			<Segment id="84">
				<True/>
				<TreeModel functionName="regression" noTrueChildStrategy="returnLastPrediction">
					<MiningSchema>
						<MiningField name="ODI"/>
						<MiningField name="PI-LL"/>
					</MiningSchema>
					<Node score="-0.03298307087104715">
						<True/>
						<Node score="-0.010786106496578185">
							<SimplePredicate field="PI-LL" operator="greaterThan" value="8.350000000000003"/>
							<Node score="-0.016783891430342823">
								<SimplePredicate field="ODI" operator="greaterThan" value="67.33500000000002"/>
							</Node>
							<Node score="0.0769513501411046">
								<SimplePredicate field="ODI" operator="greaterThan" value="49.00000000000001"/>
							</Node>
						</Node>
					</Node>
				</TreeModel>
			</Segment>
			<Segment id="85">
				<True/>
				<TreeModel functionName="regression" noTrueChildStrategy="returnLastPrediction">
					<MiningSchema>
						<MiningField name="ODI"/>
						<MiningField name="PT"/>
					</MiningSchema>
					<Node score="0.0068074365599283485">
						<True/>
						<Node score="-0.005916731505433682">
							<SimplePredicate field="PT" operator="greaterThan" value="26.850000000000005"/>
						</Node>
						<Node score="-0.028085037410670033">
							<SimplePredicate field="ODI" operator="greaterThan" value="55.78000000000001"/>
						</Node>
					</Node>
				</TreeModel>
			</Segment>
			<Segment id="86">
				<True/>
				<TreeModel functionName="regression" noTrueChildStrategy="returnLastPrediction">
					<MiningSchema>
						<MiningField name="ODI"/>
						<MiningField name="PT"/>
					</MiningSchema>
					<Node score="0.006126692903935549">
						<True/>
						<Node score="-0.005325058354890367">
							<SimplePredicate field="PT" operator="greaterThan" value="26.850000000000005"/>
						</Node>
						<Node score="-0.02527653366960303">
							<SimplePredicate field="ODI" operator="greaterThan" value="55.78000000000001"/>
						</Node>
					</Node>
				</TreeModel>
			</Segment>
			<Segment id="87">
				<True/>
				<TreeModel functionName="regression" noTrueChildStrategy="returnLastPrediction">
					<MiningSchema>
						<MiningField name="ODI"/>
						<MiningField name="PT"/>
					</MiningSchema>
					<Node score="0.005514023613541853">
						<True/>
						<Node score="-0.0047925525194012055">
							<SimplePredicate field="PT" operator="greaterThan" value="26.850000000000005"/>
						</Node>
						<Node score="-0.022748880302642684">
							<SimplePredicate field="ODI" operator="greaterThan" value="55.78000000000001"/>
						</Node>
					</Node>
				</TreeModel>
			</Segment>
			<Segment id="88">
				<True/>
				<TreeModel functionName="regression" noTrueChildStrategy="returnLastPrediction">
					<MiningSchema>
						<MiningField name="PT"/>
						<MiningField name="PI-LL"/>
					</MiningSchema>
					<Node score="-0.25601024835589054">
						<True/>
						<Node score="-0.0043132972674611025">
							<SimplePredicate field="PT" operator="greaterThan" value="26.850000000000005"/>
						</Node>
						<Node score="0.07465027897240804">
							<SimplePredicate field="PT" operator="greaterThan" value="17.500000000000004"/>
							<Node score="-0.01950952609622583">
								<SimplePredicate field="PI-LL" operator="greaterThan" value="22.050000000000004"/>
							</Node>
						</Node>
					</Node>
				</TreeModel>
			</Segment>
			<Segment id="89">
				<True/>
				<TreeModel functionName="regression" noTrueChildStrategy="returnLastPrediction">
					<MiningSchema>
						<MiningField name="ODI"/>
						<MiningField name="PI-LL"/>
					</MiningSchema>
					<Node score="-0.039868352400282706">
						<True/>
						<Node score="0.05818760339418203">
							<SimplePredicate field="PI-LL" operator="greaterThan" value="24.500000000000004"/>
							<Node score="-9.120319922821807E-5">
								<SimplePredicate field="ODI" operator="greaterThan" value="67.33500000000002"/>
							</Node>
						</Node>
						<Node score="0.009302096092097756">
							<SimplePredicate field="ODI" operator="greaterThan" value="46.33500000000001"/>
						</Node>
					</Node>
				</TreeModel>
			</Segment>
			<Segment id="90">
				<True/>
				<TreeModel functionName="regression" noTrueChildStrategy="returnLastPrediction">
					<MiningSchema>
						<MiningField name="ODI"/>
						<MiningField name="PI-LL"/>
					</MiningSchema>
					<Node score="-0.03382237122808292">
						<True/>
						<Node score="-0.013491492221619696">
							<SimplePredicate field="PI-LL" operator="greaterThan" value="8.350000000000003"/>
							<Node score="-0.009298001111069177">
								<SimplePredicate field="ODI" operator="greaterThan" value="67.33500000000002"/>
							</Node>
							<Node score="0.07299945253549005">
								<SimplePredicate field="ODI" operator="greaterThan" value="49.00000000000001"/>
							</Node>
						</Node>
					</Node>
				</TreeModel>
			</Segment>
			<Segment id="91">
				<True/>
				<TreeModel functionName="regression" noTrueChildStrategy="returnLastPrediction">
					<MiningSchema>
						<MiningField name="ODI"/>
						<MiningField name="PT"/>
					</MiningSchema>
					<Node score="0.054242263894077075">
						<True/>
						<Node score="0.03649196344066646">
							<SimplePredicate field="ODI" operator="greaterThan" value="83.00000000000001"/>
						</Node>
						<Node score="3.266844148696935E-4">
							<SimplePredicate field="PT" operator="greaterThan" value="18.500000000000004"/>
							<Node score="-0.06769452018592732">
								<SimplePredicate field="ODI" operator="greaterThan" value="55.78000000000001"/>
							</Node>
						</Node>
					</Node>
				</TreeModel>
			</Segment>
			<Segment id="92">
				<True/>
				<TreeModel functionName="regression" noTrueChildStrategy="returnLastPrediction">
					<MiningSchema>
						<MiningField name="ODI"/>
						<MiningField name="PI-LL"/>
					</MiningSchema>
					<Node score="-0.02707174231672176">
						<True/>
						<Node score="-0.012175011440944773">
							<SimplePredicate field="PI-LL" operator="greaterThan" value="8.350000000000003"/>
							<Node score="-0.006808073162699247">
								<SimplePredicate field="ODI" operator="greaterThan" value="67.33500000000002"/>
							</Node>
							<Node score="0.06027528089253345">
								<SimplePredicate field="ODI" operator="greaterThan" value="49.00000000000001"/>
							</Node>
						</Node>
					</Node>
				</TreeModel>
			</Segment>
			<Segment id="93">
				<True/>
				<TreeModel functionName="regression" noTrueChildStrategy="returnLastPrediction">
					<MiningSchema>
						<MiningField name="ODI"/>
						<MiningField name="PI-LL"/>
					</MiningSchema>
					<Node score="-0.0016737177523809877">
						<True/>
						<Node score="0.05405573162867725">
							<SimplePredicate field="ODI" operator="greaterThan" value="55.78000000000001"/>
							<Node score="-0.028545975541259774">
								<SimplePredicate field="PI-LL" operator="greaterThan" value="26.500000000000004"/>
							</Node>
						</Node>
						<Node score="0.0421538770737854">
							<SimplePredicate field="PI-LL" operator="greaterThan" value="13.100000000000003"/>
						</Node>
					</Node>
				</TreeModel>
			</Segment>
			<Segment id="94">
				<True/>
				<TreeModel functionName="regression" noTrueChildStrategy="returnLastPrediction">
					<MiningSchema>
						<MiningField name="ODI"/>
						<MiningField name="PT"/>
					</MiningSchema>
					<Node score="0.04582015094138506">
						<True/>
						<Node score="0.036378171966995686">
							<SimplePredicate field="ODI" operator="greaterThan" value="83.00000000000001"/>
						</Node>
						<Node score="2.323456951958125E-4">
							<SimplePredicate field="PT" operator="greaterThan" value="18.500000000000004"/>
							<Node score="-0.06799081825899288">
								<SimplePredicate field="ODI" operator="greaterThan" value="55.78000000000001"/>
							</Node>
						</Node>
					</Node>
				</TreeModel>
			</Segment>
			<Segment id="95">
				<True/>
				<TreeModel functionName="regression" noTrueChildStrategy="returnLastPrediction">
					<MiningSchema>
						<MiningField name="ODI"/>
						<MiningField name="PT"/>
					</MiningSchema>
					<Node score="0.12527616980211645">
						<True/>
						<Node score="-0.009050012006158603">
							<SimplePredicate field="PT" operator="greaterThan" value="26.850000000000005"/>
						</Node>
						<Node score="-0.015276378598703745">
							<SimplePredicate field="ODI" operator="greaterThan" value="44.220000000000006"/>
							<Node score="0.007853135209864704">
								<SimplePredicate field="ODI" operator="greaterThan" value="63.11000000000001"/>
							</Node>
						</Node>
					</Node>
				</TreeModel>
			</Segment>
			<Segment id="96">
				<True/>
				<TreeModel functionName="regression" noTrueChildStrategy="returnLastPrediction">
					<MiningSchema>
						<MiningField name="ODI"/>
						<MiningField name="PI-LL"/>
					</MiningSchema>
					<Node score="-0.028011727433260726">
						<True/>
						<Node score="-0.013748740738833476">
							<SimplePredicate field="PI-LL" operator="greaterThan" value="8.350000000000003"/>
							<Node score="-0.001998890237952722">
								<SimplePredicate field="ODI" operator="greaterThan" value="67.33500000000002"/>
							</Node>
							<Node score="0.043474851025287364">
								<SimplePredicate field="ODI" operator="greaterThan" value="49.00000000000001"/>
							</Node>
						</Node>
					</Node>
				</TreeModel>
			</Segment>
			<Segment id="97">
				<True/>
				<TreeModel functionName="regression" noTrueChildStrategy="returnLastPrediction">
					<MiningSchema>
						<MiningField name="PT"/>
						<MiningField name="PI-LL"/>
					</MiningSchema>
					<Node score="-0.2307600808801425">
						<True/>
						<Node score="-0.0073576292567032915">
							<SimplePredicate field="PT" operator="greaterThan" value="26.850000000000005"/>
						</Node>
						<Node score="0.01992352576357921">
							<SimplePredicate field="PT" operator="greaterThan" value="21.200000000000003"/>
						</Node>
						<Node score="0.0027203365863496033">
							<SimplePredicate field="PI-LL" operator="greaterThan" value="14.550000000000002"/>
						</Node>
					</Node>
				</TreeModel>
			</Segment>
			<Segment id="98">
				<True/>
				<TreeModel functionName="regression" noTrueChildStrategy="returnLastPrediction">
					<MiningSchema>
						<MiningField name="ODI"/>
						<MiningField name="PI-LL"/>
					</MiningSchema>
					<Node score="-0.034570519312213575">
						<True/>
						<Node score="0.03885533226412363">
							<SimplePredicate field="ODI" operator="greaterThan" value="55.78000000000001"/>
							<Node score="-0.021727125148655935">
								<SimplePredicate field="PI-LL" operator="greaterThan" value="26.500000000000004"/>
							</Node>
						</Node>
						<Node score="0.0273066414237372">
							<SimplePredicate field="ODI" operator="greaterThan" value="41.00000000000001"/>
						</Node>
					</Node>
				</TreeModel>
			</Segment>
			<Segment id="99">
				<True/>
				<TreeModel functionName="regression" noTrueChildStrategy="returnLastPrediction">
					<MiningSchema>
						<MiningField name="ODI"/>
						<MiningField name="PI-LL"/>
					</MiningSchema>
					<Node score="-0.031113467380992077">
						<True/>
						<Node score="0.017469791361142305">
							<SimplePredicate field="PI-LL" operator="greaterThan" value="25.500000000000004"/>
							<Node score="0.001109474226378282">
								<SimplePredicate field="ODI" operator="greaterThan" value="69.00000000000001"/>
							</Node>
						</Node>
						<Node score="0.02500166147543821">
							<SimplePredicate field="ODI" operator="greaterThan" value="49.00000000000001"/>
						</Node>
					</Node>
				</TreeModel>
			</Segment>
			<Segment id="100">
				<True/>
				<TreeModel functionName="regression" noTrueChildStrategy="returnLastPrediction">
					<MiningSchema>
						<MiningField name="ODI"/>
						<MiningField name="PI-LL"/>
					</MiningSchema>
					<Node score="-0.004423952809741483">
						<True/>
						<Node score="0.03394466170669759">
							<SimplePredicate field="ODI" operator="greaterThan" value="83.00000000000001"/>
						</Node>
						<Node score="-0.04570101467385035">
							<SimplePredicate field="ODI" operator="greaterThan" value="55.78000000000001"/>
						</Node>
						<Node score="0.032476673047596986">
							<SimplePredicate field="PI-LL" operator="greaterThan" value="13.100000000000003"/>
						</Node>
					</Node>
				</TreeModel>
			</Segment>
			<Segment id="101">
				<True/>
				<TreeModel functionName="regression" noTrueChildStrategy="returnLastPrediction">
					<MiningSchema>
						<MiningField name="ODI"/>
						<MiningField name="PI-LL"/>
					</MiningSchema>
					<Node score="-0.03124978794765241">
						<True/>
						<Node score="0.01638402930634051">
							<SimplePredicate field="PI-LL" operator="greaterThan" value="25.500000000000004"/>
							<Node score="-0.002395939366929412">
								<SimplePredicate field="ODI" operator="greaterThan" value="69.00000000000001"/>
							</Node>
						</Node>
						<Node score="0.025007743702074016">
							<SimplePredicate field="ODI" operator="greaterThan" value="49.00000000000001"/>
						</Node>
					</Node>
				</TreeModel>
			</Segment>
			<Segment id="102">
				<True/>
				<TreeModel functionName="regression" noTrueChildStrategy="returnLastPrediction">
					<MiningSchema>
						<MiningField name="ODI"/>
						<MiningField name="PT"/>
					</MiningSchema>
					<Node score="0.13452930489739207">
						<True/>
						<Node score="-0.007039422859042155">
							<SimplePredicate field="PT" operator="greaterThan" value="26.850000000000005"/>
						</Node>
						<Node score="0.0058057348432164705">
							<SimplePredicate field="ODI" operator="greaterThan" value="63.11000000000001"/>
						</Node>
						<Node score="-0.01410822515557726">
							<SimplePredicate field="ODI" operator="greaterThan" value="44.220000000000006"/>
						</Node>
					</Node>
				</TreeModel>
			</Segment>
			<Segment id="103">
				<True/>
				<TreeModel functionName="regression" noTrueChildStrategy="returnLastPrediction">
					<MiningSchema>
						<MiningField name="ODI"/>
						<MiningField name="PT"/>
					</MiningSchema>
					<Node score="0.1210763744076529">
						<True/>
						<Node score="-0.006335480573138064">
							<SimplePredicate field="PT" operator="greaterThan" value="26.850000000000005"/>
						</Node>
						<Node score="0.005225161358894681">
							<SimplePredicate field="ODI" operator="greaterThan" value="63.11000000000001"/>
						</Node>
						<Node score="-0.012697402640019463">
							<SimplePredicate field="ODI" operator="greaterThan" value="44.220000000000006"/>
						</Node>
					</Node>
				</TreeModel>
			</Segment>
			<Segment id="104">
				<True/>
				<TreeModel functionName="regression" noTrueChildStrategy="returnLastPrediction">
					<MiningSchema>
						<MiningField name="ODI"/>
						<MiningField name="PI-LL"/>
					</MiningSchema>
					<Node score="-0.02678731880966936">
						<True/>
						<Node score="0.014862826737209824">
							<SimplePredicate field="PI-LL" operator="greaterThan" value="25.500000000000004"/>
							<Node score="-8.188550870183776E-4">
								<SimplePredicate field="ODI" operator="greaterThan" value="69.00000000000001"/>
							</Node>
						</Node>
						<Node score="0.023295705911540843">
							<SimplePredicate field="ODI" operator="greaterThan" value="49.00000000000001"/>
						</Node>
					</Node>
				</TreeModel>
			</Segment>
			<Segment id="105">
				<True/>
				<TreeModel functionName="regression" noTrueChildStrategy="returnLastPrediction">
					<MiningSchema>
						<MiningField name="ODI"/>
						<MiningField name="PT"/>
					</MiningSchema>
					<Node score="0.013377233392071732">
						<True/>
						<Node score="-0.004321623820989729">
							<SimplePredicate field="PT" operator="greaterThan" value="26.850000000000005"/>
						</Node>
						<Node score="-0.02184811965693814">
							<SimplePredicate field="ODI" operator="greaterThan" value="54.50000000000001"/>
							<Node score="0.027306436406122715">
								<SimplePredicate field="ODI" operator="greaterThan" value="65.00000000000001"/>
							</Node>
						</Node>
					</Node>
				</TreeModel>
			</Segment>
			<Segment id="106">
				<True/>
				<TreeModel functionName="regression" noTrueChildStrategy="returnLastPrediction">
					<MiningSchema>
						<MiningField name="ODI"/>
						<MiningField name="PI-LL"/>
					</MiningSchema>
					<Node score="-0.02452627379770127">
						<True/>
						<Node score="-0.007474115681564086">
							<SimplePredicate field="PI-LL" operator="greaterThan" value="8.350000000000003"/>
							<Node score="-0.0018025149439620414">
								<SimplePredicate field="ODI" operator="greaterThan" value="67.33500000000002"/>
							</Node>
							<Node score="0.03574995811010986">
								<SimplePredicate field="ODI" operator="greaterThan" value="49.00000000000001"/>
							</Node>
						</Node>
					</Node>
				</TreeModel>
			</Segment>
			<Segment id="107">
				<True/>
				<TreeModel functionName="regression" noTrueChildStrategy="returnLastPrediction">
					<MiningSchema>
						<MiningField name="ODI"/>
						<MiningField name="PT"/>
					</MiningSchema>
					<Node score="0.009713115084432556">
						<True/>
						<Node score="-0.0034256299076146136">
							<SimplePredicate field="PT" operator="greaterThan" value="26.850000000000005"/>
						</Node>
						<Node score="-0.020224491906864775">
							<SimplePredicate field="ODI" operator="greaterThan" value="54.50000000000001"/>
							<Node score="0.024756044259906674">
								<SimplePredicate field="ODI" operator="greaterThan" value="65.00000000000001"/>
							</Node>
						</Node>
					</Node>
				</TreeModel>
			</Segment>
			<Segment id="108">
				<True/>
				<TreeModel functionName="regression" noTrueChildStrategy="returnLastPrediction">
					<MiningSchema>
						<MiningField name="ODI"/>
						<MiningField name="PT"/>
						<MiningField name="PI-LL"/>
					</MiningSchema>
					<Node score="-0.022586449987685598">
						<True/>
						<Node score="0.002267463793263547">
							<SimplePredicate field="PI-LL" operator="greaterThan" value="25.500000000000004"/>
							<Node score="0.025058862518709903">
								<SimplePredicate field="PT" operator="greaterThan" value="22.200000000000003"/>
							</Node>
						</Node>
						<Node score="0.015511121704952703">
							<SimplePredicate field="ODI" operator="greaterThan" value="49.00000000000001"/>
						</Node>
					</Node>
				</TreeModel>
			</Segment>
			<Segment id="109">
				<True/>
				<TreeModel functionName="regression" noTrueChildStrategy="returnLastPrediction">
					<MiningSchema>
						<MiningField name="ODI"/>
						<MiningField name="PT"/>
					</MiningSchema>
					<Node score="0.007190691405494044">
						<True/>
						<Node score="-0.0032066875434043855">
							<SimplePredicate field="PT" operator="greaterThan" value="26.850000000000005"/>
						</Node>
						<Node score="-0.019090971991089046">
							<SimplePredicate field="ODI" operator="greaterThan" value="54.50000000000001"/>
							<Node score="0.020729327663420883">
								<SimplePredicate field="ODI" operator="greaterThan" value="65.00000000000001"/>
							</Node>
						</Node>
					</Node>
				</TreeModel>
			</Segment>
			<Segment id="110">
				<True/>
				<TreeModel functionName="regression" noTrueChildStrategy="returnLastPrediction">
					<MiningSchema>
						<MiningField name="ODI"/>
						<MiningField name="PT"/>
					</MiningSchema>
					<Node score="0.006471622264944622">
						<True/>
						<Node score="-0.0028860187890639823">
							<SimplePredicate field="PT" operator="greaterThan" value="26.850000000000005"/>
						</Node>
						<Node score="-0.007895254768969373">
							<SimplePredicate field="ODI" operator="greaterThan" value="55.78000000000001"/>
						</Node>
					</Node>
				</TreeModel>
			</Segment>
			<Segment id="111">
				<True/>
				<TreeModel functionName="regression" noTrueChildStrategy="returnLastPrediction">
					<MiningSchema>
						<MiningField name="ODI"/>
						<MiningField name="PT"/>
					</MiningSchema>
					<Node score="0.0058244600384501416">
						<True/>
						<Node score="-0.0025974169101576905">
							<SimplePredicate field="PT" operator="greaterThan" value="26.850000000000005"/>
						</Node>
						<Node score="-0.007105729292072472">
							<SimplePredicate field="ODI" operator="greaterThan" value="55.78000000000001"/>
						</Node>
					</Node>
				</TreeModel>
			</Segment>
			<Segment id="112">
				<True/>
				<TreeModel functionName="regression" noTrueChildStrategy="returnLastPrediction">
					<MiningSchema>
						<MiningField name="ODI"/>
						<MiningField name="PT"/>
					</MiningSchema>
					<Node score="0.005242014034605092">
						<True/>
						<Node score="-0.002337675219142099">
							<SimplePredicate field="PT" operator="greaterThan" value="26.850000000000005"/>
						</Node>
						<Node score="-0.01704662970409787">
							<SimplePredicate field="ODI" operator="greaterThan" value="54.50000000000001"/>
							<Node score="0.020156493303183077">
								<SimplePredicate field="ODI" operator="greaterThan" value="65.00000000000001"/>
							</Node>
						</Node>
					</Node>
				</TreeModel>
			</Segment>
			<Segment id="113">
				<True/>
				<TreeModel functionName="regression" noTrueChildStrategy="returnLastPrediction">
					<MiningSchema>
						<MiningField name="ODI"/>
						<MiningField name="PT"/>
					</MiningSchema>
					<Node score="0.004717812631144547">
						<True/>
						<Node score="-0.0021039076972279246">
							<SimplePredicate field="PT" operator="greaterThan" value="26.850000000000005"/>
						</Node>
						<Node score="-0.008410805693183577">
							<SimplePredicate field="ODI" operator="greaterThan" value="55.78000000000001"/>
						</Node>
					</Node>
				</TreeModel>
			</Segment>
			<Segment id="114">
				<True/>
				<TreeModel functionName="regression" noTrueChildStrategy="returnLastPrediction">
					<MiningSchema>
						<MiningField name="ODI"/>
						<MiningField name="PT"/>
					</MiningSchema>
					<Node score="0.004246031368030057">
						<True/>
						<Node score="-0.0018935169275049902">
							<SimplePredicate field="PT" operator="greaterThan" value="26.850000000000005"/>
						</Node>
						<Node score="-0.007569725123865201">
							<SimplePredicate field="ODI" operator="greaterThan" value="55.78000000000001"/>
						</Node>
					</Node>
				</TreeModel>
			</Segment>
			<Segment id="115">
				<True/>
				<TreeModel functionName="regression" noTrueChildStrategy="returnLastPrediction">
					<MiningSchema>
						<MiningField name="ODI"/>
						<MiningField name="PT"/>
					</MiningSchema>
					<Node score="0.0038214282312270423">
						<True/>
						<Node score="-0.0017041652347543847">
							<SimplePredicate field="PT" operator="greaterThan" value="26.850000000000005"/>
						</Node>
						<Node score="-0.00681275261147869">
							<SimplePredicate field="ODI" operator="greaterThan" value="55.78000000000001"/>
						</Node>
					</Node>
				</TreeModel>
			</Segment>
			<Segment id="116">
				<True/>
				<TreeModel functionName="regression" noTrueChildStrategy="returnLastPrediction">
					<MiningSchema>
						<MiningField name="ODI"/>
						<MiningField name="PT"/>
					</MiningSchema>
					<Node score="0.003439285408104365">
						<True/>
						<Node score="-0.001533748711278804">
							<SimplePredicate field="PT" operator="greaterThan" value="26.850000000000005"/>
						</Node>
						<Node score="-0.0061314773503307945">
							<SimplePredicate field="ODI" operator="greaterThan" value="55.78000000000001"/>
						</Node>
					</Node>
				</TreeModel>
			</Segment>
			<Segment id="117">
				<True/>
				<TreeModel functionName="regression" noTrueChildStrategy="returnLastPrediction">
					<MiningSchema>
						<MiningField name="ODI"/>
						<MiningField name="PI-LL"/>
					</MiningSchema>
					<Node score="-0.01731344162460573">
						<True/>
						<Node score="-0.0022991824206243907">
							<SimplePredicate field="PI-LL" operator="greaterThan" value="8.350000000000003"/>
							<Node score="-0.0029899474374876613">
								<SimplePredicate field="ODI" operator="greaterThan" value="67.33500000000002"/>
							</Node>
							<Node score="0.04197699976396781">
								<SimplePredicate field="ODI" operator="greaterThan" value="49.00000000000001"/>
							</Node>
						</Node>
					</Node>
				</TreeModel>
			</Segment>
			<Segment id="118">
				<True/>
				<TreeModel functionName="regression" noTrueChildStrategy="returnLastPrediction">
					<MiningSchema>
						<MiningField name="PT"/>
						<MiningField name="PI-LL"/>
					</MiningSchema>
					<Node score="-0.19833847430498794">
						<True/>
						<Node score="-0.0011159173472453433">
							<SimplePredicate field="PT" operator="greaterThan" value="26.850000000000005"/>
						</Node>
						<Node score="0.04410774443006585">
							<SimplePredicate field="PT" operator="greaterThan" value="17.500000000000004"/>
							<Node score="-0.005219334871548931">
								<SimplePredicate field="PI-LL" operator="greaterThan" value="22.050000000000004"/>
							</Node>
						</Node>
					</Node>
				</TreeModel>
			</Segment>
			<Segment id="119">
				<True/>
				<TreeModel functionName="regression" noTrueChildStrategy="returnLastPrediction">
					<MiningSchema>
						<MiningField name="ODI"/>
						<MiningField name="PI-LL"/>
					</MiningSchema>
					<Node score="-0.018159981308876638">
						<True/>
						<Node score="0.03151101661080293">
							<SimplePredicate field="PI-LL" operator="greaterThan" value="24.500000000000004"/>
							<Node score="-5.097878120423616E-5">
								<SimplePredicate field="ODI" operator="greaterThan" value="67.33500000000002"/>
							</Node>
						</Node>
						<Node score="0.007895603435632203">
							<SimplePredicate field="ODI" operator="greaterThan" value="46.33500000000001"/>
						</Node>
					</Node>
				</TreeModel>
			</Segment>
			<Segment id="120">
				<True/>
				<TreeModel functionName="regression" noTrueChildStrategy="returnLastPrediction">
					<MiningSchema>
						<MiningField name="ODI"/>
						<MiningField name="PI-LL"/>
					</MiningSchema>
					<Node score="-0.020687284607430592">
						<True/>
						<Node score="-0.005108774104917658">
							<SimplePredicate field="PI-LL" operator="greaterThan" value="8.350000000000003"/>
							<Node score="-0.002369092204678758">
								<SimplePredicate field="ODI" operator="greaterThan" value="67.33500000000002"/>
							</Node>
							<Node score="0.03515013161364564">
								<SimplePredicate field="ODI" operator="greaterThan" value="49.00000000000001"/>
							</Node>
						</Node>
					</Node>
				</TreeModel>
			</Segment>
			<Segment id="121">
				<True/>
				<TreeModel functionName="regression" noTrueChildStrategy="returnLastPrediction">
					<MiningSchema>
						<MiningField name="ODI"/>
						<MiningField name="PI-LL"/>
					</MiningSchema>
					<Node score="-0.0016611293329517275">
						<True/>
						<Node score="0.025882770126500178">
							<SimplePredicate field="ODI" operator="greaterThan" value="83.00000000000001"/>
						</Node>
						<Node score="-0.03753545512793286">
							<SimplePredicate field="ODI" operator="greaterThan" value="55.78000000000001"/>
						</Node>
						<Node score="0.01510275780493675">
							<SimplePredicate field="PI-LL" operator="greaterThan" value="13.100000000000003"/>
						</Node>
					</Node>
				</TreeModel>
			</Segment>
			<Segment id="122">
				<True/>
				<TreeModel functionName="regression" noTrueChildStrategy="returnLastPrediction">
					<MiningSchema>
						<MiningField name="ODI"/>
						<MiningField name="PT"/>
					</MiningSchema>
					<Node score="0.12022765127364972">
						<True/>
						<Node score="-0.004252710585092779">
							<SimplePredicate field="PT" operator="greaterThan" value="26.850000000000005"/>
						</Node>
						<Node score="-0.010578791823872537">
							<SimplePredicate field="ODI" operator="greaterThan" value="44.220000000000006"/>
							<Node score="0.005039880369942296">
								<SimplePredicate field="ODI" operator="greaterThan" value="63.11000000000001"/>
							</Node>
						</Node>
					</Node>
				</TreeModel>
			</Segment>
			<Segment id="123">
				<True/>
				<TreeModel functionName="regression" noTrueChildStrategy="returnLastPrediction">
					<MiningSchema>
						<MiningField name="ODI"/>
						<MiningField name="PI-LL"/>
					</MiningSchema>
					<Node score="-0.016918110489481466">
						<True/>
						<Node score="8.2704526316979E-5">
							<SimplePredicate field="ODI" operator="greaterThan" value="41.00000000000001"/>
							<Node score="-0.0019719776367569607">
								<SimplePredicate field="ODI" operator="greaterThan" value="67.33500000000002"/>
							</Node>
							<Node score="0.020995570974307043">
								<SimplePredicate field="PI-LL" operator="greaterThan" value="24.500000000000004"/>
							</Node>
						</Node>
					</Node>
				</TreeModel>
			</Segment>
			<Segment id="124">
				<True/>
				<TreeModel functionName="regression" noTrueChildStrategy="returnLastPrediction">
					<MiningSchema>
						<MiningField name="ODI"/>
						<MiningField name="PI-LL"/>
					</MiningSchema>
					<Node score="-0.015226299440533353">
						<True/>
						<Node score="0.01726933317819759">
							<SimplePredicate field="ODI" operator="greaterThan" value="41.00000000000001"/>
							<Node score="0.032702279821349656">
								<SimplePredicate field="ODI" operator="greaterThan" value="55.78000000000001"/>
								<Node score="-0.019278919785386962">
									<SimplePredicate field="PI-LL" operator="greaterThan" value="26.500000000000004"/>
								</Node>
							</Node>
						</Node>
					</Node>
				</TreeModel>
			</Segment>
			<Segment id="125">
				<True/>
				<TreeModel functionName="regression" noTrueChildStrategy="returnLastPrediction">
					<MiningSchema>
						<MiningField name="ODI"/>
						<MiningField name="PI-LL"/>
					</MiningSchema>
					<Node score="-0.013703669496479876">
						<True/>
						<Node score="0.0107666538865562">
							<SimplePredicate field="PI-LL" operator="greaterThan" value="25.500000000000004"/>
							<Node score="1.5311210545725375E-4">
								<SimplePredicate field="ODI" operator="greaterThan" value="69.00000000000001"/>
							</Node>
						</Node>
						<Node score="0.017696921788798958">
							<SimplePredicate field="ODI" operator="greaterThan" value="49.00000000000001"/>
						</Node>
					</Node>
				</TreeModel>
			</Segment>
			<Segment id="126">
				<True/>
				<TreeModel functionName="regression" noTrueChildStrategy="returnLastPrediction">
					<MiningSchema>
						<MiningField name="ODI"/>
						<MiningField name="PT"/>
						<MiningField name="PI-LL"/>
					</MiningSchema>
					<Node score="-0.012333302546831959">
						<True/>
						<Node score="0.0017063977240104667">
							<SimplePredicate field="PI-LL" operator="greaterThan" value="25.500000000000004"/>
							<Node score="0.016092415170400897">
								<SimplePredicate field="PT" operator="greaterThan" value="22.200000000000003"/>
							</Node>
						</Node>
						<Node score="0.015927229609919057">
							<SimplePredicate field="ODI" operator="greaterThan" value="49.00000000000001"/>
						</Node>
					</Node>
				</TreeModel>
			</Segment>
			<Segment id="127">
				<True/>
				<TreeModel functionName="regression" noTrueChildStrategy="returnLastPrediction">
					<MiningSchema>
						<MiningField name="ODI"/>
						<MiningField name="PI-LL"/>
					</MiningSchema>
					<Node score="-0.021470113983736907">
						<True/>
						<Node score="0.01055330402182726">
							<SimplePredicate field="PI-LL" operator="greaterThan" value="8.350000000000003"/>
							<Node score="0.02606963669934306">
								<SimplePredicate field="ODI" operator="greaterThan" value="55.78000000000001"/>
								<Node score="-0.018786956751169728">
									<SimplePredicate field="PI-LL" operator="greaterThan" value="26.500000000000004"/>
								</Node>
							</Node>
						</Node>
					</Node>
				</TreeModel>
			</Segment>
			<Segment id="128">
				<True/>
				<TreeModel functionName="regression" noTrueChildStrategy="returnLastPrediction">
					<MiningSchema>
						<MiningField name="ODI"/>
						<MiningField name="PI-LL"/>
					</MiningSchema>
					<Node score="-0.012155302694331384">
						<True/>
						<Node score="0.009211730489647253">
							<SimplePredicate field="PI-LL" operator="greaterThan" value="25.500000000000004"/>
							<Node score="4.0725505298837565E-4">
								<SimplePredicate field="ODI" operator="greaterThan" value="69.00000000000001"/>
							</Node>
						</Node>
						<Node score="0.012503359612868659">
							<SimplePredicate field="ODI" operator="greaterThan" value="49.00000000000001"/>
						</Node>
					</Node>
				</TreeModel>
			</Segment>
			<Segment id="129">
				<True/>
				<TreeModel functionName="regression" noTrueChildStrategy="returnLastPrediction">
					<MiningSchema>
						<MiningField name="ODI"/>
						<MiningField name="PI-LL"/>
					</MiningSchema>
					<Node score="-0.010939772424898209">
						<True/>
						<Node score="0.008290557440682633">
							<SimplePredicate field="PI-LL" operator="greaterThan" value="25.500000000000004"/>
							<Node score="3.6652954768960915E-4">
								<SimplePredicate field="ODI" operator="greaterThan" value="69.00000000000001"/>
							</Node>
						</Node>
						<Node score="0.011253023651581807">
							<SimplePredicate field="ODI" operator="greaterThan" value="49.00000000000001"/>
						</Node>
					</Node>
				</TreeModel>
			</Segment>
			<Segment id="130">
				<True/>
				<TreeModel functionName="regression" noTrueChildStrategy="returnLastPrediction">
					<MiningSchema>
						<MiningField name="ODI"/>
						<MiningField name="PT"/>
						<MiningField name="PI-LL"/>
					</MiningSchema>
					<Node score="-0.009845795182408424">
						<True/>
						<Node score="0.0016642248336934174">
							<SimplePredicate field="PI-LL" operator="greaterThan" value="25.500000000000004"/>
							<Node score="0.01167761445814506">
								<SimplePredicate field="PT" operator="greaterThan" value="22.200000000000003"/>
							</Node>
						</Node>
						<Node score="0.010127721286423608">
							<SimplePredicate field="ODI" operator="greaterThan" value="49.00000000000001"/>
						</Node>
					</Node>
				</TreeModel>
			</Segment>
			<Segment id="131">
				<True/>
				<TreeModel functionName="regression" noTrueChildStrategy="returnLastPrediction">
					<MiningSchema>
						<MiningField name="ODI"/>
						<MiningField name="PT"/>
					</MiningSchema>
					<Node score="0.003709796331763826">
						<True/>
						<Node score="-0.002752411426121171">
