<?xml version="1.0" encoding="UTF-8" standalone="yes"?>
<PMML xmlns="http://www.dmg.org/PMML-4_4" xmlns:data="http://jpmml.org/jpmml-model/InlineTable" version="4.4">
	<Header>
		<Application name="SkLearn2PMML package" version="0.99.1"/>
		<Timestamp>2023-11-02T18:41:22Z</Timestamp>
	</Header>
	<MiningBuildTask>
		<Extension name="repr">PMMLPipeline(steps=[('lgb', LGBMRegressor(n_estimators=500, objective='regression_l1', verbose=-1))])</Extension>
	</MiningBuildTask>
	<DataDictionary>
		<DataField name="target" optype="continuous" dataType="double"/>
		<DataField name="ODI" optype="continuous" dataType="double"/>
		<DataField name="PT" optype="continuous" dataType="double"/>
		<DataField name="PI-LL" optype="continuous" dataType="double"/>
	</DataDictionary>
	<MiningModel functionName="regression" algorithmName="LightGBM">
		<MiningSchema>
			<Extension name="X-FeatureImportances">
				<InlineTable>
					<Extension name="numberOfImportances" value="3"/>
					<Extension name="numberOfNonZeroImportances" value="3"/>
					<Extension name="sumOfImportances" value="57.0"/>
					<Extension name="minImportance" value="15.0"/>
					<Extension name="maxImportance" value="24.0"/>
					<row>
						<data:name>PI-LL</data:name>
						<data:importance>24.0</data:importance>
					</row>
					<row>
						<data:name>ODI</data:name>
						<data:importance>15.0</data:importance>
					</row>
					<row>
						<data:name>PT</data:name>
						<data:importance>18.0</data:importance>
					</row>
				</InlineTable>
			</Extension>
			<MiningField name="target" usageType="target"/>
			<MiningField name="ODI" importance="15.0"/>
			<MiningField name="PT" importance="18.0"/>
			<MiningField name="PI-LL" importance="24.0"/>
		</MiningSchema>
		<Segmentation multipleModelMethod="sum" missingPredictionTreatment="returnMissing">
			<Segment id="1">
				<True/>
				<TreeModel functionName="regression" noTrueChildStrategy="returnLastPrediction">
					<MiningSchema>
						<MiningField name="ODI"/>
						<MiningField name="PT"/>
						<MiningField name="PI-LL"/>
					</MiningSchema>
					<Node score="8.9">
						<True/>
						<Node score="10.0">
							<SimplePredicate field="PI-LL" operator="greaterThan" value="9.250000000000002"/>
							<Node score="11.25">
								<SimplePredicate field="PT" operator="greaterThan" value="22.200000000000003"/>
								<Node score="10.8">
									<SimplePredicate field="ODI" operator="greaterThan" value="67.33500000000002"/>
								</Node>
							</Node>
						</Node>
					</Node>
				</TreeModel>
			</Segment>
			<Segment id="2">
				<True/>
				<TreeModel functionName="regression" noTrueChildStrategy="returnLastPrediction">
					<MiningSchema>
						<MiningField name="ODI"/>
						<MiningField name="PT"/>
						<MiningField name="PI-LL"/>
					</MiningSchema>
					<Node score="-0.9900000000000001">
						<True/>
						<Node score="0.0">
							<SimplePredicate field="PI-LL" operator="greaterThan" value="9.250000000000002"/>
							<Node score="1.125">
								<SimplePredicate field="PT" operator="greaterThan" value="22.200000000000003"/>
								<Node score="0.72">
									<SimplePredicate field="ODI" operator="greaterThan" value="67.33500000000002"/>
								</Node>
							</Node>
						</Node>
					</Node>
				</TreeModel>
			</Segment>
			<Segment id="3">
				<True/>
				<TreeModel functionName="regression" noTrueChildStrategy="returnLastPrediction">
					<MiningSchema>
						<MiningField name="ODI"/>
						<MiningField name="PT"/>
						<MiningField name="PI-LL"/>
					</MiningSchema>
					<Node score="-0.891">
						<True/>
						<Node score="0.0">
							<SimplePredicate field="PI-LL" operator="greaterThan" value="9.250000000000002"/>
							<Node score="1.0125">
								<SimplePredicate field="PT" operator="greaterThan" value="22.200000000000003"/>
								<Node score="0.6479999999999999">
									<SimplePredicate field="ODI" operator="greaterThan" value="67.33500000000002"/>
								</Node>
							</Node>
						</Node>
					</Node>
				</TreeModel>
			</Segment>
			<Segment id="4">
				<True/>
				<TreeModel functionName="regression" noTrueChildStrategy="returnLastPrediction">
					<MiningSchema>
						<MiningField name="ODI"/>
						<MiningField name="PT"/>
						<MiningField name="PI-LL"/>
					</MiningSchema>
					<Node score="-0.6519">
						<True/>
						<Node score="0.6612500000000001">
							<SimplePredicate field="PI-LL" operator="greaterThan" value="10.500000000000002"/>
							<Node score="0.7831999999999999">
								<SimplePredicate field="PT" operator="greaterThan" value="26.500000000000004"/>
							</Node>
							<Node score="-0.15840000000000007">
								<SimplePredicate field="ODI" operator="greaterThan" value="57.89000000000001"/>
							</Node>
						</Node>
					</Node>
				</TreeModel>
			</Segment>
			<Segment id="5">
				<True/>
				<TreeModel functionName="regression" noTrueChildStrategy="returnLastPrediction">
					<MiningSchema>
						<MiningField name="PT"/>
						<MiningField name="PI-LL"/>
					</MiningSchema>
					<Node score="-0.7867100000000001">
						<True/>
						<Node score="0.06584000000000004">
							<SimplePredicate field="PI-LL" operator="greaterThan" value="16.500000000000004"/>
							<Node score="0.7048800000000001">
								<SimplePredicate field="PT" operator="greaterThan" value="21.200000000000003"/>
							</Node>
						</Node>
						<Node score="-0.023559999999999984">
							<SimplePredicate field="PI-LL" operator="greaterThan" value="6.1499999999999995"/>
						</Node>
					</Node>
				</TreeModel>
			</Segment>
			<Segment id="6">
				<True/>
				<TreeModel functionName="regression" noTrueChildStrategy="returnLastPrediction">
					<MiningSchema>
						<MiningField name="PT"/>
						<MiningField name="PI-LL"/>
					</MiningSchema>
					<Node score="-0.708039">
						<True/>
						<Node score="0.33463703814697277">
							<SimplePredicate field="PI-LL" operator="greaterThan" value="16.500000000000004"/>
							<Node score="0.6343920000000001">
								<SimplePredicate field="PT" operator="greaterThan" value="26.500000000000004"/>
							</Node>
						</Node>
						<Node score="-0.021204">
							<SimplePredicate field="PI-LL" operator="greaterThan" value="6.1499999999999995"/>
						</Node>
					</Node>
				</TreeModel>
			</Segment>
			<Segment id="7">
				<True/>
				<TreeModel functionName="regression" noTrueChildStrategy="returnLastPrediction">
					<MiningSchema>
						<MiningField name="ODI"/>
						<MiningField name="PT"/>
						<MiningField name="PI-LL"/>
					</MiningSchema>
					<Node score="-0.40723510476837155">
						<True/>
						<Node score="0.9118882961853029">
							<SimplePredicate field="PI-LL" operator="greaterThan" value="30.500000000000004"/>
						</Node>
						<Node score="0.19185885000000008">
							<SimplePredicate field="PT" operator="greaterThan" value="21.200000000000003"/>
						</Node>
						<Node score="-0.3742077038146972">
							<SimplePredicate field="ODI" operator="greaterThan" value="54.50000000000001"/>
						</Node>
					</Node>
				</TreeModel>
			</Segment>
			<Segment id="8">
				<True/>
				<TreeModel functionName="regression" noTrueChildStrategy="returnLastPrediction">
					<MiningSchema>
						<MiningField name="PT"/>
						<MiningField name="PI-LL"/>
					</MiningSchema>
					<Node score="-0.5981629595708465">
						<True/>
						<Node score="0.2819874493322754">
							<SimplePredicate field="PI-LL" operator="greaterThan" value="16.500000000000004"/>
							<Node score="0.551766915">
								<SimplePredicate field="PT" operator="greaterThan" value="26.500000000000004"/>
							</Node>
						</Node>
						<Node score="-0.038269485000000186">
							<SimplePredicate field="PI-LL" operator="greaterThan" value="6.1499999999999995"/>
						</Node>
					</Node>
				</TreeModel>
			</Segment>
			<Segment id="9">
				<True/>
				<TreeModel functionName="regression" noTrueChildStrategy="returnLastPrediction">
					<MiningSchema>
						<MiningField name="ODI"/>
						<MiningField name="PI-LL"/>
					</MiningSchema>
					<Node score="-0.18664999607286828">
						<True/>
						<Node score="0.792500721633545">
							<SimplePredicate field="PI-LL" operator="greaterThan" value="30.500000000000004"/>
						</Node>
						<Node score="-0.26628909789648436">
							<SimplePredicate field="ODI" operator="greaterThan" value="56.57000000000001"/>
						</Node>
						<Node score="0.312918083949524">
							<SimplePredicate field="PI-LL" operator="greaterThan" value="10.500000000000002"/>
						</Node>
					</Node>
				</TreeModel>
			</Segment>
			<Segment id="10">
				<True/>
				<TreeModel functionName="regression" noTrueChildStrategy="returnLastPrediction">
					<MiningSchema>
						<MiningField name="PT"/>
						<MiningField name="PI-LL"/>
					</MiningSchema>
					<Node score="-0.5375880476003394">
						<True/>
						<Node score="0.2224968960040954">
							<SimplePredicate field="PI-LL" operator="greaterThan" value="16.500000000000004"/>
							<Node score="0.5232191332896484">
								<SimplePredicate field="PT" operator="greaterThan" value="26.500000000000004"/>
							</Node>
						</Node>
						<Node score="-0.01577753689271333">
							<SimplePredicate field="PT" operator="greaterThan" value="20.450000000000003"/>
						</Node>
					</Node>
				</TreeModel>
			</Segment>
			<Segment id="11">
				<True/>
				<TreeModel functionName="regression" noTrueChildStrategy="returnLastPrediction">
					<MiningSchema>
						<MiningField name="ODI"/>
						<MiningField name="PI-LL"/>
					</MiningSchema>
					<Node score="-0.1664072427763101">
						<True/>
						<Node score="0.691000959869781">
							<SimplePredicate field="PI-LL" operator="greaterThan" value="30.500000000000004"/>
						</Node>
						<Node score="-0.24999615606240502">
							<SimplePredicate field="ODI" operator="greaterThan" value="56.57000000000001"/>
						</Node>
						<Node score="0.27385113206811873">
							<SimplePredicate field="PI-LL" operator="greaterThan" value="10.500000000000002"/>
						</Node>
					</Node>
				</TreeModel>
			</Segment>
			<Segment id="12">
				<True/>
				<TreeModel functionName="regression" noTrueChildStrategy="returnLastPrediction">
					<MiningSchema>
						<MiningField name="ODI"/>
						<MiningField name="PT"/>
						<MiningField name="PI-LL"/>
					</MiningSchema>
					<Node score="-0.18384455754863052">
						<True/>
						<Node score="0.621900863882803">
							<SimplePredicate field="PI-LL" operator="greaterThan" value="30.500000000000004"/>
						</Node>
						<Node score="-0.22499654045616452">
							<SimplePredicate field="ODI" operator="greaterThan" value="56.57000000000001"/>
						</Node>
						<Node score="0.3026135420593905">
							<SimplePredicate field="PT" operator="greaterThan" value="21.200000000000003"/>
						</Node>
					</Node>
				</TreeModel>
			</Segment>
			<Segment id="13">
				<True/>
				<TreeModel functionName="regression" noTrueChildStrategy="returnLastPrediction">
					<MiningSchema>
						<MiningField name="ODI"/>
						<MiningField name="PT"/>
						<MiningField name="PI-LL"/>
					</MiningSchema>
					<Node score="-0.4363299731884485">
						<True/>
						<Node score="0.7368928114746409">
							<SimplePredicate field="PI-LL" operator="greaterThan" value="16.500000000000004"/>
							<Node score="0.027644650543590644">
								<SimplePredicate field="ODI" operator="greaterThan" value="61.11000000000001"/>
							</Node>
						</Node>
						<Node score="-0.027820413131749967">
							<SimplePredicate field="PT" operator="greaterThan" value="20.450000000000003"/>
						</Node>
					</Node>
				</TreeModel>
			</Segment>
			<Segment id="14">
				<True/>
				<TreeModel functionName="regression" noTrueChildStrategy="returnLastPrediction">
					<MiningSchema>
						<MiningField name="ODI"/>
						<MiningField name="PT"/>
						<MiningField name="PI-LL"/>
					</MiningSchema>
					<Node score="-0.3926969758696036">
						<True/>
						<Node score="0.6632035303271767">
							<SimplePredicate field="PI-LL" operator="greaterThan" value="16.500000000000004"/>
							<Node score="0.024880185489231543">
								<SimplePredicate field="ODI" operator="greaterThan" value="61.11000000000001"/>
							</Node>
						</Node>
						<Node score="-0.025038371818575024">
							<SimplePredicate field="PT" operator="greaterThan" value="20.450000000000003"/>
						</Node>
					</Node>
				</TreeModel>
			</Segment>
			<Segment id="15">
				<True/>
				<TreeModel functionName="regression" noTrueChildStrategy="returnLastPrediction">
					<MiningSchema>
						<MiningField name="ODI"/>
						<MiningField name="PT"/>
						<MiningField name="PI-LL"/>
					</MiningSchema>
					<Node score="-0.3534272782826433">
						<True/>
						<Node score="0.596883177294459">
							<SimplePredicate field="PI-LL" operator="greaterThan" value="16.500000000000004"/>
							<Node score="0.02239216694030848">
								<SimplePredicate field="ODI" operator="greaterThan" value="61.11000000000001"/>
							</Node>
						</Node>
						<Node score="-0.022534534636717576">
							<SimplePredicate field="PT" operator="greaterThan" value="20.450000000000003"/>
						</Node>
					</Node>
				</TreeModel>
			</Segment>
			<Segment id="16">
				<True/>
				<TreeModel functionName="regression" noTrueChildStrategy="returnLastPrediction">
					<MiningSchema>
						<MiningField name="ODI"/>
						<MiningField name="PT"/>
						<MiningField name="PI-LL"/>
					</MiningSchema>
					<Node score="0.06755676628403916">
						<True/>
						<Node score="0.0794011111773278">
							<SimplePredicate field="PI-LL" operator="greaterThan" value="24.500000000000004"/>
							<Node score="0.43368208245370465">
								<SimplePredicate field="PT" operator="greaterThan" value="23.450000000000003"/>
							</Node>
						</Node>
						<Node score="-0.30010650919353177">
							<SimplePredicate field="ODI" operator="greaterThan" value="56.57000000000001"/>
						</Node>
					</Node>
				</TreeModel>
			</Segment>
			<Segment id="17">
				<True/>
				<TreeModel functionName="regression" noTrueChildStrategy="returnLastPrediction">
					<MiningSchema>
						<MiningField name="ODI"/>
						<MiningField name="PT"/>
						<MiningField name="PI-LL"/>
					</MiningSchema>
					<Node score="0.0608010896556352">
						<True/>
						<Node score="0.07146100005959503">
							<SimplePredicate field="PI-LL" operator="greaterThan" value="24.500000000000004"/>
							<Node score="0.3903138742083343">
								<SimplePredicate field="PT" operator="greaterThan" value="23.450000000000003"/>
							</Node>
						</Node>
						<Node score="-0.27009585827417865">
							<SimplePredicate field="ODI" operator="greaterThan" value="56.57000000000001"/>
						</Node>
					</Node>
				</TreeModel>
			</Segment>
			<Segment id="18">
				<True/>
				<TreeModel functionName="regression" noTrueChildStrategy="returnLastPrediction">
					<MiningSchema>
						<MiningField name="ODI"/>
						<MiningField name="PT"/>
						<MiningField name="PI-LL"/>
					</MiningSchema>
					<Node score="-0.2803410310026133">
						<True/>
						<Node score="0.31347665777341294">
							<SimplePredicate field="PI-LL" operator="greaterThan" value="6.1499999999999995"/>
							<Node score="-0.1852832374361503">
								<SimplePredicate field="ODI" operator="greaterThan" value="57.89000000000001"/>
								<Node score="0.07183381505037545">
									<SimplePredicate field="PT" operator="greaterThan" value="25.050000000000004"/>
								</Node>
							</Node>
						</Node>
					</Node>
				</TreeModel>
			</Segment>
			<Segment id="19">
				<True/>
				<TreeModel functionName="regression" noTrueChildStrategy="returnLastPrediction">
					<MiningSchema>
						<MiningField name="ODI"/>
						<MiningField name="PT"/>
						<MiningField name="PI-LL"/>
					</MiningSchema>
					<Node score="0.08275508379033295">
						<True/>
						<Node score="0.08284322379725069">
							<SimplePredicate field="PI-LL" operator="greaterThan" value="24.500000000000004"/>
							<Node score="0.31993482101015935">
								<SimplePredicate field="PT" operator="greaterThan" value="23.450000000000003"/>
							</Node>
						</Node>
						<Node score="-0.23741380132747208">
							<SimplePredicate field="ODI" operator="greaterThan" value="56.57000000000001"/>
						</Node>
					</Node>
				</TreeModel>
			</Segment>
		</Segmentation>
	</MiningModel>
</PMML>
