<?xml version="1.0" encoding="UTF-8" standalone="yes"?>
<PMML xmlns="http://www.dmg.org/PMML-4_4" xmlns:data="http://jpmml.org/jpmml-model/InlineTable" version="4.4">
	<Header>
		<Application name="SkLearn2PMML package" version="0.99.1"/>
		<Timestamp>2023-11-02T18:41:13Z</Timestamp>
	</Header>
	<MiningBuildTask>
		<Extension name="repr">PMMLPipeline(steps=[('lgb', LGBMRegressor(n_estimators=500, objective='regression_l1', verbose=-1))])</Extension>
	</MiningBuildTask>
	<DataDictionary>
		<DataField name="target" optype="continuous" dataType="double"/>
		<DataField name="ODI" optype="continuous" dataType="double"/>
		<DataField name="PT" optype="continuous" dataType="double"/>
		<DataField name="PI-LL" optype="continuous" dataType="double"/>
	</DataDictionary>
	<MiningModel functionName="regression" algorithmName="LightGBM">
		<MiningSchema>
			<Extension name="X-FeatureImportances">
				<InlineTable>
					<Extension name="numberOfImportances" value="3"/>
					<Extension name="numberOfNonZeroImportances" value="3"/>
					<Extension name="sumOfImportances" value="1460.0"/>
					<Extension name="minImportance" value="442.0"/>
					<Extension name="maxImportance" value="534.0"/>
					<row>
						<data:name>PI-LL</data:name>
						<data:importance>534.0</data:importance>
					</row>
					<row>
						<data:name>ODI</data:name>
						<data:importance>484.0</data:importance>
					</row>
					<row>
						<data:name>PT</data:name>
						<data:importance>442.0</data:importance>
					</row>
				</InlineTable>
			</Extension>
			<MiningField name="target" usageType="target"/>
			<MiningField name="ODI" importance="484.0"/>
			<MiningField name="PT" importance="442.0"/>
			<MiningField name="PI-LL" importance="534.0"/>
		</MiningSchema>
		<Segmentation multipleModelMethod="sum" missingPredictionTreatment="returnMissing">
			<Segment id="1">
				<True/>
				<TreeModel functionName="regression" noTrueChildStrategy="returnLastPrediction">
					<MiningSchema>
						<MiningField name="PT"/>
						<MiningField name="PI-LL"/>
					</MiningSchema>
					<Node score="9.8">
						<True/>
						<Node score="12.3">
							<SimplePredicate field="PI-LL" operator="greaterThan" value="28.500000000000004"/>
						</Node>
						<Node score="10.6">
							<SimplePredicate field="PI-LL" operator="greaterThan" value="6.1499999999999995"/>
							<Node score="11.6">
								<SimplePredicate field="PT" operator="greaterThan" value="20.450000000000003"/>
							</Node>
						</Node>
					</Node>
				</TreeModel>
			</Segment>
			<Segment id="2">
				<True/>
				<TreeModel functionName="regression" noTrueChildStrategy="returnLastPrediction">
					<MiningSchema>
						<MiningField name="PT"/>
						<MiningField name="PI-LL"/>
					</MiningSchema>
					<Node score="-0.7249999952316285">
						<True/>
						<Node score="-0.15999999999999998">
							<SimplePredicate field="PI-LL" operator="greaterThan" value="12.1"/>
							<Node score="1.09">
								<SimplePredicate field="PT" operator="greaterThan" value="23.500000000000004"/>
							</Node>
							<Node score="0.14000000000000004">
								<SimplePredicate field="PI-LL" operator="greaterThan" value="25.500000000000004"/>
							</Node>
						</Node>
					</Node>
				</TreeModel>
			</Segment>
			<Segment id="3">
				<True/>
				<TreeModel functionName="regression" noTrueChildStrategy="returnLastPrediction">
					<MiningSchema>
						<MiningField name="PT"/>
						<MiningField name="PI-LL"/>
					</MiningSchema>
					<Node score="-0.6524999957084656">
						<True/>
						<Node score="-0.14399999999999996">
							<SimplePredicate field="PI-LL" operator="greaterThan" value="12.1"/>
							<Node score="0.9810000000000001">
								<SimplePredicate field="PT" operator="greaterThan" value="23.500000000000004"/>
							</Node>
							<Node score="0.12599999999999997">
								<SimplePredicate field="PI-LL" operator="greaterThan" value="25.500000000000004"/>
							</Node>
						</Node>
					</Node>
				</TreeModel>
			</Segment>
			<Segment id="4">
				<True/>
				<TreeModel functionName="regression" noTrueChildStrategy="returnLastPrediction">
					<MiningSchema>
						<MiningField name="PT"/>
						<MiningField name="PI-LL"/>
					</MiningSchema>
					<Node score="-0.587249996137619">
						<True/>
						<Node score="-0.12959999999999994">
							<SimplePredicate field="PI-LL" operator="greaterThan" value="12.1"/>
							<Node score="0.8829000000000001">
								<SimplePredicate field="PT" operator="greaterThan" value="23.500000000000004"/>
							</Node>
							<Node score="0.11340000000000004">
								<SimplePredicate field="PI-LL" operator="greaterThan" value="25.500000000000004"/>
							</Node>
						</Node>
					</Node>
				</TreeModel>
			</Segment>
			<Segment id="5">
				<True/>
				<TreeModel functionName="regression" noTrueChildStrategy="returnLastPrediction">
					<MiningSchema>
						<MiningField name="ODI"/>
						<MiningField name="PI-LL"/>
					</MiningSchema>
					<Node score="-0.8835250012922288">
						<True/>
						<Node score="1.053335">
							<SimplePredicate field="PI-LL" operator="greaterThan" value="28.500000000000004"/>
						</Node>
						<Node score="0.26147499870777136">
							<SimplePredicate field="PI-LL" operator="greaterThan" value="6.1499999999999995"/>
							<Node score="-0.31664">
								<SimplePredicate field="ODI" operator="greaterThan" value="61.00000000000001"/>
							</Node>
						</Node>
					</Node>
				</TreeModel>
			</Segment>
			<Segment id="6">
				<True/>
				<TreeModel functionName="regression" noTrueChildStrategy="returnLastPrediction">
					<MiningSchema>
						<MiningField name="PT"/>
						<MiningField name="PI-LL"/>
					</MiningSchema>
					<Node score="-0.4335167559959889">
						<True/>
						<Node score="0.020875249999999925">
							<SimplePredicate field="PI-LL" operator="greaterThan" value="16.500000000000004"/>
							<Node score="0.8773682691380978">
								<SimplePredicate field="PT" operator="greaterThan" value="23.500000000000004"/>
							</Node>
						</Node>
					</Node>
				</TreeModel>
			</Segment>
			<Segment id="7">
				<True/>
				<TreeModel functionName="regression" noTrueChildStrategy="returnLastPrediction">
					<MiningSchema>
						<MiningField name="ODI"/>
						<MiningField name="PT"/>
						<MiningField name="PI-LL"/>
					</MiningSchema>
					<Node score="-0.5840708160266638">
						<True/>
						<Node score="0.10056417572882169">
							<SimplePredicate field="PI-LL" operator="greaterThan" value="9.250000000000002"/>
							<Node score="0.5896257518935443">
								<SimplePredicate field="PT" operator="greaterThan" value="22.200000000000003"/>
							</Node>
							<Node score="-0.28121227500000007">
								<SimplePredicate field="ODI" operator="greaterThan" value="64.22000000000001"/>
							</Node>
						</Node>
					</Node>
				</TreeModel>
			</Segment>
			<Segment id="8">
				<True/>
				<TreeModel functionName="regression" noTrueChildStrategy="returnLastPrediction">
					<MiningSchema>
						<MiningField name="PT"/>
						<MiningField name="PI-LL"/>
					</MiningSchema>
					<Node score="-0.34690092584505683">
						<True/>
						<Node score="0.046908952499999934">
							<SimplePredicate field="PI-LL" operator="greaterThan" value="16.500000000000004"/>
							<Node score="0.7306688670349337">
								<SimplePredicate field="PT" operator="greaterThan" value="23.500000000000004"/>
							</Node>
						</Node>
					</Node>
				</TreeModel>
			</Segment>
			<Segment id="9">
				<True/>
				<TreeModel functionName="regression" noTrueChildStrategy="returnLastPrediction">
					<MiningSchema>
						<MiningField name="ODI"/>
						<MiningField name="PT"/>
						<MiningField name="PI-LL"/>
					</MiningSchema>
					<Node score="-0.49097364183949166">
						<True/>
						<Node score="0.1251978507404452">
							<SimplePredicate field="PI-LL" operator="greaterThan" value="9.250000000000002"/>
							<Node score="0.4986962113225655">
								<SimplePredicate field="PT" operator="greaterThan" value="22.200000000000003"/>
							</Node>
							<Node score="-0.24466559917906203">
								<SimplePredicate field="ODI" operator="greaterThan" value="64.22000000000001"/>
							</Node>
						</Node>
					</Node>
				</TreeModel>
			</Segment>
			<Segment id="10">
				<True/>
				<TreeModel functionName="regression" noTrueChildStrategy="returnLastPrediction">
					<MiningSchema>
						<MiningField name="PT"/>
						<MiningField name="PI-LL"/>
					</MiningSchema>
					<Node score="-0.4418762776555425">
						<True/>
						<Node score="0.07253586716790608">
							<SimplePredicate field="PI-LL" operator="greaterThan" value="24.500000000000004"/>
							<Node score="0.6488265901903092">
								<SimplePredicate field="PT" operator="greaterThan" value="23.500000000000004"/>
							</Node>
						</Node>
						<Node score="-0.04184151141131372">
							<SimplePredicate field="PI-LL" operator="greaterThan" value="9.250000000000002"/>
						</Node>
					</Node>
				</TreeModel>
			</Segment>
			<Segment id="11">
				<True/>
				<TreeModel functionName="regression" noTrueChildStrategy="returnLastPrediction">
					<MiningSchema>
						<MiningField name="ODI"/>
						<MiningField name="PI-LL"/>
					</MiningSchema>
					<Node score="-0.5654386594267314">
						<True/>
						<Node score="0.834757931042055">
							<SimplePredicate field="PI-LL" operator="greaterThan" value="33.00000000000001"/>
						</Node>
						<Node score="0.1752917193240756">
							<SimplePredicate field="PI-LL" operator="greaterThan" value="6.1499999999999995"/>
							<Node score="-0.3160148881200245">
								<SimplePredicate field="ODI" operator="greaterThan" value="67.33500000000002"/>
							</Node>
						</Node>
					</Node>
				</TreeModel>
			</Segment>
			<Segment id="12">
				<True/>
				<TreeModel functionName="regression" noTrueChildStrategy="returnLastPrediction">
					<MiningSchema>
						<MiningField name="ODI"/>
						<MiningField name="PT"/>
						<MiningField name="PI-LL"/>
					</MiningSchema>
					<Node score="-0.04170665495785695">
						<True/>
						<Node score="0.03605060851870814">
							<SimplePredicate field="PI-LL" operator="greaterThan" value="24.500000000000004"/>
							<Node score="0.5664147592388705">
								<SimplePredicate field="PT" operator="greaterThan" value="23.500000000000004"/>
							</Node>
						</Node>
						<Node score="-0.284413399308022">
							<SimplePredicate field="ODI" operator="greaterThan" value="57.89000000000001"/>
						</Node>
					</Node>
				</TreeModel>
			</Segment>
			<Segment id="13">
				<True/>
				<TreeModel functionName="regression" noTrueChildStrategy="returnLastPrediction">
					<MiningSchema>
						<MiningField name="ODI"/>
						<MiningField name="PT"/>
					</MiningSchema>
					<Node score="0.005275862474984284">
						<True/>
						<Node score="0.4324275282621214">
							<SimplePredicate field="PT" operator="greaterThan" value="21.200000000000003"/>
							<Node score="0.025060347051842236">
								<SimplePredicate field="ODI" operator="greaterThan" value="57.89000000000001"/>
							</Node>
						</Node>
						<Node score="-0.29011946451405335">
							<SimplePredicate field="ODI" operator="greaterThan" value="61.00000000000001"/>
						</Node>
					</Node>
				</TreeModel>
			</Segment>
			<Segment id="14">
				<True/>
				<TreeModel functionName="regression" noTrueChildStrategy="returnLastPrediction">
					<MiningSchema>
						<MiningField name="ODI"/>
						<MiningField name="PI-LL"/>
					</MiningSchema>
					<Node score="-0.505251714235771">
						<True/>
						<Node score="0.42785765296234035">
							<SimplePredicate field="PI-LL" operator="greaterThan" value="6.1499999999999995"/>
							<Node score="-0.2459277064967525">
								<SimplePredicate field="ODI" operator="greaterThan" value="57.89000000000001"/>
								<Node score="0.17174878204381916">
									<SimplePredicate field="ODI" operator="greaterThan" value="83.00000000000001"/>
								</Node>
							</Node>
						</Node>
					</Node>
				</TreeModel>
			</Segment>
			<Segment id="15">
				<True/>
				<TreeModel functionName="regression" noTrueChildStrategy="returnLastPrediction">
					<MiningSchema>
						<MiningField name="ODI"/>
						<MiningField name="PT"/>
						<MiningField name="PI-LL"/>
					</MiningSchema>
					<Node score="-0.3547265428121939">
						<True/>
						<Node score="0.34639901013967533">
							<SimplePredicate field="PT" operator="greaterThan" value="21.200000000000003"/>
							<Node score="0.04714708299633319">
								<SimplePredicate field="ODI" operator="greaterThan" value="57.89000000000001"/>
							</Node>
						</Node>
						<Node score="0.08605026476791783">
							<SimplePredicate field="PI-LL" operator="greaterThan" value="16.500000000000004"/>
						</Node>
					</Node>
				</TreeModel>
			</Segment>
			<Segment id="16">
				<True/>
				<TreeModel functionName="regression" noTrueChildStrategy="returnLastPrediction">
					<MiningSchema>
						<MiningField name="ODI"/>
						<MiningField name="PT"/>
					</MiningSchema>
					<Node score="0.01886213687413383">
						<True/>
						<Node score="0.31175910912570776">
							<SimplePredicate field="PT" operator="greaterThan" value="21.200000000000003"/>
							<Node score="0.04243237469669978">
								<SimplePredicate field="ODI" operator="greaterThan" value="57.89000000000001"/>
							</Node>
						</Node>
						<Node score="-0.2428097419858105">
							<SimplePredicate field="ODI" operator="greaterThan" value="61.00000000000001"/>
						</Node>
					</Node>
				</TreeModel>
			</Segment>
			<Segment id="17">
				<True/>
				<TreeModel functionName="regression" noTrueChildStrategy="returnLastPrediction">
					<MiningSchema>
						<MiningField name="PT"/>
						<MiningField name="PI-LL"/>
					</MiningSchema>
					<Node score="-0.3211401022183879">
						<True/>
						<Node score="0.6913302166702269">
							<SimplePredicate field="PI-LL" operator="greaterThan" value="33.00000000000001"/>
						</Node>
						<Node score="0.03818913722702977">
							<SimplePredicate field="PT" operator="greaterThan" value="21.200000000000003"/>
						</Node>
						<Node score="-0.047426636979345106">
							<SimplePredicate field="PI-LL" operator="greaterThan" value="16.500000000000004"/>
						</Node>
					</Node>
				</TreeModel>
			</Segment>
			<Segment id="18">
				<True/>
				<TreeModel functionName="regression" noTrueChildStrategy="returnLastPrediction">
					<MiningSchema>
						<MiningField name="ODI"/>
						<MiningField name="PI-LL"/>
					</MiningSchema>
					<Node score="-0.1590260967649207">
						<True/>
						<Node score="0.6221971950032041">
							<SimplePredicate field="PI-LL" operator="greaterThan" value="33.00000000000001"/>
						</Node>
						<Node score="-0.193665540996372">
							<SimplePredicate field="ODI" operator="greaterThan" value="61.00000000000001"/>
						</Node>
						<Node score="0.17065501873151973">
							<SimplePredicate field="PI-LL" operator="greaterThan" value="9.250000000000002"/>
						</Node>
					</Node>
				</TreeModel>
			</Segment>
			<Segment id="19">
				<True/>
				<TreeModel functionName="regression" noTrueChildStrategy="returnLastPrediction">
					<MiningSchema>
						<MiningField name="ODI"/>
						<MiningField name="PT"/>
					</MiningSchema>
					<Node score="0.06499254308505131">
						<True/>
						<Node score="0.25969878261728213">
							<SimplePredicate field="PT" operator="greaterThan" value="21.200000000000003"/>
							<Node score="0.04838702044552417">
								<SimplePredicate field="ODI" operator="greaterThan" value="57.89000000000001"/>
							</Node>
						</Node>
						<Node score="-0.18154977032771616">
							<SimplePredicate field="ODI" operator="greaterThan" value="61.00000000000001"/>
						</Node>
					</Node>
				</TreeModel>
			</Segment>
			<Segment id="20">
				<True/>
				<TreeModel functionName="regression" noTrueChildStrategy="returnLastPrediction">
					<MiningSchema>
						<MiningField name="ODI"/>
						<MiningField name="PT"/>
					</MiningSchema>
					<Node score="0.05849328877654614">
						<True/>
						<Node score="0.233728904355554">
							<SimplePredicate field="PT" operator="greaterThan" value="21.200000000000003"/>
							<Node score="0.04354831840097173">
								<SimplePredicate field="ODI" operator="greaterThan" value="57.89000000000001"/>
							</Node>
						</Node>
						<Node score="-0.16339479329494458">
							<SimplePredicate field="ODI" operator="greaterThan" value="61.00000000000001"/>
						</Node>
					</Node>
				</TreeModel>
			</Segment>
			<Segment id="21">
				<True/>
				<TreeModel functionName="regression" noTrueChildStrategy="returnLastPrediction">
					<MiningSchema>
						<MiningField name="ODI"/>
						<MiningField name="PI-LL"/>
					</MiningSchema>
					<Node score="-0.16157158252393772">
						<True/>
						<Node score="0.7175807205526958">
							<SimplePredicate field="PI-LL" operator="greaterThan" value="12.1"/>
							<Node score="-0.1713499647746929">
								<SimplePredicate field="ODI" operator="greaterThan" value="57.89000000000001"/>
								<Node score="0.19041179514174145">
									<SimplePredicate field="ODI" operator="greaterThan" value="83.00000000000001"/>
								</Node>
							</Node>
						</Node>
					</Node>
				</TreeModel>
			</Segment>
			<Segment id="22">
				<True/>
				<TreeModel functionName="regression" noTrueChildStrategy="returnLastPrediction">
					<MiningSchema>
						<MiningField name="ODI"/>
						<MiningField name="PT"/>
					</MiningSchema>
					<Node score="0.030685092746177034">
						<True/>
						<Node score="0.21564056419145328">
							<SimplePredicate field="PT" operator="greaterThan" value="21.200000000000003"/>
							<Node score="0.05632848303834397">
								<SimplePredicate field="ODI" operator="greaterThan" value="57.89000000000001"/>
							</Node>
						</Node>
						<Node score="-0.1515949266176614">
							<SimplePredicate field="ODI" operator="greaterThan" value="61.00000000000001"/>
						</Node>
					</Node>
				</TreeModel>
			</Segment>
			<Segment id="23">
				<True/>
				<TreeModel functionName="regression" noTrueChildStrategy="returnLastPrediction">
					<MiningSchema>
						<MiningField name="ODI"/>
						<MiningField name="PI-LL"/>
					</MiningSchema>
					<Node score="-0.14238342129681225">
						<True/>
						<Node score="0.6242585920782808">
							<SimplePredicate field="PI-LL" operator="greaterThan" value="12.1"/>
							<Node score="-0.13905547563545737">
								<SimplePredicate field="ODI" operator="greaterThan" value="57.89000000000001"/>
								<Node score="0.17613393780653325">
									<SimplePredicate field="ODI" operator="greaterThan" value="83.00000000000001"/>
								</Node>
							</Node>
						</Node>
					</Node>
				</TreeModel>
			</Segment>
			<Segment id="24">
				<True/>
				<TreeModel functionName="regression" noTrueChildStrategy="returnLastPrediction">
					<MiningSchema>
						<MiningField name="ODI"/>
						<MiningField name="PT"/>
					</MiningSchema>
					<Node score="-0.1067471001184778">
						<True/>
						<Node score="0.1685679247796653">
							<SimplePredicate field="PT" operator="greaterThan" value="17.500000000000004"/>
							<Node score="-0.2008552772626688">
								<SimplePredicate field="ODI" operator="greaterThan" value="61.00000000000001"/>
								<Node score="0.15852054402587995">
									<SimplePredicate field="ODI" operator="greaterThan" value="76.89000000000001"/>
								</Node>
							</Node>
						</Node>
					</Node>
				</TreeModel>
			</Segment>
			<Segment id="25">
				<True/>
				<TreeModel functionName="regression" noTrueChildStrategy="returnLastPrediction">
					<MiningSchema>
						<MiningField name="PI-LL"/>
					</MiningSchema>
					<Node score="-0.2989579834590423">
						<True/>
						<Node score="0.061218971892055676">
							<SimplePredicate field="PI-LL" operator="greaterThan" value="6.1499999999999995"/>
							<Node score="0.5962771650816814">
								<SimplePredicate field="PI-LL" operator="greaterThan" value="33.00000000000001"/>
							</Node>
							<Node score="-0.097622483798233">
								<SimplePredicate field="PI-LL" operator="greaterThan" value="22.050000000000004"/>
							</Node>
						</Node>
					</Node>
				</TreeModel>
			</Segment>
			<Segment id="26">
				<True/>
				<TreeModel functionName="regression" noTrueChildStrategy="returnLastPrediction">
					<MiningSchema>
						<MiningField name="PT"/>
						<MiningField name="PI-LL"/>
					</MiningSchema>
					<Node score="-0.174740251992068">
						<True/>
						<Node score="0.5366494485735132">
							<SimplePredicate field="PI-LL" operator="greaterThan" value="33.00000000000001"/>
						</Node>
						<Node score="0.05509707470285008">
							<SimplePredicate field="PT" operator="greaterThan" value="17.500000000000004"/>
							<Node score="-0.17100750115657865">
								<SimplePredicate field="PI-LL" operator="greaterThan" value="22.050000000000004"/>
							</Node>
						</Node>
					</Node>
				</TreeModel>
			</Segment>
			<Segment id="27">
				<True/>
				<TreeModel functionName="regression" noTrueChildStrategy="returnLastPrediction">
					<MiningSchema>
						<MiningField name="PT"/>
						<MiningField name="PI-LL"/>
					</MiningSchema>
					<Node score="-0.18153248679862719">
						<True/>
						<Node score="0.48298450371616186">
							<SimplePredicate field="PI-LL" operator="greaterThan" value="33.00000000000001"/>
						</Node>
						<Node score="-0.07057284776097737">
							<SimplePredicate field="PI-LL" operator="greaterThan" value="22.050000000000004"/>
						</Node>
						<Node score="0.04958736723256507">
							<SimplePredicate field="PT" operator="greaterThan" value="20.450000000000003"/>
						</Node>
					</Node>
				</TreeModel>
			</Segment>
			<Segment id="28">
				<True/>
				<TreeModel functionName="regression" noTrueChildStrategy="returnLastPrediction">
					<MiningSchema>
						<MiningField name="PT"/>
						<MiningField name="PI-LL"/>
					</MiningSchema>
					<Node score="-0.16337923811876448">
						<True/>
						<Node score="0.4346860533445458">
							<SimplePredicate field="PI-LL" operator="greaterThan" value="33.00000000000001"/>
						</Node>
						<Node score="-0.06351556298487963">
							<SimplePredicate field="PI-LL" operator="greaterThan" value="22.050000000000004"/>
						</Node>
						<Node score="0.04462863050930857">
							<SimplePredicate field="PT" operator="greaterThan" value="20.450000000000003"/>
						</Node>
					</Node>
				</TreeModel>
			</Segment>
			<Segment id="29">
				<True/>
				<TreeModel functionName="regression" noTrueChildStrategy="returnLastPrediction">
					<MiningSchema>
						<MiningField name="PI-LL"/>
					</MiningSchema>
					<Node score="-0.21612460350936757">
						<True/>
						<Node score="0.39121744801009123">
							<SimplePredicate field="PI-LL" operator="greaterThan" value="33.00000000000001"/>
						</Node>
						<Node score="-0.057164006686391655">
							<SimplePredicate field="PI-LL" operator="greaterThan" value="22.050000000000004"/>
						</Node>
						<Node score="0.057231247325671114">
							<SimplePredicate field="PI-LL" operator="greaterThan" value="11.500000000000002"/>
						</Node>
					</Node>
				</TreeModel>
			</Segment>
			<Segment id="30">
				<True/>
				<TreeModel functionName="regression" noTrueChildStrategy="returnLastPrediction">
					<MiningSchema>
						<MiningField name="ODI"/>
						<MiningField name="PI-LL"/>
					</MiningSchema>
					<Node score="-0.009174891535903562">
						<True/>
						<Node score="-0.15956564793829103">
							<SimplePredicate field="ODI" operator="greaterThan" value="61.00000000000001"/>
							<Node score="0.19503400374295446">
								<SimplePredicate field="ODI" operator="greaterThan" value="83.00000000000001"/>
							</Node>
						</Node>
						<Node score="0.5181996112262411">
							<SimplePredicate field="PI-LL" operator="greaterThan" value="16.500000000000004"/>
						</Node>
					</Node>
				</TreeModel>
			</Segment>
			<Segment id="31">
				<True/>
				<TreeModel functionName="regression" noTrueChildStrategy="returnLastPrediction">
					<MiningSchema>
						<MiningField name="PI-LL"/>
					</MiningSchema>
					<Node score="-0.17952796227742623">
						<True/>
						<Node score="0.368052268002911">
							<SimplePredicate field="PI-LL" operator="greaterThan" value="33.00000000000001"/>
						</Node>
						<Node score="-0.06747808823226045">
							<SimplePredicate field="PI-LL" operator="greaterThan" value="22.050000000000004"/>
						</Node>
						<Node score="0.06746468738693308">
							<SimplePredicate field="PI-LL" operator="greaterThan" value="11.500000000000002"/>
						</Node>
					</Node>
				</TreeModel>
			</Segment>
			<Segment id="32">
				<True/>
				<TreeModel functionName="regression" noTrueChildStrategy="returnLastPrediction">
					<MiningSchema>
						<MiningField name="ODI"/>
					</MiningSchema>
					<Node score="0.004190190241713587">
						<True/>
						<Node score="-0.1368612743212359">
							<SimplePredicate field="ODI" operator="greaterThan" value="61.00000000000001"/>
							<Node score="0.1668259632346647">
								<SimplePredicate field="ODI" operator="greaterThan" value="83.00000000000001"/>
							</Node>
						</Node>
						<Node score="0.20589206647876673">
							<SimplePredicate field="ODI" operator="greaterThan" value="46.33500000000001"/>
						</Node>
					</Node>
				</TreeModel>
			</Segment>
			<Segment id="33">
				<True/>
				<TreeModel functionName="regression" noTrueChildStrategy="returnLastPrediction">
					<MiningSchema>
						<MiningField name="ODI"/>
						<MiningField name="PT"/>
					</MiningSchema>
					<Node score="0.0037711712175422466">
						<True/>
						<Node score="-0.09839100824851715">
							<SimplePredicate field="ODI" operator="greaterThan" value="61.00000000000001"/>
							<Node score="0.08615636150377633">
								<SimplePredicate field="PT" operator="greaterThan" value="21.200000000000003"/>
							</Node>
						</Node>
						<Node score="0.18530285983088995">
							<SimplePredicate field="ODI" operator="greaterThan" value="46.33500000000001"/>
						</Node>
					</Node>
				</TreeModel>
			</Segment>
			<Segment id="34">
				<True/>
				<TreeModel functionName="regression" noTrueChildStrategy="returnLastPrediction">
					<MiningSchema>
						<MiningField name="PI-LL"/>
					</MiningSchema>
					<Node score="-0.17643799392302345">
						<True/>
						<Node score="0.33631753248436635">
							<SimplePredicate field="PI-LL" operator="greaterThan" value="33.00000000000001"/>
						</Node>
						<Node score="-0.07377746371891938">
							<SimplePredicate field="PI-LL" operator="greaterThan" value="22.050000000000004"/>
						</Node>
						<Node score="0.07486584677417873">
							<SimplePredicate field="PI-LL" operator="greaterThan" value="6.1499999999999995"/>
						</Node>
					</Node>
				</TreeModel>
			</Segment>
			<Segment id="35">
				<True/>
				<TreeModel functionName="regression" noTrueChildStrategy="returnLastPrediction">
					<MiningSchema>
						<MiningField name="PT"/>
						<MiningField name="PI-LL"/>
					</MiningSchema>
					<Node score="-0.1933443883284765">
						<True/>
						<Node score="0.06737926209676086">
							<SimplePredicate field="PT" operator="greaterThan" value="20.450000000000003"/>
							<Node score="-0.05539412167197995">
								<SimplePredicate field="PT" operator="greaterThan" value="25.200000000000006"/>
							</Node>
						</Node>
						<Node score="0.09630047969125917">
							<SimplePredicate field="PI-LL" operator="greaterThan" value="16.500000000000004"/>
						</Node>
					</Node>
				</TreeModel>
			</Segment>
			<Segment id="36">
				<True/>
				<TreeModel functionName="regression" noTrueChildStrategy="returnLastPrediction">
					<MiningSchema>
						<MiningField name="ODI"/>
						<MiningField name="PT"/>
						<MiningField name="PI-LL"/>
					</MiningSchema>
					<Node score="0.050555097456933144">
						<True/>
						<Node score="0.2959478530262537">
							<SimplePredicate field="PI-LL" operator="greaterThan" value="33.00000000000001"/>
						</Node>
						<Node score="-0.05623344090278746">
							<SimplePredicate field="PT" operator="greaterThan" value="22.200000000000003"/>
						</Node>
						<Node score="-0.051505473545796">
							<SimplePredicate field="ODI" operator="greaterThan" value="61.00000000000001"/>
						</Node>
					</Node>
				</TreeModel>
			</Segment>
			<Segment id="37">
				<True/>
				<TreeModel functionName="regression" noTrueChildStrategy="returnLastPrediction">
					<MiningSchema>
						<MiningField name="ODI"/>
						<MiningField name="PT"/>
					</MiningSchema>
					<Node score="2.980909026886636E-4">
						<True/>
						<Node score="-0.08276153990687006">
							<SimplePredicate field="ODI" operator="greaterThan" value="61.00000000000001"/>
							<Node score="0.06846676182088417">
								<SimplePredicate field="PT" operator="greaterThan" value="21.200000000000003"/>
							</Node>
						</Node>
						<Node score="0.18531307647716952">
							<SimplePredicate field="ODI" operator="greaterThan" value="46.33500000000001"/>
						</Node>
					</Node>
				</TreeModel>
			</Segment>
			<Segment id="38">
				<True/>
				<TreeModel functionName="regression" noTrueChildStrategy="returnLastPrediction">
					<MiningSchema>
						<MiningField name="PI-LL"/>
					</MiningSchema>
					<Node score="-0.14454507453383564">
						<True/>
						<Node score="0.05918160542742541">
							<SimplePredicate field="PI-LL" operator="greaterThan" value="6.1499999999999995"/>
							<Node score="-0.0586752037257293">
								<SimplePredicate field="PI-LL" operator="greaterThan" value="22.050000000000004"/>
								<Node score="0.2595063915415402">
									<SimplePredicate field="PI-LL" operator="greaterThan" value="33.00000000000001"/>
								</Node>
							</Node>
						</Node>
					</Node>
				</TreeModel>
			</Segment>
			<Segment id="39">
				<True/>
				<TreeModel functionName="regression" noTrueChildStrategy="returnLastPrediction">
					<MiningSchema>
						<MiningField name="ODI"/>
						<MiningField name="PI-LL"/>
					</MiningSchema>
					<Node score="-0.06787022290538745">
						<True/>
						<Node score="-0.05920050599646329">
							<SimplePredicate field="ODI" operator="greaterThan" value="75.00000000000001"/>
						</Node>
						<Node score="0.07644975434712448">
							<SimplePredicate field="PI-LL" operator="greaterThan" value="11.500000000000002"/>
							<Node score="0.07952381229188782">
								<SimplePredicate field="PI-LL" operator="greaterThan" value="23.400000000000002"/>
							</Node>
						</Node>
					</Node>
				</TreeModel>
			</Segment>
			<Segment id="40">
				<True/>
				<TreeModel functionName="regression" noTrueChildStrategy="returnLastPrediction">
					<MiningSchema>
						<MiningField name="ODI"/>
					</MiningSchema>
					<Node score="-0.003406546562199253">
						<True/>
						<Node score="0.056963339640361356">
							<SimplePredicate field="ODI" operator="greaterThan" value="83.00000000000001"/>
						</Node>
						<Node score="-0.09824296765788249">
							<SimplePredicate field="ODI" operator="greaterThan" value="61.00000000000001"/>
						</Node>
						<Node score="0.16500431376731337">
							<SimplePredicate field="ODI" operator="greaterThan" value="46.33500000000001"/>
						</Node>
					</Node>
				</TreeModel>
			</Segment>
			<Segment id="41">
				<True/>
				<TreeModel functionName="regression" noTrueChildStrategy="returnLastPrediction">
					<MiningSchema>
						<MiningField name="ODI"/>
						<MiningField name="PI-LL"/>
					</MiningSchema>
					<Node score="-0.1229628901336934">
						<True/>
						<Node score="-7.940468447716676E-4">
							<SimplePredicate field="PI-LL" operator="greaterThan" value="6.1499999999999995"/>
							<Node score="-0.04498680458840809">
								<SimplePredicate field="ODI" operator="greaterThan" value="75.00000000000001"/>
							</Node>
							<Node score="0.0907367387612082">
								<SimplePredicate field="ODI" operator="greaterThan" value="49.00000000000001"/>
							</Node>
						</Node>
					</Node>
				</TreeModel>
			</Segment>
			<Segment id="42">
				<True/>
				<TreeModel functionName="regression" noTrueChildStrategy="returnLastPrediction">
					<MiningSchema>
						<MiningField name="ODI"/>
					</MiningSchema>
					<Node score="-0.0029864872215020102">
						<True/>
						<Node score="0.055765686135166">
							<SimplePredicate field="ODI" operator="greaterThan" value="83.00000000000001"/>
						</Node>
						<Node score="-0.09749234476821514">
							<SimplePredicate field="ODI" operator="greaterThan" value="61.00000000000001"/>
						</Node>
						<Node score="0.13943020851446128">
							<SimplePredicate field="ODI" operator="greaterThan" value="46.33500000000001"/>
						</Node>
					</Node>
				</TreeModel>
			</Segment>
			<Segment id="43">
				<True/>
				<TreeModel functionName="regression" noTrueChildStrategy="returnLastPrediction">
					<MiningSchema>
						<MiningField name="ODI"/>
						<MiningField name="PI-LL"/>
					</MiningSchema>
					<Node score="-0.11036795239817386">
						<True/>
						<Node score="-4.159934381442021E-4">
							<SimplePredicate field="PI-LL" operator="greaterThan" value="6.1499999999999995"/>
							<Node score="-0.04606469274308403">
								<SimplePredicate field="ODI" operator="greaterThan" value="75.00000000000001"/>
							</Node>
							<Node score="0.07327243244616809">
								<SimplePredicate field="ODI" operator="greaterThan" value="49.00000000000001"/>
							</Node>
						</Node>
					</Node>
				</TreeModel>
			</Segment>
			<Segment id="44">
				<True/>
				<TreeModel functionName="regression" noTrueChildStrategy="returnLastPrediction">
					<MiningSchema>
						<MiningField name="ODI"/>
					</MiningSchema>
					<Node score="-0.0026462391555373446">
						<True/>
						<Node score="0.05479558679595762">
							<SimplePredicate field="ODI" operator="greaterThan" value="83.00000000000001"/>
						</Node>
						<Node score="-0.09507035353601019">
							<SimplePredicate field="ODI" operator="greaterThan" value="61.00000000000001"/>
						</Node>
						<Node score="0.11815994441839842">
							<SimplePredicate field="ODI" operator="greaterThan" value="46.33500000000001"/>
						</Node>
					</Node>
				</TreeModel>
			</Segment>
			<Segment id="45">
				<True/>
				<TreeModel functionName="regression" noTrueChildStrategy="returnLastPrediction">
					<MiningSchema>
						<MiningField name="ODI"/>
						<MiningField name="PI-LL"/>
					</MiningSchema>
					<Node score="-0.09906653324280273">
						<True/>
						<Node score="-1.0977017877609186E-4">
							<SimplePredicate field="PI-LL" operator="greaterThan" value="6.1499999999999995"/>
							<Node score="-0.04693778214837146">
								<SimplePredicate field="ODI" operator="greaterThan" value="75.00000000000001"/>
							</Node>
							<Node score="0.06452917423855778">
								<SimplePredicate field="ODI" operator="greaterThan" value="49.00000000000001"/>
							</Node>
						</Node>
					</Node>
				</TreeModel>
			</Segment>
			<Segment id="46">
				<True/>
				<TreeModel functionName="regression" noTrueChildStrategy="returnLastPrediction">
					<MiningSchema>
						<MiningField name="ODI"/>
						<MiningField name="PI-LL"/>
					</MiningSchema>
					<Node score="-0.08915987991852246">
						<True/>
						<Node score="-0.002370638222106081">
							<SimplePredicate field="PI-LL" operator="greaterThan" value="6.1499999999999995"/>
							<Node score="0.005882901198832436">
								<SimplePredicate field="PI-LL" operator="greaterThan" value="26.500000000000004"/>
							</Node>
							<Node score="0.05184520150158765">
								<SimplePredicate field="ODI" operator="greaterThan" value="57.89000000000001"/>
							</Node>
						</Node>
					</Node>
				</TreeModel>
			</Segment>
			<Segment id="47">
				<True/>
				<TreeModel functionName="regression" noTrueChildStrategy="returnLastPrediction">
					<MiningSchema>
						<MiningField name="PT"/>
						<MiningField name="PI-LL"/>
					</MiningSchema>
					<Node score="-0.1297286567673641">
						<True/>
						<Node score="0.07943506139546777">
							<SimplePredicate field="PT" operator="greaterThan" value="20.450000000000003"/>
							<Node score="-0.04283229405341729">
								<SimplePredicate field="PT" operator="greaterThan" value="25.200000000000006"/>
							</Node>
						</Node>
						<Node score="0.07485758381597862">
							<SimplePredicate field="PI-LL" operator="greaterThan" value="16.500000000000004"/>
						</Node>
					</Node>
				</TreeModel>
			</Segment>
			<Segment id="48">
				<True/>
				<TreeModel functionName="regression" noTrueChildStrategy="returnLastPrediction">
					<MiningSchema>
						<MiningField name="ODI"/>
						<MiningField name="PT"/>
						<MiningField name="PI-LL"/>
					</MiningSchema>
					<Node score="0.04127206828184296">
						<True/>
						<Node score="0.22329830695038488">
							<SimplePredicate field="PI-LL" operator="greaterThan" value="33.00000000000001"/>
						</Node>
						<Node score="-0.05067504489595631">
							<SimplePredicate field="PT" operator="greaterThan" value="22.200000000000003"/>
						</Node>
						<Node score="-0.010910767697798862">
							<SimplePredicate field="ODI" operator="greaterThan" value="61.00000000000001"/>
						</Node>
					</Node>
				</TreeModel>
			</Segment>
			<Segment id="49">
				<True/>
				<TreeModel functionName="regression" noTrueChildStrategy="returnLastPrediction">
					<MiningSchema>
						<MiningField name="ODI"/>
						<MiningField name="PT"/>
						<MiningField name="PI-LL"/>
					</MiningSchema>
					<Node score="0.037144861453658605">
						<True/>
						<Node score="0.20096847625534622">
							<SimplePredicate field="PI-LL" operator="greaterThan" value="33.00000000000001"/>
						</Node>
						<Node score="-0.04560754040636059">
							<SimplePredicate field="PT" operator="greaterThan" value="22.200000000000003"/>
						</Node>
						<Node score="-0.009819690928018954">
							<SimplePredicate field="ODI" operator="greaterThan" value="61.00000000000001"/>
						</Node>
					</Node>
				</TreeModel>
			</Segment>
			<Segment id="50">
				<True/>
				<TreeModel functionName="regression" noTrueChildStrategy="returnLastPrediction">
					<MiningSchema>
						<MiningField name="ODI"/>
						<MiningField name="PI-LL"/>
					</MiningSchema>
					<Node score="0.002997598303290694">
						<True/>
						<Node score="0.04322870128583425">
							<SimplePredicate field="ODI" operator="greaterThan" value="61.00000000000001"/>
							<Node score="-0.14251696242831927">
								<SimplePredicate field="PI-LL" operator="greaterThan" value="26.500000000000004"/>
							</Node>
						</Node>
						<Node score="0.11403958431048729">
							<SimplePredicate field="ODI" operator="greaterThan" value="46.33500000000001"/>
						</Node>
					</Node>
				</TreeModel>
			</Segment>
			<Segment id="51">
				<True/>
				<TreeModel functionName="regression" noTrueChildStrategy="returnLastPrediction">
					<MiningSchema>
						<MiningField name="PI-LL"/>
					</MiningSchema>
					<Node score="-0.07541247905381303">
						<True/>
						<Node score="0.19512332487264353">
							<SimplePredicate field="PI-LL" operator="greaterThan" value="33.00000000000001"/>
						</Node>
						<Node score="-0.03407081815947297">
							<SimplePredicate field="PI-LL" operator="greaterThan" value="22.050000000000004"/>
						</Node>
						<Node score="0.030466124017247423">
							<SimplePredicate field="PI-LL" operator="greaterThan" value="6.1499999999999995"/>
						</Node>
					</Node>
				</TreeModel>
			</Segment>
			<Segment id="52">
				<True/>
				<TreeModel functionName="regression" noTrueChildStrategy="returnLastPrediction">
					<MiningSchema>
						<MiningField name="ODI"/>
						<MiningField name="PI-LL"/>
					</MiningSchema>
					<Node score="1.9986097619391076E-4">
						<True/>
						<Node score="0.17561099238537922">
							<SimplePredicate field="PI-LL" operator="greaterThan" value="33.00000000000001"/>
						</Node>
						<Node score="0.014221970609535763">
							<SimplePredicate field="ODI" operator="greaterThan" value="69.00000000000001"/>
						</Node>
						<Node score="-0.08231428346094144">
							<SimplePredicate field="PI-LL" operator="greaterThan" value="22.050000000000004"/>
						</Node>
					</Node>
				</TreeModel>
			</Segment>
			<Segment id="53">
				<True/>
				<TreeModel functionName="regression" noTrueChildStrategy="returnLastPrediction">
					<MiningSchema>
						<MiningField name="ODI"/>
						<MiningField name="PT"/>
						<MiningField name="PI-LL"/>
					</MiningSchema>
					<Node score="-0.06789121724605111">
						<True/>
						<Node score="-0.015665617108570284">
							<SimplePredicate field="ODI" operator="greaterThan" value="75.00000000000001"/>
						</Node>
						<Node score="0.004791602845733678">
							<SimplePredicate field="PI-LL" operator="greaterThan" value="9.250000000000002"/>
							<Node score="0.13622005987979371">
								<SimplePredicate field="PT" operator="greaterThan" value="22.200000000000003"/>
							</Node>
						</Node>
					</Node>
				</TreeModel>
			</Segment>
			<Segment id="54">
				<True/>
				<TreeModel functionName="regression" noTrueChildStrategy="returnLastPrediction">
					<MiningSchema>
						<MiningField name="ODI"/>
					</MiningSchema>
					<Node score="-0.012893496204447887">
						<True/>
						<Node score="-0.014099055397713212">
							<SimplePredicate field="ODI" operator="greaterThan" value="75.00000000000001"/>
						</Node>
						<Node score="0.02349326795150244">
							<SimplePredicate field="ODI" operator="greaterThan" value="49.00000000000001"/>
						</Node>
					</Node>
				</TreeModel>
			</Segment>
			<Segment id="55">
				<True/>
				<TreeModel functionName="regression" noTrueChildStrategy="returnLastPrediction">
					<MiningSchema>
						<MiningField name="ODI"/>
						<MiningField name="PI-LL"/>
					</MiningSchema>
					<Node score="-0.03570844624250214">
						<True/>
						<Node score="-0.012689149857941829">
							<SimplePredicate field="ODI" operator="greaterThan" value="75.00000000000001"/>
						</Node>
						<Node score="0.026376237885600597">
							<SimplePredicate field="PI-LL" operator="greaterThan" value="11.500000000000002"/>
							<Node score="0.0606072979778745">
								<SimplePredicate field="PI-LL" operator="greaterThan" value="23.400000000000002"/>
							</Node>
						</Node>
					</Node>
				</TreeModel>
			</Segment>
			<Segment id="56">
				<True/>
				<TreeModel functionName="regression" noTrueChildStrategy="returnLastPrediction">
					<MiningSchema>
						<MiningField name="ODI"/>
						<MiningField name="PI-LL"/>
					</MiningSchema>
					<Node score="-0.008033301959752848">
						<True/>
						<Node score="0.025053326487853234">
							<SimplePredicate field="ODI" operator="greaterThan" value="61.00000000000001"/>
							<Node score="-0.15137677778776643">
								<SimplePredicate field="PI-LL" operator="greaterThan" value="26.500000000000004"/>
							</Node>
						</Node>
						<Node score="0.09566517946979083">
							<SimplePredicate field="ODI" operator="greaterThan" value="46.33500000000001"/>
						</Node>
					</Node>
				</TreeModel>
			</Segment>
			<Segment id="57">
				<True/>
				<TreeModel functionName="regression" noTrueChildStrategy="returnLastPrediction">
					<MiningSchema>
						<MiningField name="ODI"/>
						<MiningField name="PT"/>
						<MiningField name="PI-LL"/>
					</MiningSchema>
					<Node score="-0.05942407225123958">
						<True/>
						<Node score="0.05773181213664298">
							<SimplePredicate field="PI-LL" operator="greaterThan" value="28.500000000000004"/>
						</Node>
						<Node score="-0.04439453498173634">
							<SimplePredicate field="ODI" operator="greaterThan" value="49.00000000000001"/>
							<Node score="0.026465578177503703">
								<SimplePredicate field="PT" operator="greaterThan" value="19.450000000000003"/>
							</Node>
						</Node>
					</Node>
				</TreeModel>
			</Segment>
			<Segment id="58">
				<True/>
				<TreeModel functionName="regression" noTrueChildStrategy="returnLastPrediction">
					<MiningSchema>
						<MiningField name="PI-LL"/>
					</MiningSchema>
					<Node score="-0.00762766588820929">
						<True/>
						<Node score="0.051958630922978526">
							<SimplePredicate field="PI-LL" operator="greaterThan" value="28.500000000000004"/>
						</Node>
						<Node score="-0.05348166502611562">
							<SimplePredicate field="PI-LL" operator="greaterThan" value="22.050000000000004"/>
						</Node>
						<Node score="0.008951984921642354">
							<SimplePredicate field="PI-LL" operator="greaterThan" value="11.500000000000002"/>
						</Node>
					</Node>
				</TreeModel>
			</Segment>
			<Segment id="59">
				<True/>
				<TreeModel functionName="regression" noTrueChildStrategy="returnLastPrediction">
					<MiningSchema>
						<MiningField name="ODI"/>
						<MiningField name="PT"/>
						<MiningField name="PI-LL"/>
					</MiningSchema>
					<Node score="0.0036543444498640556">
						<True/>
						<Node score="0.15332930974214456">
							<SimplePredicate field="PI-LL" operator="greaterThan" value="33.00000000000001"/>
						</Node>
						<Node score="-0.026201853967142343">
							<SimplePredicate field="PT" operator="greaterThan" value="22.200000000000003"/>
						</Node>
						<Node score="-0.009568506733399484">
							<SimplePredicate field="ODI" operator="greaterThan" value="61.00000000000001"/>
						</Node>
					</Node>
				</TreeModel>
			</Segment>
			<Segment id="60">
				<True/>
				<TreeModel functionName="regression" noTrueChildStrategy="returnLastPrediction">
					<MiningSchema>
						<MiningField name="ODI"/>
						<MiningField name="PI-LL"/>
					</MiningSchema>
					<Node score="-0.04909883171181725">
						<True/>
						<Node score="-0.014462583451863154">
							<SimplePredicate field="ODI" operator="greaterThan" value="75.00000000000001"/>
						</Node>
						<Node score="0.01948004317336771">
							<SimplePredicate field="PI-LL" operator="greaterThan" value="9.250000000000002"/>
							<Node score="0.00414152399356258">
								<SimplePredicate field="PI-LL" operator="greaterThan" value="22.050000000000004"/>
							</Node>
						</Node>
					</Node>
				</TreeModel>
			</Segment>
			<Segment id="61">
				<True/>
				<TreeModel functionName="regression" noTrueChildStrategy="returnLastPrediction">
					<MiningSchema>
						<MiningField name="ODI"/>
						<MiningField name="PT"/>
						<MiningField name="PI-LL"/>
					</MiningSchema>
					<Node score="-0.002320450573193078">
						<True/>
						<Node score="-0.013016325106676874">
							<SimplePredicate field="ODI" operator="greaterThan" value="75.00000000000001"/>
						</Node>
						<Node score="-0.0019453525008989116">
							<SimplePredicate field="PI-LL" operator="greaterThan" value="12.1"/>
							<Node score="0.13758222636857376">
								<SimplePredicate field="PT" operator="greaterThan" value="21.200000000000003"/>
							</Node>
						</Node>
					</Node>
				</TreeModel>
			</Segment>
			<Segment id="62">
				<True/>
				<TreeModel functionName="regression" noTrueChildStrategy="returnLastPrediction">
					<MiningSchema>
						<MiningField name="ODI"/>
						<MiningField name="PI-LL"/>
					</MiningSchema>
					<Node score="-0.00208840551587377">
						<True/>
						<Node score="0.008174445586734969">
							<SimplePredicate field="ODI" operator="greaterThan" value="61.00000000000001"/>
							<Node score="-0.141840068062384">
								<SimplePredicate field="PI-LL" operator="greaterThan" value="26.500000000000004"/>
							</Node>
						</Node>
						<Node score="0.3430007074423708">
							<SimplePredicate field="PI-LL" operator="greaterThan" value="16.500000000000004"/>
						</Node>
					</Node>
				</TreeModel>
			</Segment>
			<Segment id="63">
				<True/>
				<TreeModel functionName="regression" noTrueChildStrategy="returnLastPrediction">
					<MiningSchema>
						<MiningField name="ODI"/>
						<MiningField name="PT"/>
						<MiningField name="PI-LL"/>
					</MiningSchema>
					<Node score="-0.03486180972145712">
						<True/>
						<Node score="0.03652596972427293">
							<SimplePredicate field="PI-LL" operator="greaterThan" value="28.500000000000004"/>
						</Node>
						<Node score="0.005230731656842114">
							<SimplePredicate field="ODI" operator="greaterThan" value="64.22000000000001"/>
						</Node>
						<Node score="-0.02480129146482566">
							<SimplePredicate field="PT" operator="greaterThan" value="18.500000000000004"/>
						</Node>
					</Node>
				</TreeModel>
			</Segment>
			<Segment id="64">
				<True/>
				<TreeModel functionName="regression" noTrueChildStrategy="returnLastPrediction">
					<MiningSchema>
						<MiningField name="ODI"/>
						<MiningField name="PI-LL"/>
					</MiningSchema>
					<Node score="0.003068397884934271">
						<True/>
						<Node score="0.006833927862377288">
							<SimplePredicate field="ODI" operator="greaterThan" value="61.00000000000001"/>
							<Node score="-0.1313086582285731">
								<SimplePredicate field="PI-LL" operator="greaterThan" value="26.500000000000004"/>
							</Node>
						</Node>
						<Node score="0.0541174688280929">
							<SimplePredicate field="ODI" operator="greaterThan" value="46.33500000000001"/>
						</Node>
					</Node>
				</TreeModel>
			</Segment>
			<Segment id="65">
				<True/>
				<TreeModel functionName="regression" noTrueChildStrategy="returnLastPrediction">
					<MiningSchema>
						<MiningField name="ODI"/>
						<MiningField name="PT"/>
						<MiningField name="PI-LL"/>
					</MiningSchema>
					<Node score="-0.024963615732129487">
						<True/>
						<Node score="0.036732932221869595">
							<SimplePredicate field="PI-LL" operator="greaterThan" value="28.500000000000004"/>
						</Node>
						<Node score="0.004024265704920138">
							<SimplePredicate field="ODI" operator="greaterThan" value="64.22000000000001"/>
						</Node>
						<Node score="-0.023192978137176384">
							<SimplePredicate field="PT" operator="greaterThan" value="18.500000000000004"/>
						</Node>
					</Node>
				</TreeModel>
			</Segment>
			<Segment id="66">
				<True/>
				<TreeModel functionName="regression" noTrueChildStrategy="returnLastPrediction">
					<MiningSchema>
						<MiningField name="ODI"/>
						<MiningField name="PT"/>
						<MiningField name="PI-LL"/>
					</MiningSchema>
					<Node score="-0.022467254158916507">
						<True/>
						<Node score="0.03305963899968258">
							<SimplePredicate field="PI-LL" operator="greaterThan" value="28.500000000000004"/>
						</Node>
						<Node score="0.0036218391344280845">
							<SimplePredicate field="ODI" operator="greaterThan" value="64.22000000000001"/>
						</Node>
						<Node score="-0.020873680323458745">
							<SimplePredicate field="PT" operator="greaterThan" value="18.500000000000004"/>
						</Node>
					</Node>
				</TreeModel>
			</Segment>
			<Segment id="67">
				<True/>
				<TreeModel functionName="regression" noTrueChildStrategy="returnLastPrediction">
					<MiningSchema>
						<MiningField name="ODI"/>
						<MiningField name="PI-LL"/>
					</MiningSchema>
					<Node score="-0.0019099254987337668">
						<True/>
						<Node score="0.4108124751747127">
							<SimplePredicate field="PI-LL" operator="greaterThan" value="16.500000000000004"/>
							<Node score="3.4888220838587004E-4">
								<SimplePredicate field="ODI" operator="greaterThan" value="57.89000000000001"/>
							</Node>
						</Node>
					</Node>
				</TreeModel>
			</Segment>
			<Segment id="68">
				<True/>
				<TreeModel functionName="regression" noTrueChildStrategy="returnLastPrediction">
					<MiningSchema>
						<MiningField name="ODI"/>
						<MiningField name="PI-LL"/>
					</MiningSchema>
					<Node score="-0.03697711517780281">
						<True/>
						<Node score="0.008608459352113051">
							<SimplePredicate field="PI-LL" operator="greaterThan" value="6.1499999999999995"/>
							<Node score="-0.0032243415930446775">
								<SimplePredicate field="ODI" operator="greaterThan" value="67.33500000000002"/>
							</Node>
							<Node score="0.053049138885438656">
								<SimplePredicate field="ODI" operator="greaterThan" value="49.00000000000001"/>
							</Node>
						</Node>
					</Node>
				</TreeModel>
			</Segment>
			<Segment id="69">
				<True/>
				<TreeModel functionName="regression" noTrueChildStrategy="returnLastPrediction">
					<MiningSchema>
						<MiningField name="PT"/>
						<MiningField name="PI-LL"/>
					</MiningSchema>
					<Node score="-0.01215893803034689">
						<True/>
						<Node score="0.027227547014256184">
							<SimplePredicate field="PI-LL" operator="greaterThan" value="28.500000000000004"/>
						</Node>
						<Node score="-0.03504252201118563">
							<SimplePredicate field="PI-LL" operator="greaterThan" value="22.050000000000004"/>
						</Node>
						<Node score="0.006085920543918455">
							<SimplePredicate field="PT" operator="greaterThan" value="20.450000000000003"/>
						</Node>
					</Node>
				</TreeModel>
			</Segment>
			<Segment id="70">
				<True/>
				<TreeModel functionName="regression" noTrueChildStrategy="returnLastPrediction">
					<MiningSchema>
						<MiningField name="ODI"/>
						<MiningField name="PI-LL"/>
					</MiningSchema>
					<Node score="-0.003910099326592764">
						<True/>
						<Node score="0.015345676613340587">
							<SimplePredicate field="ODI" operator="greaterThan" value="83.00000000000001"/>
						</Node>
						<Node score="-0.05194331705628877">
							<SimplePredicate field="ODI" operator="greaterThan" value="61.00000000000001"/>
						</Node>
						<Node score="0.2663478901735942">
							<SimplePredicate field="PI-LL" operator="greaterThan" value="16.500000000000004"/>
						</Node>
					</Node>
				</TreeModel>
			</Segment>
			<Segment id="71">
				<True/>
				<TreeModel functionName="regression" noTrueChildStrategy="returnLastPrediction">
					<MiningSchema>
						<MiningField name="ODI"/>
						<MiningField name="PI-LL"/>
					</MiningSchema>
					<Node score="0.029062663020109448">
						<True/>
						<Node score="0.013811108952006636">
							<SimplePredicate field="ODI" operator="greaterThan" value="83.00000000000001"/>
						</Node>
						<Node score="-9.176285882183777E-4">
							<SimplePredicate field="ODI" operator="greaterThan" value="53.665000000000006"/>
							<Node score="-0.046748985350659925">
								<SimplePredicate field="PI-LL" operator="greaterThan" value="23.400000000000002"/>
							</Node>
						</Node>
					</Node>
				</TreeModel>
			</Segment>
			<Segment id="72">
				<True/>
				<TreeModel functionName="regression" noTrueChildStrategy="returnLastPrediction">
					<MiningSchema>
						<MiningField name="PT"/>
						<MiningField name="PI-LL"/>
					</MiningSchema>
					<Node score="-0.08272105809832914">
						<True/>
						<Node score="-0.025001877429761524">
							<SimplePredicate field="PT" operator="greaterThan" value="25.200000000000006"/>
						</Node>
						<Node score="0.049652638611527515">
							<SimplePredicate field="PT" operator="greaterThan" value="20.450000000000003"/>
						</Node>
						<Node score="0.013249215880036093">
							<SimplePredicate field="PI-LL" operator="greaterThan" value="16.500000000000004"/>
						</Node>
					</Node>
				</TreeModel>
			</Segment>
			<Segment id="73">
				<True/>
				<TreeModel functionName="regression" noTrueChildStrategy="returnLastPrediction">
					<MiningSchema>
						<MiningField name="ODI"/>
						<MiningField name="PT"/>
						<MiningField name="PI-LL"/>
					</MiningSchema>
					<Node score="-0.01395677816373296">
						<True/>
						<Node score="0.012654640870902867">
							<SimplePredicate field="PI-LL" operator="greaterThan" value="28.500000000000004"/>
						</Node>
						<Node score="-0.08769310110896616">
							<SimplePredicate field="PT" operator="greaterThan" value="22.200000000000003"/>
						</Node>
						<Node score="0.005115244227148975">
							<SimplePredicate field="ODI" operator="greaterThan" value="56.89000000000001"/>
						</Node>
					</Node>
				</TreeModel>
			</Segment>
			<Segment id="74">
				<True/>
				<TreeModel functionName="regression" noTrueChildStrategy="returnLastPrediction">
					<MiningSchema>
						<MiningField name="ODI"/>
						<MiningField name="PI-LL"/>
					</MiningSchema>
					<Node score="-0.0249109826001333">
						<True/>
						<Node score="0.0173652773365264">
							<SimplePredicate field="PI-LL" operator="greaterThan" value="6.1499999999999995"/>
							<Node score="-0.01569516879456554">
								<SimplePredicate field="ODI" operator="greaterThan" value="75.00000000000001"/>
							</Node>
							<Node score="0.0019629808538542018">
								<SimplePredicate field="PI-LL" operator="greaterThan" value="22.050000000000004"/>
							</Node>
						</Node>
					</Node>
				</TreeModel>
			</Segment>
			<Segment id="75">
				<True/>
				<TreeModel functionName="regression" noTrueChildStrategy="returnLastPrediction">
					<MiningSchema>
						<MiningField name="ODI"/>
						<MiningField name="PI-LL"/>
					</MiningSchema>
					<Node score="-0.010070002087346354">
						<True/>
						<Node score="0.015234238592148586">
							<SimplePredicate field="ODI" operator="greaterThan" value="83.00000000000001"/>
						</Node>
						<Node score="-0.044106830911697786">
							<SimplePredicate field="ODI" operator="greaterThan" value="61.00000000000001"/>
						</Node>
						<Node score="0.012273041686210729">
							<SimplePredicate field="PI-LL" operator="greaterThan" value="9.250000000000002"/>
						</Node>
					</Node>
				</TreeModel>
			</Segment>
			<Segment id="76">
				<True/>
				<TreeModel functionName="regression" noTrueChildStrategy="returnLastPrediction">
					<MiningSchema>
						<MiningField name="ODI"/>
						<MiningField name="PI-LL"/>
					</MiningSchema>
					<Node score="-0.009063001878611731">
						<True/>
						<Node score="0.013710814732933585">
							<SimplePredicate field="ODI" operator="greaterThan" value="83.00000000000001"/>
						</Node>
						<Node score="-0.039696147820527994">
							<SimplePredicate field="ODI" operator="greaterThan" value="61.00000000000001"/>
						</Node>
						<Node score="0.011045737517589683">
							<SimplePredicate field="PI-LL" operator="greaterThan" value="9.250000000000002"/>
						</Node>
					</Node>
				</TreeModel>
			</Segment>
			<Segment id="77">
				<True/>
				<TreeModel functionName="regression" noTrueChildStrategy="returnLastPrediction">
					<MiningSchema>
						<MiningField name="PT"/>
						<MiningField name="PI-LL"/>
					</MiningSchema>
					<Node score="-0.06864887581551378">
						<True/>
						<Node score="-0.0162605555816544">
							<SimplePredicate field="PT" operator="greaterThan" value="25.200000000000006"/>
						</Node>
						<Node score="0.04676986197457289">
							<SimplePredicate field="PT" operator="greaterThan" value="20.450000000000003"/>
						</Node>
						<Node score="0.01564447432442755">
							<SimplePredicate field="PI-LL" operator="greaterThan" value="16.500000000000004"/>
						</Node>
					</Node>
				</TreeModel>
			</Segment>
			<Segment id="78">
				<True/>
				<TreeModel functionName="regression" noTrueChildStrategy="returnLastPrediction">
					<MiningSchema>
						<MiningField name="ODI"/>
						<MiningField name="PI-LL"/>
					</MiningSchema>
					<Node score="-0.0377128422979676">
						<True/>
						<Node score="0.013965788817805703">
							<SimplePredicate field="ODI" operator="greaterThan" value="83.00000000000001"/>
						</Node>
						<Node score="0.007546425268175128">
							<SimplePredicate field="PI-LL" operator="greaterThan" value="6.1499999999999995"/>
							<Node score="-0.015760216624092528">
								<SimplePredicate field="PI-LL" operator="greaterThan" value="22.050000000000004"/>
							</Node>
						</Node>
					</Node>
				</TreeModel>
			</Segment>
			<Segment id="79">
				<True/>
				<TreeModel functionName="regression" noTrueChildStrategy="returnLastPrediction">
					<MiningSchema>
						<MiningField name="ODI"/>
						<MiningField name="PT"/>
						<MiningField name="PI-LL"/>
					</MiningSchema>
					<Node score="-0.0023214659951410256">
						<True/>
						<Node score="-0.01305847836107965">
							<SimplePredicate field="PT" operator="greaterThan" value="25.200000000000006"/>
						</Node>
						<Node score="-0.02551243518539792">
							<SimplePredicate field="PI-LL" operator="greaterThan" value="26.500000000000004"/>
						</Node>
						<Node score="0.04473940923234874">
							<SimplePredicate field="ODI" operator="greaterThan" value="57.89000000000001"/>
						</Node>
					</Node>
				</TreeModel>
			</Segment>
			<Segment id="80">
				<True/>
				<TreeModel functionName="regression" noTrueChildStrategy="returnLastPrediction">
					<MiningSchema>
						<MiningField name="ODI"/>
					</MiningSchema>
					<Node score="-0.0020893193956268877">
						<True/>
						<Node score="0.013875057772133204">
							<SimplePredicate field="ODI" operator="greaterThan" value="83.00000000000001"/>
						</Node>
						<Node score="-0.033163715289969">
							<SimplePredicate field="ODI" operator="greaterThan" value="61.00000000000001"/>
						</Node>
						<Node score="0.00914827359767365">
							<SimplePredicate field="ODI" operator="greaterThan" value="46.33500000000001"/>
						</Node>
					</Node>
				</TreeModel>
			</Segment>
			<Segment id="81">
				<True/>
				<TreeModel functionName="regression" noTrueChildStrategy="returnLastPrediction">
					<MiningSchema>
						<MiningField name="ODI"/>
						<MiningField name="PT"/>
						<MiningField name="PI-LL"/>
					</MiningSchema>
					<Node score="-0.0018803874560642698">
						<True/>
						<Node score="-0.012667457884739265">
							<SimplePredicate field="PT" operator="greaterThan" value="25.200000000000006"/>
						</Node>
						<Node score="-0.019644820137861264">
							<SimplePredicate field="PI-LL" operator="greaterThan" value="26.500000000000004"/>
						</Node>
						<Node score="0.04358183983811077">
							<SimplePredicate field="ODI" operator="greaterThan" value="57.89000000000001"/>
						</Node>
					</Node>
				</TreeModel>
			</Segment>
			<Segment id="82">
				<True/>
				<TreeModel functionName="regression" noTrueChildStrategy="returnLastPrediction">
					<MiningSchema>
						<MiningField name="ODI"/>
						<MiningField name="PT"/>
					</MiningSchema>
					<Node score="0.01563778885908116">
						<True/>
						<Node score="0.01375429778339381">
							<SimplePredicate field="ODI" operator="greaterThan" value="83.00000000000001"/>
						</Node>
						<Node score="0.031066530469209087">
							<SimplePredicate field="PT" operator="greaterThan" value="18.500000000000004"/>
							<Node score="-0.08726150436150269">
								<SimplePredicate field="ODI" operator="greaterThan" value="57.89000000000001"/>
							</Node>
						</Node>
					</Node>
				</TreeModel>
			</Segment>
			<Segment id="83">
				<True/>
				<TreeModel functionName="regression" noTrueChildStrategy="returnLastPrediction">
					<MiningSchema>
						<MiningField name="ODI"/>
						<MiningField name="PT"/>
						<MiningField name="PI-LL"/>
					</MiningSchema>
					<Node score="-0.0025564091122920463">
						<True/>
						<Node score="-0.014507365143186492">
							<SimplePredicate field="PT" operator="greaterThan" value="25.200000000000006"/>
						</Node>
						<Node score="0.012038094886315909">
							<SimplePredicate field="ODI" operator="greaterThan" value="64.22000000000001"/>
						</Node>
						<Node score="0.008634149365784438">
							<SimplePredicate field="PI-LL" operator="greaterThan" value="11.500000000000002"/>
						</Node>
					</Node>
				</TreeModel>
			</Segment>
			<Segment id="84">
				<True/>
				<TreeModel functionName="regression" noTrueChildStrategy="returnLastPrediction">
					<MiningSchema>
						<MiningField name="ODI"/>
						<MiningField name="PT"/>
						<MiningField name="PI-LL"/>
					</MiningSchema>
					<Node score="-0.035874176661514656">
						<True/>
						<Node score="4.452644655437155E-5">
							<SimplePredicate field="PI-LL" operator="greaterThan" value="25.500000000000004"/>
							<Node score="0.05768430782609997">
								<SimplePredicate field="PT" operator="greaterThan" value="23.500000000000004"/>
							</Node>
						</Node>
						<Node score="0.010651953652003866">
							<SimplePredicate field="ODI" operator="greaterThan" value="57.89000000000001"/>
						</Node>
					</Node>
				</TreeModel>
			</Segment>
			<Segment id="85">
				<True/>
				<TreeModel functionName="regression" noTrueChildStrategy="returnLastPrediction">
					<MiningSchema>
						<MiningField name="PT"/>
						<MiningField name="PI-LL"/>
					</MiningSchema>
					<Node score="-0.05510430702800986">
						<True/>
						<Node score="-0.009469210962716447">
							<SimplePredicate field="PT" operator="greaterThan" value="25.200000000000006"/>
						</Node>
						<Node score="0.04192981111033909">
							<SimplePredicate field="PT" operator="greaterThan" value="20.450000000000003"/>
						</Node>
						<Node score="0.01162267337366063">
							<SimplePredicate field="PI-LL" operator="greaterThan" value="16.500000000000004"/>
						</Node>
					</Node>
				</TreeModel>
			</Segment>
			<Segment id="86">
				<True/>
				<TreeModel functionName="regression" noTrueChildStrategy="returnLastPrediction">
					<MiningSchema>
						<MiningField name="ODI"/>
						<MiningField name="PT"/>
						<MiningField name="PI-LL"/>
					</MiningSchema>
					<Node score="-0.002994458614232058">
						<True/>
						<Node score="-0.008522289866444765">
							<SimplePredicate field="PT" operator="greaterThan" value="25.200000000000006"/>
						</Node>
						<Node score="-0.016299484543580656">
							<SimplePredicate field="PI-LL" operator="greaterThan" value="26.500000000000004"/>
						</Node>
						<Node score="0.03756495379727707">
							<SimplePredicate field="ODI" operator="greaterThan" value="57.89000000000001"/>
						</Node>
					</Node>
				</TreeModel>
			</Segment>
			<Segment id="87">
				<True/>
				<TreeModel functionName="regression" noTrueChildStrategy="returnLastPrediction">
					<MiningSchema>
						<MiningField name="PT"/>
						<MiningField name="PI-LL"/>
					</MiningSchema>
					<Node score="-0.0026950127528088523">
						<True/>
						<Node score="-0.006259769654704517">
							<SimplePredicate field="PT" operator="greaterThan" value="21.200000000000003"/>
							<Node score="0.03178767547304258">
								<SimplePredicate field="PI-LL" operator="greaterThan" value="24.500000000000004"/>
							</Node>
						</Node>
						<Node score="0.006886242402247245">
							<SimplePredicate field="PI-LL" operator="greaterThan" value="16.500000000000004"/>
						</Node>
					</Node>
				</TreeModel>
			</Segment>
			<Segment id="88">
				<True/>
				<TreeModel functionName="regression" noTrueChildStrategy="returnLastPrediction">
					<MiningSchema>
						<MiningField name="ODI"/>
						<MiningField name="PT"/>
						<MiningField name="PI-LL"/>
					</MiningSchema>
					<Node score="-0.0033245064708331343">
						<True/>
						<Node score="-0.007044083914329847">
							<SimplePredicate field="PT" operator="greaterThan" value="25.200000000000006"/>
						</Node>
						<Node score="-0.015358160329447347">
							<SimplePredicate field="PI-LL" operator="greaterThan" value="26.500000000000004"/>
						</Node>
						<Node score="0.006197618162022512">
							<SimplePredicate field="ODI" operator="greaterThan" value="54.50000000000001"/>
						</Node>
					</Node>
				</TreeModel>
			</Segment>
			<Segment id="89">
				<True/>
				<TreeModel functionName="regression" noTrueChildStrategy="returnLastPrediction">
					<MiningSchema>
						<MiningField name="PT"/>
						<MiningField name="PI-LL"/>
					</MiningSchema>
					<Node score="-0.0020930608304446535">
						<True/>
						<Node score="-0.00511536316997594">
							<SimplePredicate field="PT" operator="greaterThan" value="21.200000000000003"/>
							<Node score="0.02931331631717118">
								<SimplePredicate field="PI-LL" operator="greaterThan" value="24.500000000000004"/>
							</Node>
						</Node>
						<Node score="0.005577856345820287">
							<SimplePredicate field="PI-LL" operator="greaterThan" value="16.500000000000004"/>
						</Node>
					</Node>
				</TreeModel>
			</Segment>
			<Segment id="90">
				<True/>
				<TreeModel functionName="regression" noTrueChildStrategy="returnLastPrediction">
					<MiningSchema>
						<MiningField name="ODI"/>
						<MiningField name="PT"/>
					</MiningSchema>
					<Node score="-0.01780505628756788">
						<True/>
						<Node score="-0.008357926405706451">
							<SimplePredicate field="PT" operator="greaterThan" value="25.200000000000006"/>
						</Node>
						<Node score="0.07304417003084947">
							<SimplePredicate field="PT" operator="greaterThan" value="17.500000000000004"/>
							<Node score="-5.1278363469631216E-5">
								<SimplePredicate field="ODI" operator="greaterThan" value="61.00000000000001"/>
							</Node>
						</Node>
					</Node>
				</TreeModel>
			</Segment>
			<Segment id="91">
				<True/>
				<TreeModel functionName="regression" noTrueChildStrategy="returnLastPrediction">
					<MiningSchema>
						<MiningField name="ODI"/>
						<MiningField name="PT"/>
						<MiningField name="PI-LL"/>
					</MiningSchema>
					<Node score="0.0011973905193007007">
						<True/>
						<Node score="0.10207813871283983">
							<SimplePredicate field="PI-LL" operator="greaterThan" value="24.500000000000004"/>
							<Node score="-0.0075221337651356635">
								<SimplePredicate field="ODI" operator="greaterThan" value="69.00000000000001"/>
							</Node>
						</Node>
						<Node score="-0.008917445089698451">
							<SimplePredicate field="PT" operator="greaterThan" value="21.200000000000003"/>
						</Node>
					</Node>
				</TreeModel>
			</Segment>
			<Segment id="92">
				<True/>
				<TreeModel functionName="regression" noTrueChildStrategy="returnLastPrediction">
					<MiningSchema>
						<MiningField name="ODI"/>
						<MiningField name="PT"/>
						<MiningField name="PI-LL"/>
					</MiningSchema>
					<Node score="-0.009307910802415205">
						<True/>
						<Node score="-0.006769920388622098">
							<SimplePredicate field="PT" operator="greaterThan" value="25.200000000000006"/>
						</Node>
						<Node score="-0.0245828159660217">
							<SimplePredicate field="PI-LL" operator="greaterThan" value="26.500000000000004"/>
						</Node>
						<Node score="0.034465661919933076">
							<SimplePredicate field="ODI" operator="greaterThan" value="57.89000000000001"/>
						</Node>
					</Node>
				</TreeModel>
			</Segment>
			<Segment id="93">
				<True/>
				<TreeModel functionName="regression" noTrueChildStrategy="returnLastPrediction">
					<MiningSchema>
						<MiningField name="ODI"/>
						<MiningField name="PT"/>
					</MiningSchema>
					<Node score="0.03501172861962152">
						<True/>
						<Node score="-0.0067389117896963675">
							<SimplePredicate field="ODI" operator="greaterThan" value="53.665000000000006"/>
							<Node score="0.006719631088036949">
								<SimplePredicate field="ODI" operator="greaterThan" value="83.00000000000001"/>
							</Node>
							<Node score="-0.0053284230870430885">
								<SimplePredicate field="PT" operator="greaterThan" value="20.450000000000003"/>
							</Node>
						</Node>
					</Node>
				</TreeModel>
			</Segment>
			<Segment id="94">
				<True/>
				<TreeModel functionName="regression" noTrueChildStrategy="returnLastPrediction">
					<MiningSchema>
						<MiningField name="ODI"/>
						<MiningField name="PT"/>
					</MiningSchema>
					<Node score="0.031510555757659285">
						<True/>
						<Node score="-0.006065020610726713">
							<SimplePredicate field="ODI" operator="greaterThan" value="53.665000000000006"/>
							<Node score="0.006047667979233395">
								<SimplePredicate field="ODI" operator="greaterThan" value="83.00000000000001"/>
							</Node>
							<Node score="-0.004795580778338771">
								<SimplePredicate field="PT" operator="greaterThan" value="20.450000000000003"/>
							</Node>
						</Node>
					</Node>
				</TreeModel>
			</Segment>
			<Segment id="95">
				<True/>
				<TreeModel functionName="regression" noTrueChildStrategy="returnLastPrediction">
					<MiningSchema>
						<MiningField name="ODI"/>
						<MiningField name="PT"/>
					</MiningSchema>
					<Node score="0.02835950018189335">
						<True/>
						<Node score="-0.0054585185496540236">
							<SimplePredicate field="ODI" operator="greaterThan" value="53.665000000000006"/>
							<Node score="0.0054429011813098786">
								<SimplePredicate field="ODI" operator="greaterThan" value="83.00000000000001"/>
							</Node>
							<Node score="-0.004316022700504885">
								<SimplePredicate field="PT" operator="greaterThan" value="20.450000000000003"/>
							</Node>
						</Node>
					</Node>
				</TreeModel>
			</Segment>
			<Segment id="96">
				<True/>
				<TreeModel functionName="regression" noTrueChildStrategy="returnLastPrediction">
					<MiningSchema>
						<MiningField name="ODI"/>
						<MiningField name="PT"/>
					</MiningSchema>
					<Node score="0.025523550163704025">
						<True/>
						<Node score="-0.00491266669468855">
							<SimplePredicate field="ODI" operator="greaterThan" value="53.665000000000006"/>
							<Node score="0.0048986110631787485">
								<SimplePredicate field="ODI" operator="greaterThan" value="83.00000000000001"/>
							</Node>
							<Node score="-0.003884420430454405">
								<SimplePredicate field="PT" operator="greaterThan" value="20.450000000000003"/>
							</Node>
						</Node>
					</Node>
				</TreeModel>
			</Segment>
			<Segment id="97">
				<True/>
				<TreeModel functionName="regression" noTrueChildStrategy="returnLastPrediction">
					<MiningSchema>
						<MiningField name="ODI"/>
						<MiningField name="PT"/>
					</MiningSchema>
					<Node score="0.02297119514733357">
						<True/>
						<Node score="-0.004421400025219624">
							<SimplePredicate field="ODI" operator="greaterThan" value="53.665000000000006"/>
							<Node score="0.004408749956860802">
								<SimplePredicate field="ODI" operator="greaterThan" value="83.00000000000001"/>
							</Node>
							<Node score="-0.0034959783874089823">
								<SimplePredicate field="PT" operator="greaterThan" value="20.450000000000003"/>
							</Node>
						</Node>
					</Node>
				</TreeModel>
			</Segment>
			<Segment id="98">
				<True/>
				<TreeModel functionName="regression" noTrueChildStrategy="returnLastPrediction">
					<MiningSchema>
						<MiningField name="ODI"/>
						<MiningField name="PT"/>
					</MiningSchema>
					<Node score="0.020674075632600177">
						<True/>
						<Node score="-0.003979260022697684">
							<SimplePredicate field="ODI" operator="greaterThan" value="53.665000000000006"/>
							<Node score="0.003967874961174545">
								<SimplePredicate field="ODI" operator="greaterThan" value="83.00000000000001"/>
							</Node>
							<Node score="-0.0031463805486680488">
								<SimplePredicate field="PT" operator="greaterThan" value="20.450000000000003"/>
							</Node>
						</Node>
					</Node>
				</TreeModel>
			</Segment>
			<Segment id="99">
				<True/>
				<TreeModel functionName="regression" noTrueChildStrategy="returnLastPrediction">
					<MiningSchema>
						<MiningField name="ODI"/>
						<MiningField name="PI-LL"/>
					</MiningSchema>
					<Node score="0.018606668069340238">
						<True/>
						<Node score="2.4843666769616137E-4">
							<SimplePredicate field="ODI" operator="greaterThan" value="53.665000000000006"/>
							<Node score="-0.0341442476082646">
								<SimplePredicate field="PI-LL" operator="greaterThan" value="26.500000000000004"/>
							</Node>
						</Node>
					</Node>
				</TreeModel>
			</Segment>
			<Segment id="100">
				<True/>
				<TreeModel functionName="regression" noTrueChildStrategy="returnLastPrediction">
					<MiningSchema>
						<MiningField name="ODI"/>
						<MiningField name="PT"/>
					</MiningSchema>
					<Node score="0.05738695315139095">
						<True/>
						<Node score="-0.0058270472119133394">
							<SimplePredicate field="PT" operator="greaterThan" value="25.200000000000006"/>
						</Node>
						<Node score="-0.0027779556598092727">
							<SimplePredicate field="ODI" operator="greaterThan" value="53.665000000000006"/>
							<Node score="-3.7524083121125433E-4">
								<SimplePredicate field="ODI" operator="greaterThan" value="67.33500000000002"/>
							</Node>
						</Node>
					</Node>
				</TreeModel>
			</Segment>
			<Segment id="101">
				<True/>
				<TreeModel functionName="regression" noTrueChildStrategy="returnLastPrediction">
					<MiningSchema>
						<MiningField name="ODI"/>
						<MiningField name="PT"/>
					</MiningSchema>
					<Node score="0.05164825783625182">
						<True/>
						<Node score="-0.005244342490722077">
							<SimplePredicate field="PT" operator="greaterThan" value="25.200000000000006"/>
						</Node>
						<Node score="-0.002500160093828363">
							<SimplePredicate field="ODI" operator="greaterThan" value="53.665000000000006"/>
							<Node score="-3.377167480901555E-4">
								<SimplePredicate field="ODI" operator="greaterThan" value="67.33500000000002"/>
							</Node>
						</Node>
					</Node>
				</TreeModel>
			</Segment>
			<Segment id="102">
				<True/>
				<TreeModel functionName="regression" noTrueChildStrategy="returnLastPrediction">
					<MiningSchema>
						<MiningField name="ODI"/>
						<MiningField name="PI-LL"/>
					</MiningSchema>
					<Node score="-0.03754636817815318">
						<True/>
						<Node score="-0.025118991337504684">
							<SimplePredicate field="ODI" operator="greaterThan" value="75.00000000000001"/>
						</Node>
						<Node score="0.22668469175620026">
							<SimplePredicate field="PI-LL" operator="greaterThan" value="12.1"/>
							<Node score="-4.528157212257966E-6">
								<SimplePredicate field="ODI" operator="greaterThan" value="57.89000000000001"/>
							</Node>
						</Node>
					</Node>
				</TreeModel>
			</Segment>
			<Segment id="103">
				<True/>
				<TreeModel functionName="regression" noTrueChildStrategy="returnLastPrediction">
					<MiningSchema>
						<MiningField name="PT"/>
						<MiningField name="PI-LL"/>
					</MiningSchema>
					<Node score="0.001583123234131456">
						<True/>
						<Node score="-0.022513103296380878">
							<SimplePredicate field="PT" operator="greaterThan" value="25.200000000000006"/>
						</Node>
						<Node score="0.002172556655630942">
							<SimplePredicate field="PI-LL" operator="greaterThan" value="13.400000000000004"/>
							<Node score="-0.01525252535695656">
								<SimplePredicate field="PI-LL" operator="greaterThan" value="26.500000000000004"/>
							</Node>
						</Node>
					</Node>
				</TreeModel>
			</Segment>
			<Segment id="104">
				<True/>
				<TreeModel functionName="regression" noTrueChildStrategy="returnLastPrediction">
					<MiningSchema>
						<MiningField name="ODI"/>
						<MiningField name="PT"/>
						<MiningField name="PI-LL"/>
					</MiningSchema>
					<Node score="-0.07146453876288608">
						<True/>
						<Node score="0.0012217602781356973">
							<SimplePredicate field="PI-LL" operator="greaterThan" value="25.500000000000004"/>
							<Node score="0.012855860659535524">
								<SimplePredicate field="PT" operator="greaterThan" value="23.500000000000004"/>
							</Node>
						</Node>
						<Node score="0.0014248109107182216">
							<SimplePredicate field="ODI" operator="greaterThan" value="54.50000000000001"/>
						</Node>
					</Node>
				</TreeModel>
			</Segment>
			<Segment id="105">
				<True/>
				<TreeModel functionName="regression" noTrueChildStrategy="returnLastPrediction">
					<MiningSchema>
						<MiningField name="ODI"/>
						<MiningField name="PT"/>
						<MiningField name="PI-LL"/>
					</MiningSchema>
					<Node score="-0.006608519754475584">
						<True/>
						<Node score="0.07831015490909313">
							<SimplePredicate field="PI-LL" operator="greaterThan" value="24.500000000000004"/>
							<Node score="-0.001242284844214936">
								<SimplePredicate field="ODI" operator="greaterThan" value="69.00000000000001"/>
							</Node>
						</Node>
						<Node score="-0.02020160254483727">
							<SimplePredicate field="PT" operator="greaterThan" value="21.200000000000003"/>
						</Node>
					</Node>
				</TreeModel>
			</Segment>
			<Segment id="106">
				<True/>
				<TreeModel functionName="regression" noTrueChildStrategy="returnLastPrediction">
					<MiningSchema>
						<MiningField name="PT"/>
					</MiningSchema>
					<Node score="-0.010284974296868567">
						<True/>
						<Node score="-0.011095178835970644">
							<SimplePredicate field="PT" operator="greaterThan" value="25.200000000000006"/>
						</Node>
						<Node score="0.0031452290726070586">
							<SimplePredicate field="PT" operator="greaterThan" value="19.450000000000003"/>
						</Node>
					</Node>
				</TreeModel>
			</Segment>
			<Segment id="107">
				<True/>
				<TreeModel functionName="regression" noTrueChildStrategy="returnLastPrediction">
					<MiningSchema>
						<MiningField name="PT"/>
					</MiningSchema>
					<Node score="-0.009256476867181673">
						<True/>
						<Node score="-0.009985660952373722">
							<SimplePredicate field="PT" operator="greaterThan" value="25.200000000000006"/>
						</Node>
						<Node score="0.002830706165346353">
							<SimplePredicate field="PT" operator="greaterThan" value="19.450000000000003"/>
						</Node>
					</Node>
				</TreeModel>
			</Segment>
			<Segment id="108">
				<True/>
				<TreeModel functionName="regression" noTrueChildStrategy="returnLastPrediction">
					<MiningSchema>
						<MiningField name="ODI"/>
						<MiningField name="PI-LL"/>
					</MiningSchema>
					<Node score="-0.02586529926853185">
						<True/>
						<Node score="0.013802587056837724">
							<SimplePredicate field="ODI" operator="greaterThan" value="83.00000000000001"/>
						</Node>
						<Node score="-0.00697852626056612">
							<SimplePredicate field="PI-LL" operator="greaterThan" value="22.050000000000004"/>
						</Node>
						<Node score="0.0013813515810401356">
							<SimplePredicate field="ODI" operator="greaterThan" value="49.00000000000001"/>
						</Node>
					</Node>
				</TreeModel>
			</Segment>
			<Segment id="109">
				<True/>
				<TreeModel functionName="regression" noTrueChildStrategy="returnLastPrediction">
					<MiningSchema>
						<MiningField name="PT"/>
					</MiningSchema>
					<Node score="-0.0066886379040086655">
						<True/>
						<Node score="-0.008289242231079541">
							<SimplePredicate field="PT" operator="greaterThan" value="25.200000000000006"/>
						</Node>
						<Node score="0.0024095003907077307">
							<SimplePredicate field="PT" operator="greaterThan" value="19.450000000000003"/>
						</Node>
					</Node>
				</TreeModel>
			</Segment>
			<Segment id="110">
				<True/>
				<TreeModel functionName="regression" noTrueChildStrategy="returnLastPrediction">
					<MiningSchema>
						<MiningField name="ODI"/>
						<MiningField name="PI-LL"/>
					</MiningSchema>
					<Node score="-0.023519719380749572">
						<True/>
						<Node score="0.013251252574261942">
							<SimplePredicate field="ODI" operator="greaterThan" value="83.00000000000001"/>
						</Node>
						<Node score="-0.00545174941140143">
							<SimplePredicate field="PI-LL" operator="greaterThan" value="22.050000000000004"/>
						</Node>
						<Node score="0.0010022663838652691">
							<SimplePredicate field="ODI" operator="greaterThan" value="49.00000000000001"/>
						</Node>
					</Node>
				</TreeModel>
			</Segment>
			<Segment id="111">
				<True/>
				<TreeModel functionName="regression" noTrueChildStrategy="returnLastPrediction">
					<MiningSchema>
						<MiningField name="PT"/>
					</MiningSchema>
					<Node score="-0.004571200674000276">
						<True/>
						<Node score="-0.00691514306683132">
							<SimplePredicate field="PT" operator="greaterThan" value="25.200000000000006"/>
						</Node>
						<Node score="0.002068323713250475">
							<SimplePredicate field="PT" operator="greaterThan" value="19.450000000000003"/>
						</Node>
					</Node>
				</TreeModel>
			</Segment>
			<Segment id="112">
				<True/>
				<TreeModel functionName="regression" noTrueChildStrategy="returnLastPrediction">
					<MiningSchema>
						<MiningField name="ODI"/>
						<MiningField name="PT"/>
						<MiningField name="PI-LL"/>
					</MiningSchema>
					<Node score="-0.02181209585763883">
						<True/>
						<Node score="-0.006223628760148259">
							<SimplePredicate field="PT" operator="greaterThan" value="25.200000000000006"/>
						</Node>
						<Node score="-0.017357307798581134">
							<SimplePredicate field="PI-LL" operator="greaterThan" value="26.500000000000004"/>
						</Node>
						<Node score="0.01106302553243701">
							<SimplePredicate field="ODI" operator="greaterThan" value="54.50000000000001"/>
						</Node>
					</Node>
				</TreeModel>
			</Segment>
			<Segment id="113">
				<True/>
				<TreeModel functionName="regression" noTrueChildStrategy="returnLastPrediction">
					<MiningSchema>
						<MiningField name="PT"/>
						<MiningField name="PI-LL"/>
					</MiningSchema>
					<Node score="0.02521892379499917">
						<True/>
						<Node score="0.006833724780635109">
							<SimplePredicate field="PI-LL" operator="greaterThan" value="28.500000000000004"/>
						</Node>
						<Node score="-0.10149480526411257">
							<SimplePredicate field="PT" operator="greaterThan" value="22.200000000000003"/>
						</Node>
						<Node score="-0.002389204354475805">
							<SimplePredicate field="PI-LL" operator="greaterThan" value="13.400000000000004"/>
						</Node>
					</Node>
				</TreeModel>
			</Segment>
			<Segment id="114">
				<True/>
				<TreeModel functionName="regression" noTrueChildStrategy="returnLastPrediction">
					<MiningSchema>
						<MiningField name="ODI"/>
						<MiningField name="PI-LL"/>
					</MiningSchema>
					<Node score="-0.006221823097314606">
						<True/>
						<Node score="0.2913243247739228">
							<SimplePredicate field="PI-LL" operator="greaterThan" value="16.500000000000004"/>
							<Node score="-4.8273743673625806E-4">
								<SimplePredicate field="ODI" operator="greaterThan" value="57.89000000000001"/>
							</Node>
						</Node>
					</Node>
				</TreeModel>
			</Segment>
			<Segment id="115">
				<True/>
				<TreeModel functionName="regression" noTrueChildStrategy="returnLastPrediction">
					<MiningSchema>
						<MiningField name="ODI"/>
						<MiningField name="PT"/>
						<MiningField name="PI-LL"/>
					</MiningSchema>
					<Node score="-0.008421707392093225">
						<True/>
						<Node score="-0.024584217835113976">
							<SimplePredicate field="PT" operator="greaterThan" value="25.200000000000006"/>
						</Node>
						<Node score="-0.015358939816030493">
							<SimplePredicate field="PI-LL" operator="greaterThan" value="26.500000000000004"/>
						</Node>
						<Node score="0.037555996718223496">
							<SimplePredicate field="ODI" operator="greaterThan" value="57.89000000000001"/>
						</Node>
					</Node>
				</TreeModel>
			</Segment>
			<Segment id="116">
				<True/>
				<TreeModel functionName="regression" noTrueChildStrategy="returnLastPrediction">
					<MiningSchema>
						<MiningField name="ODI"/>
						<MiningField name="PT"/>
						<MiningField name="PI-LL"/>
					</MiningSchema>
					<Node score="-0.01534146270062955">
						<True/>
						<Node score="0.008657047829756693">
							<SimplePredicate field="PI-LL" operator="greaterThan" value="28.500000000000004"/>
						</Node>
						<Node score="0.006564524390731874">
							<SimplePredicate field="ODI" operator="greaterThan" value="64.22000000000001"/>
						</Node>
						<Node score="-0.021625868848837923">
							<SimplePredicate field="PT" operator="greaterThan" value="18.500000000000004"/>
						</Node>
					</Node>
				</TreeModel>
			</Segment>
			<Segment id="117">
				<True/>
				<TreeModel functionName="regression" noTrueChildStrategy="returnLastPrediction">
					<MiningSchema>
						<MiningField name="ODI"/>
						<MiningField name="PI-LL"/>
					</MiningSchema>
					<Node score="-0.0364719973567336">
						<True/>
						<Node score="0.007791343046780952">
							<SimplePredicate field="PI-LL" operator="greaterThan" value="28.500000000000004"/>
						</Node>
						<Node score="0.002351055169824168">
							<SimplePredicate field="ODI" operator="greaterThan" value="54.50000000000001"/>
						</Node>
					</Node>
				</TreeModel>
			</Segment>
			<Segment id="118">
				<True/>
				<TreeModel functionName="regression" noTrueChildStrategy="returnLastPrediction">
					<MiningSchema>
						<MiningField name="ODI"/>
						<MiningField name="PT"/>
					</MiningSchema>
					<Node score="0.0603605638768121">
						<True/>
						<Node score="0.013418488461001488">
							<SimplePredicate field="ODI" operator="greaterThan" value="83.00000000000001"/>
						</Node>
						<Node score="-0.004174686862520716">
							<SimplePredicate field="ODI" operator="greaterThan" value="42.11000000000001"/>
							<Node score="-0.014307440834475571">
								<SimplePredicate field="PT" operator="greaterThan" value="22.200000000000003"/>
							</Node>
						</Node>
					</Node>
				</TreeModel>
			</Segment>
			<Segment id="119">
				<True/>
				<TreeModel functionName="regression" noTrueChildStrategy="returnLastPrediction">
					<MiningSchema>
						<MiningField name="PT"/>
						<MiningField name="PI-LL"/>
					</MiningSchema>
					<Node score="-0.04891611712482272">
						<True/>
						<Node score="-0.014885265347598065">
							<SimplePredicate field="PT" operator="greaterThan" value="25.200000000000006"/>
						</Node>
						<Node score="0.03101614609996517">
							<SimplePredicate field="PT" operator="greaterThan" value="20.450000000000003"/>
						</Node>
						<Node score="0.0045192326913000794">
							<SimplePredicate field="PI-LL" operator="greaterThan" value="16.500000000000004"/>
						</Node>
					</Node>
				</TreeModel>
			</Segment>
			<Segment id="120">
				<True/>
				<TreeModel functionName="regression" noTrueChildStrategy="returnLastPrediction">
					<MiningSchema>
						<MiningField name="ODI"/>
						<MiningField name="PT"/>
						<MiningField name="PI-LL"/>
					</MiningSchema>
					<Node score="0.026442576851891976">
						<True/>
						<Node score="0.013565166149660968">
							<SimplePredicate field="ODI" operator="greaterThan" value="83.00000000000001"/>
						</Node>
						<Node score="-0.008781721386449526">
							<SimplePredicate field="PT" operator="greaterThan" value="21.200000000000003"/>
						</Node>
						<Node score="-5.778633819911505E-4">
							<SimplePredicate field="PI-LL" operator="greaterThan" value="13.400000000000004"/>
						</Node>
					</Node>
				</TreeModel>
			</Segment>
			<Segment id="121">
				<True/>
				<TreeModel functionName="regression" noTrueChildStrategy="returnLastPrediction">
					<MiningSchema>
						<MiningField name="ODI"/>
						<MiningField name="PT"/>
					</MiningSchema>
					<Node score="0.0021592842248725932">
						<True/>
						<Node score="-0.012518566674193467">
							<SimplePredicate field="PT" operator="greaterThan" value="25.200000000000006"/>
						</Node>
						<Node score="0.0052882831183848735">
							<SimplePredicate field="ODI" operator="greaterThan" value="64.22000000000001"/>
						</Node>
						<Node score="-0.0010149705963837796">
							<SimplePredicate field="ODI" operator="greaterThan" value="49.00000000000001"/>
						</Node>
					</Node>
				</TreeModel>
			</Segment>
			<Segment id="122">
				<True/>
				<TreeModel functionName="regression" noTrueChildStrategy="returnLastPrediction">
					<MiningSchema>
						<MiningField name="ODI"/>
						<MiningField name="PI-LL"/>
					</MiningSchema>
					<Node score="0.05371034194439145">
						<True/>
						<Node score="0.013460506202114076">
							<SimplePredicate field="ODI" operator="greaterThan" value="83.00000000000001"/>
						</Node>
						<Node score="-0.0027783768427179114">
							<SimplePredicate field="ODI" operator="greaterThan" value="42.11000000000001"/>
							<Node score="-0.017286612601494777">
								<SimplePredicate field="PI-LL" operator="greaterThan" value="25.500000000000004"/>
							</Node>
						</Node>
					</Node>
				</TreeModel>
			</Segment>
			<Segment id="123">
				<True/>
				<TreeModel functionName="regression" noTrueChildStrategy="returnLastPrediction">
					<MiningSchema>
						<MiningField name="PT"/>
						<MiningField name="PI-LL"/>
					</MiningSchema>
					<Node score="-0.046606853835745116">
						<True/>
						<Node score="-0.01098887232250263">
							<SimplePredicate field="PT" operator="greaterThan" value="25.200000000000006"/>
						</Node>
						<Node score="0.027095660774868337">
							<SimplePredicate field="PT" operator="greaterThan" value="20.450000000000003"/>
						</Node>
						<Node score="0.004189267818540988">
							<SimplePredicate field="PI-LL" operator="greaterThan" value="16.500000000000004"/>
						</Node>
					</Node>
				</TreeModel>
			</Segment>
			<Segment id="124">
				<True/>
				<TreeModel functionName="regression" noTrueChildStrategy="returnLastPrediction">
					<MiningSchema>
						<MiningField name="ODI"/>
						<MiningField name="PI-LL"/>
					</MiningSchema>
					<Node score="-0.020031134619256">
						<True/>
						<Node score="0.007052248654147242">
							<SimplePredicate field="PI-LL" operator="greaterThan" value="28.500000000000004"/>
						</Node>
						<Node score="0.002590508197036812">
							<SimplePredicate field="ODI" operator="greaterThan" value="56.89000000000001"/>
						</Node>
					</Node>
				</TreeModel>
			</Segment>
			<Segment id="125">
				<True/>
				<TreeModel functionName="regression" noTrueChildStrategy="returnLastPrediction">
					<MiningSchema>
						<MiningField name="ODI"/>
						<MiningField name="PT"/>
						<MiningField name="PI-LL"/>
					</MiningSchema>
					<Node score="-0.0018574763023670117">
						<True/>
						<Node score="-0.007886871628326731">
							<SimplePredicate field="PT" operator="greaterThan" value="25.200000000000006"/>
						</Node>
						<Node score="0.003213995241444101">
							<SimplePredicate field="ODI" operator="greaterThan" value="64.22000000000001"/>
						</Node>
						<Node score="0.0023314573773331126">
							<SimplePredicate field="PI-LL" operator="greaterThan" value="11.500000000000002"/>
						</Node>
					</Node>
				</TreeModel>
			</Segment>
			<Segment id="126">
				<True/>
				<TreeModel functionName="regression" noTrueChildStrategy="returnLastPrediction">
					<MiningSchema>
						<MiningField name="ODI"/>
						<MiningField name="PT"/>
						<MiningField name="PI-LL"/>
					</MiningSchema>
					<Node score="0.026001545831019525">
						<True/>
						<Node score="0.01329680511157072">
							<SimplePredicate field="ODI" operator="greaterThan" value="83.00000000000001"/>
						</Node>
						<Node score="-0.00505971430463239">
							<SimplePredicate field="PT" operator="greaterThan" value="21.200000000000003"/>
						</Node>
						<Node score="-4.721610900659812E-5">
							<SimplePredicate field="PI-LL" operator="greaterThan" value="13.400000000000004"/>
						</Node>
					</Node>
				</TreeModel>
			</Segment>
			<Segment id="127">
				<True/>
				<TreeModel functionName="regression" noTrueChildStrategy="returnLastPrediction">
					<MiningSchema>
						<MiningField name="ODI"/>
						<MiningField name="PT"/>
						<MiningField name="PI-LL"/>
					</MiningSchema>
					<Node score="-0.011478850411751527">
						<True/>
						<Node score="-0.0065922130350308805">
							<SimplePredicate field="PT" operator="greaterThan" value="25.200000000000006"/>
						</Node>
						<Node score="-0.013271943677851096">
							<SimplePredicate field="PI-LL" operator="greaterThan" value="26.500000000000004"/>
						</Node>
						<Node score="0.004374445143389494">
							<SimplePredicate field="ODI" operator="greaterThan" value="54.50000000000001"/>
						</Node>
					</Node>
				</TreeModel>
			</Segment>
			<Segment id="128">
				<True/>
				<TreeModel functionName="regression" noTrueChildStrategy="returnLastPrediction">
					<MiningSchema>
						<MiningField name="ODI"/>
						<MiningField name="PT"/>
						<MiningField name="PI-LL"/>
					</MiningSchema>
					<Node score="-8.105369782489103E-4">
						<True/>
						<Node score="-0.005932991731527793">
							<SimplePredicate field="PT" operator="greaterThan" value="25.200000000000006"/>
						</Node>
						<Node score="0.00287584523550426">
							<SimplePredicate field="ODI" operator="greaterThan" value="64.22000000000001"/>
						</Node>
						<Node score="0.0012846998696790736">
							<SimplePredicate field="PI-LL" operator="greaterThan" value="11.500000000000002"/>
						</Node>
					</Node>
				</TreeModel>
			</Segment>
			<Segment id="129">
				<True/>
				<TreeModel functionName="regression" noTrueChildStrategy="returnLastPrediction">
					<MiningSchema>
						<MiningField name="ODI"/>
						<MiningField name="PT"/>
						<MiningField name="PI-LL"/>
					</MiningSchema>
					<Node score="-0.0301710062876529">
						<True/>
						<Node score="0.0011562298827112016">
							<SimplePredicate field="PI-LL" operator="greaterThan" value="25.500000000000004"/>
							<Node score="0.013219645077069587">
								<SimplePredicate field="PT" operator="greaterThan" value="23.500000000000004"/>
							</Node>
						</Node>
						<Node score="0.0013667645219390678">
							<SimplePredicate field="ODI" operator="greaterThan" value="56.89000000000001"/>
						</Node>
					</Node>
				</TreeModel>
			</Segment>
			<Segment id="130">
				<True/>
				<TreeModel functionName="regression" noTrueChildStrategy="returnLastPrediction">
					<MiningSchema>
						<MiningField name="PT"/>
						<MiningField name="PI-LL"/>
					</MiningSchema>
					<Node score="-0.038111422575344917">
						<True/>
						<Node score="-0.0023225919296098853">
							<SimplePredicate field="PT" operator="greaterThan" value="25.200000000000006"/>
						</Node>
						<Node score="0.02672774253392727">
							<SimplePredicate field="PT" operator="greaterThan" value="20.450000000000003"/>
						</Node>
						<Node score="0.0024621109917213335">
							<SimplePredicate field="PI-LL" operator="greaterThan" value="16.500000000000004"/>
						</Node>
					</Node>
				</TreeModel>
			</Segment>
			<Segment id="131">
				<True/>
				<TreeModel functionName="regression" noTrueChildStrategy="returnLastPrediction">
					<MiningSchema>
						<MiningField name="ODI"/>
						<MiningField name="PT"/>
						<MiningField name="PI-LL"/>
					</MiningSchema>
					<Node score="-3.851569050514758E-4">
						<True/>
						<Node score="-0.0020903327366490034">
							<SimplePredicate field="PT" operator="greaterThan" value="25.200000000000006"/>
						</Node>
						<Node score="-0.0016130404109022225">
							<SimplePredicate field="ODI" operator="greaterThan" value="61.00000000000001"/>
						</Node>
						<Node score="0.09435165942974857">
							<SimplePredicate field="PI-LL" operator="greaterThan" value="11.500000000000002"/>
						</Node>
					</Node>
				</TreeModel>
			</Segment>
			<Segment id="132">
				<True/>
				<TreeModel functionName="regression" noTrueChildStrategy="returnLastPrediction">
					<MiningSchema>
						<MiningField name="ODI"/>
						<MiningField name="PT"/>
					</MiningSchema>
					<Node score="0.06975086320929479">
						<True/>
						<Node score="-0.0018812994629840319">
